tree
version=v4
num_class=3
num_tree_per_iteration=3
label_index=0
max_feature_idx=16
objective=multiclass num_class:3
feature_names=tip_rank is_roughie win_prob place_prob value_rating odds field_size distance_bucket class_bucket track_cond_bucket venue_type prize_money_bucket rank1_wp wp_spread gap_to_next fav_odds place_odds
feature_infos=[1:4] [0:1] [2.4508742389516589e-06:0.9979066711190141] [6.1271855973791477e-06:0.94999999999999996] [1.4489047105044937e-05:126.36072543812065] [1.0700000000000001:201] [5:20] [1:5] [0:5] [0:5] [1:3] [1:4] [0.1367461092666539:0.9979066711190141] [0.00174992542323682:0.99727764692258236] [0:0.99704977857221266] [1.0700000000000001:15] [0.35666666666666669:67]
tree_sizes=3137 1190 3297 3231 1220 3241 3365 1213 3241 3464 1219 3245 3455 1221 3239 3456 3055 3345 3230 1218 3343 3351 1214 3452 3358 1222 3449 3466 1224 3454 3239 1213 3136 3441 1220 3136 3453 1214 3036 3338 1210 3137 3129 1222 3259 3453 1219 3135 3466 1215 3247 3256 1221 3142 3250 1213 3366 3459 1229 3357 3242 1223 3140 3143 1216 3356 3458 1226 3367 3348 1228 3244 3447 1227 3246 3462 1223 3266 3455 1230 3485 3461 1115 3465 3470 1226 3456 3370 1113 3465 3351 1124 3360 3361 1224 3471 3243 1120 3465 3479 1112 3344 3478 1120 3372 3227 1223 3407 3462 2315 3373 3448 1221 3154 3481 1223 3382 3341 1221 3478 3468 1220 3456 3375 1224 3378 3343 1224 3346 3249 1225 3370 3464 1116 3492 3327 1227 3261 3237 2618 3260 3462 1221 3358 3361 1204 3240 3140 1120 3240 3158 907 3489 3428 900 3255 3197 907 3259 2933 1113 3486 3230 1107 3494 3362 1200 3120 3376 1220 3123 2795 1235 3131 2684 1223 3023 3248 1221 3476 3497 905 3350 3370 1112 3484 3479 1227 2524 3271 1210 2594 3460 1231 3154 2619 1223 3485 2816 1216 3244 3033 1118 3227 3253 1115 3234 3033 1229 3376 3353 1232 3360 3259 1234 3175 2725 1230 2517 3377 1234 2947 3192 1233 2513 3052 1232 2197 2738 1231 2205 2829 1238 2181 2687 1014 1982 2666 1883 2187 2734 1236 2500 3141 1232 2693 3373 1228 2502 3094 1235 2494 3244 1225 2926 3379 1220 2909 3029 1222 2861 2945 1229 2827 3048 1222 1741 2836 1231 1964 3170 1218 3234 3385 1226 3136 2920 1220 2924 2911 1223 2929 3454 1224 2896 2835 1117 3517 2044 1218 3297 2838 1114 3290 2940 1232 1892 2838 1234 1772 3050 1225 3338 2395 1224 3128 2943 1228 1888 2955 1228 3366 1551 1116 3372 2947 1222 3266 2200 1227 3053 2289 1224 3506 2711 1232 3270 2304 1220 3495 2203 1234 3028 1663 1243 3158 2085 1236 3379 2089 1234 2722 1440 1211 2690 2719 1015 1760 2604 1235 1439 2318 1238 1442 3464 1239 3253 2315 1120 3245 2945 1109 1774 3040 1106 2717 3045 1105 1771 3129 1116 1767 3226 1127 1962 3015 1240 2515 2500 1230 2509 2179 1023 2411 2294 1225 2703 2434 1236 2302 2942 1017 2821 2518 1011 3350 2629 1014 2817 2100 1233 3279 2102 1771 2709 2812 1241 2771 1859 1991 3436 1860 1763 3070 1959 1990 2983 1978 2010 2476 3454 1237 3468 1870 1242 2291 1885 1994 2274 1985 1992 1985 1977 1334 3162 2506 1618 2632 2385 1656 3057 2417 1855 2315 2400 1646 3046 2506 1331 2318 1957 1237 2839 2713 1230 2818 1960 1320 2938 1521 1236 3144 1646 1224 2501 2409 1993 2829 1857 1858 2823 1773 1884 2722 1756 1877 2848 1872 1772 2809 2939 1983 2080 2082 1663 2617 1871 1549 2739 2185 1742 2723 2183 1447 2476 3025 1557 3511 2298 1876 3484 1866 1546 3188 3365 1986 1978 1876 1992 2098 1674 1987 3343 3383 1875 3328 1950 1993 2920 3167 1859 2494 1543 1981 2700 2289 1870 3033 2937 2513 2940 1990 2504 2816 1978 2195 3146 1879 1860 3366 3240 1856 3151 3486 1963 3150 3057 2721 3132 2924 2711 3251 2476 3271 2943 3028 1992 3254 3050 2967 3229 2516 1951 1961 2519 1999 1946 1445 2822 1987 3174 3264 2867 2812 2174 2176 2501 3273 3105 3004 3251 2469 2725 2097 2489 3479 1634 1878 2900 1751 1851 3472 1862 2056 2614 1987 2160 3479 1415 2392 1984 3134 2191 1756 3248 2307 1879 3460 3376 1761 2283 2184 2077 3015 3391 2821 2850 2923 1752 3357 3033 2948 3463 1974 1880 3473 2476 1545 2489 1985 2937 2486 2413 2833 2814 3062 2704 2716 2412 2925 3121 2277 2956 2843 2520 1323 2951 2719 1427 2713 3045 1737 3062 3225 1335 3147 3002 1446 1981 3279 3000 2201 1853 2922 2377 1749 2908 2502 1852 3024 2289 1734 1645 2595 2656 2842 2651 2067 2252 2512 2378 2274 2718 2608 2497 2724 2604 2489 2610 1870 2629 2520 3060 2277 3248 3378 2269 3277 3066 2164 2532 3239 1975 3386 3063 2819 2933 2402 3488 2947 2302 3481 2828 2524 2838 2200 1982 3030 2618 2514 1970 3259 2805 3463 3282 2454 3460 3148 1963 3463 3159 2747 3356 3502 3045 2837 2209 2933 3052 1875 3365 3171 2196 2949 3058 3226 3174 2783 2200 2403 2725 2716 2724 2833 2792 2520 2829 2619 2925 2835 2829 2168

Tree=0
num_leaves=29
num_cat=0
split_feature=0 14 4 4 3 12 4 4 3 12 12 4 4 2 4 4 12 4 15 13 12 4 14 14 2 4 8 4
split_gain=18795.2 696.469 492.546 355.533 160.293 109.777 94.6634 60.0612 59.2091 57.5637 47.658 35.934 33.9646 32.1612 29.6593 29.0321 26.4594 22.8671 13.5655 10.434 10.0777 6.47648 6.4652 6.38058 5.71341 4.09309 2.66669 2.6071
threshold=1.5000000000000002 0.20840436562122597 1.2066628217611777 1.0507155505999866 0.47755428312581027 0.61364458491767548 1.7827461747033078 0.73223649117037526 0.68996437461150217 0.27305909222469599 0.26504099393535174 2.0136435996789461 1.2964451759188682 0.14951053220379723 0.73884498667576015 2.6554496100324214 0.4050762265505739 2.2392023482554277 2.4250000000000003 0.11446252245107476 0.27575413972000967 0.85614451686719761 0.37473341803059951 0.30114855169134375 0.12458045564627361 2.1352545100387466 1.5000000000000002 0.53974005845954975
decision_type=2 2 2 2 2 2 2 2 2 2 2 2 2 2 2 2 2 2 2 2 2 2 2 2 2 2 2 2
left_child=1 3 7 8 10 12 9 24 19 -5 15 18 23 26 -10 -4 -13 -12 -6 -1 -8 -15 -7 -3 -2 -14 -9 -26
right_child=2 5 4 6 11 22 20 13 14 -11 17 16 25 21 -16 -17 -18 -19 -20 -21 -22 -23 -24 -25 27 -27 -28 -29
leaf_value=-1.4349709526456105 -1.4565446709844456 -1.3340115613233676 -1.4198152941579048 -1.3766496606597312 -1.3994506017080153 -1.3298659064268565 -1.3284832398224724 -1.4556240757476115 -1.4109452276087633 -1.3330922377703152 -1.442060523444771 -1.3733203370711999 -1.3055347805731079 -1.4446392004714506 -1.3646519400984831 -1.3661079646598795 -1.4062295919410055 -1.4249854200810443 -1.4202143116567267 -1.3929880549147886 -1.3059584934927972 -1.4353880483397712 -1.2810300210621282 -1.3133317368117881 -1.4552233218253599 -1.2942151681984431 -1.4494967946807844 -1.4500759239794294
leaf_weight=63.519802689552307 4459.6424949169159 115.99268317222595 171.7796403169632 96.660569310188293 113.50712567567825 13.808652758598326 88.09920459985733 275.34453600645065 45.016207993030548 411.49785220623016 916.34219706058502 127.86812454462051 386.36610418558121 299.92393791675568 153.5522186756134 28.445824682712555 117.92589455842972 253.25069159269333 250.2127879858017 18.227421641349792 396.03216111660004 591.01033806800842 1073.484665453434 115.16416400671005 587.69626140594482 368.69102865457535 1196.3816750049591 692.36584931612015
leaf_count=230 16148 420 622 350 411 50 319 997 163 1490 3318 463 1399 1086 556 103 427 917 906 66 1434 2140 3887 417 2128 1335 4332 2507
internal_value=-1.41333 -1.31066 -1.44741 -1.3399 -1.42504 -1.29277 -1.32586 -1.45287 -1.38975 -1.34128 -1.43452 -1.40372 -1.30525 -1.44611 -1.37506 -1.41201 -1.389 -1.43838 -1.4137 -1.42542 -1.30986 -1.43854 -1.28157 -1.3233 -1.45564 -1.29985 -1.45067 -1.45247
internal_weight=13427.8 3346.11 10081.7 1272.61 1979.33 2073.51 992.29 8102.37 280.316 508.158 1369.82 609.514 986.214 2362.66 198.568 200.225 245.794 1169.59 363.72 81.7472 484.131 890.934 1087.29 231.157 5739.7 755.057 1471.73 1280.06
internal_count=48621 12116 36505 4608 7167 7508 3593 29338 1015 1840 4960 2207 3571 8555 719 725 890 4235 1317 296 1753 3226 3937 837 20783 2734 5329 4635
is_linear=0
shrinkage=1


Tree=1
num_leaves=10
num_cat=0
split_feature=16 16 0 0 14 12 12 2 12
split_gain=4149.83 3741.96 2114.88 1251.92 421.095 293.024 259.954 57.7845 45.8732
threshold=2.6833333333333336 0.9833333333333335 1.5000000000000002 2.5000000000000004 0.00025983220223236816 0.59475821945602914 0.37262372512429615 0.27163355956169294 0.60996063952932655
decision_type=2 2 2 2 2 2 2 2 2
left_child=1 -1 6 5 -5 -4 7 -3 -8
right_child=-2 2 3 4 -6 -7 8 -9 -10
leaf_value=-1.6014169969964138 -1.6014304219006041 -1.5147739942324059 -1.4848797644246892 -1.5445228489856031 -1.5067456385531797 -1.4412608760581369 -1.576496590688202 -1.5518863594850798 -1.5979523184545001
leaf_weight=1847.1403619647026 3894.3149397969246 144.23388665914536 1223.1232875585556 1348.9231368899345 1630.9140862822533 570.45872271060944 672.34414523839951 381.13617718219757 399.32110589742661
leaf_count=7415 15633 579 4910 5415 6547 2290 2699 1530 1603
internal_value=-1.55892 -1.53878 -1.52061 -1.50395 -1.52383 -1.47095 -1.57041 -1.54162 -1.58452
internal_weight=12111.9 8217.59 6370.45 4773.42 2979.84 1793.58 1597.04 525.37 1071.67
internal_count=48621 32988 25573 19162 11962 7200 6411 2109 4302
is_linear=0
shrinkage=1


Tree=2
num_leaves=30
num_cat=0
split_feature=0 5 5 0 4 14 2 4 4 13 4 4 2 2 5 12 2 12 13 5 5 2 12 4 14 4 6 14 7
split_gain=8294.25 3318.25 2096.04 1434.53 394.152 332.437 270.375 61.8463 60.3635 57.4244 47.691 38.9963 32.781 23.2846 21.6474 20.4153 16.1284 16.0309 14.4982 14.4406 9.87479 8.57977 5.17174 4.67061 3.29191 1.10174 1.06443 0.810277 0.351676
threshold=1.5000000000000002 8.0500000000000025 2.9500000000000006 2.5000000000000004 0.94261758667152618 0.00025983220223236816 0.13953540543397289 1.153084318752601 0.7257998037325224 0.57115574536896618 2.0136435996789461 1.4845078970940924 0.27163355956169294 0.4386478015692406 2.9500000000000006 0.41999477531863666 0.54897260990210783 0.66718648108149681 0.29268245517200553 2.9500000000000006 8.4500000000000011 0.092359397709270277 0.27575413972000967 0.64226166711800026 0.30114855169134375 0.45876433046541221 8.5000000000000018 0.44855550607736855 2.5000000000000004
decision_type=2 2 2 2 2 2 2 2 2 2 2 2 2 2 2 2 2 2 2 2 2 2 2 2 2 2 2 2 2
left_child=4 2 25 9 8 -5 11 16 23 -4 22 21 20 14 -10 -12 19 -14 -13 -6 -9 -3 -8 28 -15 -2 -25 -18 -1
right_child=1 6 3 5 7 -7 10 12 13 -11 15 18 17 24 -16 -17 27 -19 -20 -21 -22 -23 -24 26 -26 -27 -28 -29 -30
leaf_value=-0.575279191965408 -0.54417159755938238 -0.5447965651461153 -0.63962865079276443 -0.58270856015724237 -0.63328210327547452 -0.61016612000944515 -0.57616362509831687 -0.66048569625446274 -0.60240821140148004 -0.65635680298152632 -0.59666193166852244 -0.56744195600726355 -0.66851892472531349 -0.63523923408063554 -0.64031918366092988 -0.57575809407195189 -0.65513045123413438 -0.67613905845278921 -0.55274538918801852 -0.65502533356685877 -0.63809115280412099 -0.55137426810724355 -0.56237502865265376 -0.59974653692175395 -0.65669856639401769 -0.54920043823740194 -0.58439528021440601 -0.67097439498185318 -0.56020296175771089
leaf_weight=23.049924433231354 895.22932314872742 2788.2973104715347 1971.5120849907398 2013.1506581604481 169.90024945139885 2433.997665554285 103.35288697481155 118.22380596399307 117.10848703980446 705.25333306193352 314.89170959591866 318.2376663684845 2331.7600975036621 45.356302917003632 54.278854310512543 186.63003331422806 37.549070447683334 1166.6235947012901 408.57849922776222 150.93982774019241 98.891611278057098 743.54594945907593 305.96915820240974 19.703967660665512 42.753892093896866 382.9261639714241 32.344248801469803 75.098140895366669 20.819286584854126
leaf_count=62 2408 7500 5303 5415 457 6547 278 318 315 1897 847 856 6272 122 146 502 101 3138 1099 406 266 2000 823 53 115 1030 87 202 56
internal_value=-0.604681 -0.585168 -0.604562 -0.615142 -0.663464 -0.597736 -0.553653 -0.667792 -0.612887 -0.644056 -0.57843 -0.548362 -0.669893 -0.62541 -0.614524 -0.588832 -0.649659 -0.671081 -0.559114 -0.643652 -0.650509 -0.546165 -0.565767 -0.579191 -0.646178 -0.54563 -0.589915 -0.66623 -0.567187
internal_weight=18076 13571.6 8402.07 7123.91 4504.4 4447.15 5169.5 4148.99 355.415 2676.77 910.844 4258.66 3715.5 259.498 171.387 501.522 433.487 3498.38 726.816 320.84 217.115 3531.84 409.322 95.9174 88.1102 1278.16 52.0482 112.647 43.8692
internal_count=48621 36505 22600 19162 12116 11962 13905 11160 956 7200 2450 11455 9994 698 461 1349 1166 9410 1955 863 584 9500 1101 258 237 3438 140 303 118
is_linear=0
shrinkage=1


Tree=3
num_leaves=29
num_cat=0
split_feature=0 14 4 4 2 14 4 4 4 2 4 13 4 13 2 4 13 8 14 15 14 4 4 13 2 3 8 4
split_gain=16146.1 518.678 482.3 264.082 147.383 101.374 64.6821 59.5258 46.9797 45.4887 38.9264 38.665 37.4439 36.9869 29.9815 21.2991 19.2582 15.046 12.1571 11.0364 9.00263 7.67418 6.21811 6.09552 5.61536 4.25045 2.68209 2.43956
threshold=1.5000000000000002 0.17661094084850423 1.2066628217611777 1.030721114087825 0.18119409097794162 0.37473341803059951 1.8275031774859094 0.73223649117037526 1.2858990589610466 0.27163355956169294 2.0136435996789461 0.21470512214682957 2.6554496100324214 0.11446252245107476 0.14951053220379723 0.80863704552454718 0.33774710270064895 1.5000000000000002 0.52709260320112172 2.4250000000000003 0.045219936156630537 1.9318871060011245 0.85614451686719761 0.31114338932068103 0.12458045564627361 0.68996437461150217 1.5000000000000002 0.53974005845954975
decision_type=2 2 2 2 2 2 2 2 2 2 2 2 2 2 2 2 2 2 2 2 2 2 2 2 2 2 2 2
left_child=1 3 7 13 11 8 9 24 23 -5 19 12 -4 20 26 -15 -12 -13 -7 -6 -1 -10 -16 -3 -2 -8 -9 -26
right_child=2 5 4 6 10 18 25 14 21 -11 16 17 -14 15 22 -17 -18 -19 -20 -21 -22 -23 -24 -25 27 -27 -28 -29
leaf_value=-0.029957224622109341 -0.042476629650340825 0.058682087798807042 -0.01488209243331224 0.03245052107598128 0.0099917343631391251 0.10398451124123667 0.076617262099944738 -0.041482116227134672 0.089945553366019337 0.070441268350543998 0.030934592677507835 -0.037345601085774616 0.028118916103168818 0.0057621741248843486 -0.030649093362828186 0.04201163836398928 0.0024529143621834361 -0.022731024717887717 0.11573221476375693 -0.0076127216889260337 0.0054714803194601223 0.10249524213188782 -0.021509841234782084 0.077814228191407875 -0.041104450281776256 0.09318641584112386 -0.035259745150195601 -0.036031964156410481
leaf_weight=38.368042826652527 4312.955814063549 90.3387191593647 399.85452574491501 103.77931761741638 128.11065942049026 470.33668208122253 90.276003181934357 265.70224559307098 331.80695044994354 374.20361766219139 189.99864903092384 272.3986801803112 56.938954800367355 64.729964673519135 294.40662354230881 110.60164359211922 86.946696281433105 534.54596787691116 987.89864853024483 285.19957372546196 32.07184824347496 430.23807606101036 584.09694737195969 152.57216462492943 568.16420474648476 323.90719667077065 1160.0359754562378 675.7401359975338
leaf_count=140 16148 311 1474 364 462 1566 308 997 1115 1275 677 1011 205 232 1086 387 315 1985 3260 1038 116 1437 2140 519 2128 1086 4332 2507
internal_value=-3.29636e-06 0.0905375 -0.0332288 0.0625092 -0.0109871 0.103453 0.075143 -0.0387546 0.0909179 0.0622882 0.00758109 -0.021131 -0.00946141 0.0165088 -0.0319513 0.0287658 0.0220518 -0.0277107 0.11202 -0.00213299 -0.0139055 0.0971625 -0.0246097 0.0709892 -0.0415685 0.0897803 -0.0364511 -0.038384
internal_weight=13416.2 3601.13 9815.1 1137.94 1953.99 2463.19 892.166 7861.1 1004.96 477.983 690.256 1263.74 456.793 245.771 2304.24 175.332 276.945 806.945 1458.24 413.31 70.4399 762.045 878.504 242.911 5556.86 414.183 1425.74 1243.9
internal_count=48621 12116 36505 3908 7167 8208 3033 29338 3382 1639 2492 4675 1679 875 8555 619 992 2996 4826 1500 256 2552 3226 830 20783 1394 5329 4635
is_linear=0
shrinkage=0.05


Tree=4
num_leaves=10
num_cat=0
split_feature=5 5 0 14 12 12 2 12 6
split_gain=3815.28 3363.36 1844.26 990.769 422.967 240.566 49.7697 44.4967 24.4016
threshold=8.0500000000000025 2.9500000000000006 1.5000000000000002 0.00025983220223236816 0.6332569669456336 0.37262372512429615 0.27163355956169294 0.60996063952932655 9.5000000000000018
decision_type=2 2 2 2 2 2 2 2 2
left_child=1 -1 5 8 -5 6 -3 -7 -4
right_child=-2 2 3 4 -6 7 -8 -9 -10
leaf_value=-0.041709317282563288 -0.041636476216793644 0.040470017499137888 0.020288580480585294 0.053828709364263788 0.092372890221100512 -0.017053516189270063 0.0065699766020108873 -0.038342552003502603 0.0068041106062984458
leaf_weight=1788.0642957240343 3746.809613019228 150.07166796922684 750.25862251222134 2634.358170747757 980.15347123146057 668.82620193064213 385.73721671104431 391.21066869795322 611.45718410611153
leaf_count=7415 15633 579 2990 10057 3678 2699 1530 1603 2437
internal_value=0.000283396 0.0190742 0.0356162 0.0506133 0.0643048 -0.0111479 0.0161319 -0.0249438 0.0142467
internal_weight=12106.9 8360.14 6572.07 4976.23 3614.51 1595.85 535.809 1060.04 1361.72
internal_count=48621 32988 25573 19162 13735 6411 2109 4302 5427
is_linear=0
shrinkage=0.05


Tree=5
num_leaves=29
num_cat=0
split_feature=0 5 5 0 4 14 2 4 4 13 4 4 2 2 5 2 13 5 8 2 3 5 6 4 14 4 2 14
split_gain=7324.75 2993.86 1883.82 1269.42 345.015 296.619 248.976 54.0381 53.5141 50.369 42.9957 35.7896 29.8498 20.7252 19.8042 16.8719 15.7207 15.2461 13.3347 12.6494 9.59708 8.04156 4.59336 4.32532 2.75826 1.46006 1.0484 0.487313
threshold=1.5000000000000002 8.0500000000000025 2.9500000000000006 2.5000000000000004 0.94261758667152618 0.00025983220223236816 0.13953540543397289 0.7257998037325224 1.1750972003077542 0.57115574536896618 2.0136435996789461 1.544282398306964 0.27163355956169294 0.4386478015692406 2.9500000000000006 0.54897260990210783 0.25256729207647827 2.9500000000000006 1.5000000000000002 0.67589007111488619 0.23054634066634519 8.4500000000000011 9.5000000000000018 0.68701453584286354 0.30114855169134375 0.59789111758923796 0.20916453300581542 0.44855550607736855
decision_type=2 2 2 2 2 2 2 2 2 2 2 2 2 2 2 2 2 2 2 2 2 2 2 2 2 2 2 2
left_child=4 2 26 9 7 -5 11 23 15 -4 22 20 21 14 -9 17 -12 -6 -13 -14 -3 -10 -8 25 -15 -1 -2 -17
right_child=1 6 3 5 8 -7 10 13 12 -11 16 18 19 24 -16 27 -18 -19 -20 -21 -22 -23 -24 -25 -26 -27 -28 -29
leaf_value=0.040038675599077159 0.057404702743758376 0.056980504300597895 -0.033040049907036677 0.020570858528293139 -0.027324057363775078 -0.0053868445750895159 0.044207586121917608 0.0022063410723331548 -0.051882810046870134 -0.048663162045494424 0.0068188529740365045 0.053150641457543182 -0.060141377075927871 -0.029118145415094498 -0.033998694631461011 -0.049166017530586067 0.024735506244560515 -0.048470165084065896 0.03739887705944666 -0.067021131561578601 0.050253514311836771 -0.031531632194083496 0.032334301318170298 0.0061520944350351315 -0.048842899920264714 0.023239326858733131 0.052276663570306525 -0.06269284062219152
leaf_weight=28.078594446182251 940.71053412556648 2776.7168261408806 1980.6860772669315 2005.5479728877544 187.06149631738663 2436.2210384011269 144.22393754124641 117.16419953107834 115.65744769573212 709.67814320325851 281.31562975049019 210.74828612804413 2345.8449844717979 45.532029896974564 54.507626712322235 40.775451272726059 218.7312216758728 168.70556566119194 442.87886819243431 1130.7804182171822 781.57173347473145 99.352340638637543 261.99675580859184 25.972067832946777 43.03487828373909 41.488930881023407 322.46687170863152 90.649014949798584
leaf_count=76 2561 7558 5303 5415 501 6547 391 315 309 1897 758 572 6264 122 146 109 591 451 1201 3018 2124 266 710 70 115 112 877 242
internal_value=-0.000187384 0.0182644 -0.000111714 -0.010082 -0.0551682 0.00633445 0.0484016 -0.00786084 -0.0591918 -0.0371796 0.0245782 0.0535194 -0.0612645 -0.0196647 -0.00939051 -0.0433824 0.0146997 -0.0374734 0.0425588 -0.0623991 0.0555189 -0.0426915 0.0366603 0.0241105 -0.0391966 0.030562 0.0561419 -0.0589368
internal_weight=18048.1 13513.5 8395.31 7132.13 4534.61 4441.77 5118.18 355.778 4178.83 2690.36 906.268 4211.92 3691.64 260.239 171.672 487.192 500.047 355.767 653.627 3476.63 3558.29 215.01 406.221 95.5396 88.5669 69.5675 1263.18 131.424
internal_count=48621 36505 22600 19162 12116 11962 13905 956 11160 7200 2450 11455 9857 698 461 1303 1349 952 1773 9282 9682 575 1101 258 237 188 3438 351
is_linear=0
shrinkage=0.05


Tree=6
num_leaves=30
num_cat=0
split_feature=0 4 14 4 2 12 4 4 4 14 4 12 2 12 13 4 4 2 14 13 4 2 4 14 14 4 4 2 12
split_gain=14044.6 472.193 404.137 214.695 135.117 78.0001 58.9007 58.7107 52.0006 38.3995 37.2303 33.8897 27.8449 23.664 19.3215 25.9581 15.8561 14.4813 9.08864 6.93503 5.9838 5.49929 4.49584 4.16224 4.05067 3.57892 2.29108 2.27853 0.0575704
threshold=1.5000000000000002 1.2066628217611777 0.17661094084850423 1.030721114087825 0.14823589269038523 0.58473329748473579 0.73223649117037526 2.0136435996789461 1.8275031774859094 0.050219744625652117 1.2964451759188682 0.27305909222469599 0.14951053220379723 0.41999477531863666 0.29268245517200553 2.1043069171815181 0.80863704552454718 0.23681809146806612 0.045219936156630537 0.31114338932068103 0.84057353615858876 0.12458045564627361 2.1352545100387466 0.00051463198849983915 0.52709260320112172 3.0052214143843581 0.53974005845954975 0.08214730091233384 0.42990420544836749
decision_type=2 2 2 2 2 2 2 2 2 2 2 2 2 2 2 2 2 2 2 2 2 2 2 2 2 2 2 2 2
left_child=2 6 3 11 14 10 21 17 9 -5 19 18 27 -9 15 -3 -13 -6 -1 -4 -14 28 -12 -16 -7 -10 -23 -8 -2
right_child=1 4 5 8 7 24 12 13 25 -11 22 16 20 -15 23 -17 -18 -19 -20 -21 -22 26 -24 -25 -26 -27 -28 -29 -30
leaf_value=-0.029590913635258884 -0.040191448961769953 -0.023283043976473357 0.053751103224436908 0.027253487301868842 -0.011811832407540834 0.093386253110135098 -0.039044648965295553 0.027764555389274664 0.075399145687862212 0.06309513291069771 0.082954415497216938 0.007213997907526669 -0.030665818677682713 0.0020591199971762854 -0.038305911659122602 0.0052667057359005714 0.038687179004576439 0.0049468600885478236 0.0049700841576546433 0.072188889443777229 -0.021321589834028855 -0.040410654281830966 0.092241133222621882 -0.027717441910047297 0.10227600222624207 0.087854631276993445 -0.03540235131129333 -0.034069719273108839 -0.04215361753345763
leaf_weight=37.925631314516068 726.06575927138329 330.69848504662514 97.795603454113007 95.006517499685287 451.64243143796921 356.74906173348427 427.97981312870979 231.50715437531471 269.89007300138474 404.69381865859032 476.22404178977013 63.768129765987396 255.33421769738197 146.59042981266975 149.73847675323486 103.98861509561539 111.04325431585312 179.08566743135452 36.314425706863403 196.19799703359604 611.84002694487572 548.70584827661514 439.89016437530518 336.13203969597816 1059.7100205421448 168.88754802942276 659.54425656795502 952.19953486323357 3437.9234197735786
leaf_count=140 2810 1253 323 317 1672 1112 1671 816 860 1322 1505 228 959 534 575 384 377 646 130 631 2267 2128 1377 1287 3260 534 2507 3658 13338
internal_value=-5.98695e-05 -0.0324562 0.0810335 0.0567294 -0.0103502 0.0919942 -0.0380509 0.00228622 0.0676749 0.0563587 0.0824179 0.0153588 -0.0312082 0.0178433 -0.0241912 -0.0164453 0.0273411 -0.00704524 -0.0127776 0.0662756 -0.0241109 -0.0409062 0.0875148 -0.0310629 0.100108 0.0803936 -0.0377125 -0.0356432 -0.0418224
internal_weight=13363.1 9548.98 3814.1 1187.53 1929.38 2626.57 7619.59 1008.83 938.478 499.7 1210.11 249.051 2247.35 378.098 920.558 434.687 174.811 630.728 74.2401 293.994 867.174 5372.24 916.114 485.871 1416.46 438.778 1208.25 1380.18 4163.99
internal_count=48621 36505 12116 3908 7167 8208 29338 3668 3033 1639 3836 875 8555 1350 3499 1637 605 2318 270 954 3226 20783 2882 1862 4372 1394 4635 5329 16148
is_linear=0
shrinkage=0.05


Tree=7
num_leaves=10
num_cat=0
split_feature=16 16 0 0 0 12 12 12 12
split_gain=3517.02 3034.65 1613.06 812.715 276.351 222.833 168.889 43.2544 43.1888
threshold=2.6833333333333336 0.9833333333333335 1.5000000000000002 2.5000000000000004 3.5000000000000004 0.37262372512429615 0.59103568885115154 0.60996063952932655 0.27305909222469599
decision_type=2 2 2 2 2 2 2 2 2
left_child=1 -1 5 6 -5 8 -4 -7 -3
right_child=-2 2 3 4 -6 7 -8 -9 -10
leaf_value=-0.041250488573464944 -0.041113530024985592 0.036728562830501965 0.06095047783803656 0.043569416667746094 0.013599435092632667 -0.01674815149485764 0.091784164059166715 -0.037924938113314419 0.005794689678776074
leaf_weight=1727.5257947444916 3600.3392451405525 159.11946499347687 1347.8218403756618 1780.1102237403393 1357.1385979652405 663.73941916227341 674.74764946103096 382.04973976314068 385.56021615862846
leaf_count=7415 15633 594 4879 6588 5374 2699 2321 1603 1515
internal_value=0.00028193 0.017865 0.0329984 0.0465665 0.0306148 -0.0110177 0.0712796 -0.0245181 0.0148914
internal_weight=12078.2 8477.81 6750.29 5159.82 3137.25 1590.47 2022.57 1045.79 544.68
internal_count=48621 32988 25573 19162 11962 6411 7200 4302 2109
is_linear=0
shrinkage=0.05


Tree=8
num_leaves=29
num_cat=0
split_feature=0 5 5 0 4 14 2 4 4 13 2 4 2 2 5 14 5 5 13 13 2 2 5 4 14 4 6 7
split_gain=6502.37 2708.59 1697.01 1148.35 305.764 258.689 230.933 48.6604 48.0094 44.3087 39.5274 33.7039 27.0068 18.383 17.8485 16.9229 21.4481 14.9854 13.2 10.6165 7.97503 7.49252 6.36287 4.01092 2.39104 1.0551 1.02915 0.374201
threshold=1.5000000000000002 8.0500000000000025 2.9500000000000006 2.5000000000000004 0.94261758667152618 0.00025983220223236816 0.13953540543397289 0.7257998037325224 1.2744989906118291 0.57115574536896618 0.20916453300581542 1.4845078970940924 0.27654287304694319 0.4386478015692406 2.9500000000000006 0.46328533307166314 2.9500000000000006 16.050000000000004 0.29268245517200553 0.27820684993182054 0.67589007111488619 0.092359397709270277 8.4500000000000011 0.64226166711800026 0.30114855169134375 0.45876433046541221 8.5000000000000018 2.5000000000000004
decision_type=2 2 2 2 2 2 2 2 2 2 2 2 2 2 2 2 2 2 2 2 2 2 2 2 2 2 2 2
left_child=4 2 25 9 7 -5 11 23 15 -4 17 21 22 14 -9 16 -6 -8 -13 -12 -14 -3 -10 27 -15 -2 -25 -1
right_child=1 6 3 5 8 -7 10 13 12 -11 19 18 20 24 -16 -17 -18 -19 -20 -21 -22 -23 -24 26 -26 -27 -28 -29
leaf_value=0.026484336810664245 0.055193673792940802 0.054617482298423836 -0.031337581825093302 0.019488371291387783 -0.030781906708508746 -0.0047726160583269192 0.033306394564085948 0.0021898155046842257 -0.049240979460956909 -0.045977000115003323 -0.0035392878237661546 0.033179277616967776 -0.05733707872757058 -0.027466962138906256 -0.032147834070673009 -0.059623217237099208 -0.050268028545977853 0.014044946211741223 0.04730022959741359 0.017464875166455781 -0.063104487236600559 0.04840757405611483 -0.030829801036249382 0.0035440991028598372 -0.045878674145762396 0.050378889126228399 0.018570017153377073 0.041120513231398148
leaf_weight=22.798339456319809 869.88969886302948 2710.9527756273746 1985.5210766792297 1997.1477471888065 314.65218895673752 2439.8701128065586 531.43511793017387 117.14985662698746 104.98802188038826 711.29044851660728 133.06926038861275 312.98007386922836 2159.2484509944916 45.653337776660919 54.659507870674133 141.65539422631264 272.20057559013367 128.44889056682587 399.70822581648827 107.948705047369 1085.3569477498531 725.92309105396271 104.49901887774467 19.622147649526596 43.121722429990768 373.11753073334694 32.169900238513947 20.523955196142197
leaf_count=62 2408 7500 5303 5415 840 6547 1450 315 280 1897 359 856 5760 122 146 378 726 348 1099 293 2897 2000 279 53 115 1030 87 56
internal_value=-0.000144734 0.0173432 -9.43212e-05 -0.00949083 -0.0518791 0.00614831 0.0462608 -0.00733635 -0.0556633 -0.0352162 0.0232673 0.0512448 -0.0581469 -0.0185075 -0.00882826 -0.0438175 -0.0398988 0.0295916 0.0411611 0.00588083 -0.0592867 0.0533218 -0.0402707 0.0230914 -0.0368774 0.0537941 0.0131469 0.0343024
internal_weight=17965.6 13427.3 8376.84 7133.83 4538.3 4437.02 5050.47 355.699 4182.6 2696.81 900.902 4149.56 3454.09 260.584 171.809 728.508 586.853 659.884 712.688 241.018 3244.61 3436.88 209.487 95.1143 88.7751 1243.01 51.792 43.3223
internal_count=48621 36505 22600 19162 12116 11962 13905 956 11160 7200 2450 11455 9216 698 461 1944 1566 1798 1955 652 8657 9500 559 258 237 3438 140 118
is_linear=0
shrinkage=0.05


Tree=9
num_leaves=31
num_cat=0
split_feature=0 4 14 4 3 14 4 4 4 12 13 13 4 3 4 12 4 8 3 14 14 4 2 13 4 8 12 4 8 12
split_gain=12332.3 463.406 328.228 178.021 124.672 62.6838 58.8513 43.0753 41.6169 33.5095 30.5992 29.4736 29.019 26.308 23.52 19.8857 15.5437 14.0369 9.48304 7.97247 6.48027 6.02202 5.49843 4.41321 3.51888 3.1152 2.74581 2.19437 0.306493 0.0779686
threshold=1.5000000000000002 1.2066628217611777 0.17661094084850423 1.030721114087825 0.4100288689995934 0.37473341803059951 0.73223649117037526 1.8275031774859094 2.0136435996789461 0.27305909222469599 0.11446252245107476 0.21470512214682957 1.3949124213088451 0.38815050275151575 2.6554496100324214 0.5245534260515593 0.80863704552454718 1.5000000000000002 0.64665974713322061 0.045219936156630537 0.52709260320112172 0.84057353615858876 0.12458045564627361 0.31360072038795733 2.1352545100387466 1.5000000000000002 0.27575413972000967 0.53974005845954975 1.5000000000000002 0.42990420544836749
decision_type=2 2 2 2 2 2 2 2 2 2 2 2 2 2 2 2 2 2 2 2 2 2 2 2 2 2 2 2 2 2
left_child=2 6 3 10 11 12 22 9 18 -5 19 14 23 25 -3 -10 -12 -13 -6 -1 28 -15 29 -4 -14 -8 -9 -24 -7 -2
right_child=1 4 5 7 8 20 13 26 15 -11 16 17 24 21 -16 -17 -18 -19 -20 -21 -22 -23 27 -25 -26 -27 -28 -29 -30 -31
leaf_value=-0.029121632294836788 -0.039568106727092427 -0.014417671769514685 0.052016219725730777 0.026844458260444421 -0.0080533230602163799 0.089693664998821296 -0.040038512396263 0.062532977920345068 0.023661120351867324 0.058083953035891894 0.0052652931288243729 -0.037021451441783912 0.074275576305907115 -0.030093205289851516 0.023173713247825332 -0.010705837853465947 0.035882236617734202 -0.021889070238659044 0.0077096472174290167 0.0042719013906144174 0.091946198544052282 -0.020240581617386323 -0.039755161756908797 0.065860943762782148 0.083287516752923674 -0.033361066452513112 0.075376923806148119 -0.034769635447080852 0.080832828392276873 -0.041561569205603013
leaf_weight=37.363487750291824 702.33033236861229 315.42971393465996 128.08598124980927 113.04944029450417 391.01481577754021 153.12774300575256 255.24498145282269 98.507911145687103 279.33801463246346 405.53854444622993 65.165626615285873 238.86391088366508 375.17020547389984 227.77095454931259 46.905931115150452 48.713144898414612 116.93153268098831 458.86253249645233 124.93613156676292 32.617901265621185 1116.4663368761539 565.48348066210747 529.31439706683159 208.9757327735424 403.40737646818161 1140.622207775712 360.91841182112694 642.91423927247524 373.56689837574959 3316.6906149536371
leaf_count=140 2810 1207 405 374 1447 453 1028 306 980 1265 232 946 1132 873 167 178 387 1793 449 116 3260 2121 2128 643 1202 4533 1088 2507 1113 13338
internal_value=-0.000116744 -0.031707 0.0734001 0.0518314 -0.00970482 0.0829931 -0.0373806 0.061483 0.00462696 0.0513483 0.01427 -0.0211138 0.0735968 -0.0304599 -0.00948715 0.0185257 0.0250415 -0.0271223 -0.00421916 -0.0136458 0.0893212 -0.0231102 -0.0402916 0.0607841 0.0790522 -0.0346135 0.0727756 -0.0370571 0.0835835 -0.0412244
internal_weight=13273.3 9284.44 3988.89 1230.09 1904.06 2758.8 7380.37 978.014 844.002 518.588 252.079 1060.06 1115.64 2189.12 362.336 328.051 182.097 697.726 515.951 69.9814 1643.16 793.254 5191.25 337.062 778.578 1395.87 459.426 1172.23 526.695 4019.02
internal_count=48621 36505 12116 3908 7167 8208 29338 3033 3054 1639 875 4113 3382 8555 1374 1158 619 2739 1896 256 4826 2994 20783 1048 2334 5561 1394 4635 1566 16148
is_linear=0
shrinkage=0.05


Tree=10
num_leaves=10
num_cat=0
split_feature=5 5 0 14 12 4 14 12 6
split_gain=3248.93 2746.15 1415.63 657.232 297.895 208.356 43.2628 41.4983 22.7634
threshold=8.0500000000000025 2.9500000000000006 1.5000000000000002 0.00025983220223236816 0.6332569669456336 1.6632936106428837 0.37473341803059951 0.27305909222469599 7.5000000000000009
decision_type=2 2 2 2 2 2 2 2 2
left_child=1 -1 5 8 -5 7 -7 -3 -4
right_child=-2 2 3 4 -6 6 -8 -9 -10
leaf_value=-0.040807771558576664 -0.040625387330432278 0.037292724199258623 0.024323152937674987 0.044872529292255117 0.075619318270054872 -0.014667173102418718 -0.035292979474536967 0.005880590064112132 0.0095402150098644316
leaf_weight=1665.8813225924969 3455.4266001731157 140.83580136299133 350.01381087303162 2850.6695927679539 1094.3219449520111 561.76223765313625 469.17950522899628 410.51631924510002 1029.4823663532734
leaf_count=7415 15633 510 1372 10057 3678 2273 2003 1625 4055
internal_value=0.000297925 0.0167965 0.030695 0.0430332 0.0534198 -0.0108216 -0.0240839 0.0139665 0.0133096
internal_weight=12028.1 8572.66 6906.78 5324.49 3944.99 1582.29 1030.94 551.352 1379.5
internal_count=48621 32988 25573 19162 13735 6411 4276 2135 5427
is_linear=0
shrinkage=0.05


Tree=11
num_leaves=29
num_cat=0
split_feature=0 5 5 0 4 14 2 4 4 12 2 4 2 12 5 12 8 12 2 12 5 2 5 4 14 4 4 14
split_gain=5796.26 2455.76 1531.82 1021.75 274.029 230.549 214.936 43.9095 43.5756 40.2758 36.4106 32.19 23.8033 16.5169 16.9571 15.9486 12.3009 12.2609 11.5505 10.9725 10.4624 8.53557 7.01433 3.76786 2.32576 1.25664 1.06148 0.399214
threshold=1.5000000000000002 8.0500000000000025 2.9500000000000006 2.5000000000000004 0.94261758667152618 0.00025983220223236816 0.13953540543397289 0.7257998037325224 1.153084318752601 0.43736374353518487 0.20916453300581542 1.544282398306964 0.27163355956169294 0.42990420544836749 2.9500000000000006 0.26504099393535174 1.5000000000000002 0.41083009731834375 0.54897260990210783 0.66718648108149681 2.9500000000000006 0.092359397709270277 8.4500000000000011 0.68701453584286354 0.30114855169134375 0.59789111758923796 0.45876433046541221 0.44855550607736855
decision_type=2 2 2 2 2 2 2 2 2 2 2 2 2 2 2 2 2 2 2 2 2 2 2 2 2 2 2 2
left_child=4 2 26 9 7 -5 11 23 18 -4 15 21 22 14 -9 -8 -13 -12 20 -14 -6 -3 -10 25 -15 -1 -2 -20
right_child=1 6 3 5 8 -7 10 13 12 -11 17 16 19 24 -16 -17 -18 -19 27 -21 -22 -23 -24 -25 -26 -27 -28 -29
leaf_value=0.037110264844326772 0.053100173387546204 0.052532681868595915 -0.025892245131652964 0.018479445467313928 -0.023617063709933439 -0.0044484567096643316 0.013417215733641137 0.0031197833184628239 -0.046328477861059321 -0.038363697171452389 -0.004804302397291055 0.049003753416134201 -0.05328243031660021 -0.02566806789698144 -0.030525658246870632 0.032379978114274392 0.033711005221974469 0.017777940058359993 -0.042566985423929504 -0.059592761582916848 -0.042045070073142982 0.046089320721166428 -0.027530973938197086 0.0053836220670003768 -0.043273973530069725 0.021403290540454964 0.048330404123654441 -0.055236914011197236
leaf_weight=27.616744428873062 852.0688396692276 2681.6129225790501 1125.0813448131084 1988.2145333886147 171.29208400845528 2441.6409811377525 145.60162064433098 113.03687259554863 118.94665539264679 1573.7409481406212 131.95210355520248 204.5915020108223 2341.7982680797577 49.819481641054153 54.72822293639183 509.05534496903419 433.30830302834511 108.54311853647232 37.845560908317566 1167.9421528279781 152.06331691145897 754.1212987601757 99.735103160142899 25.883581846952438 43.050763249397278 41.145298510789871 366.37989848852158 75.315309047698975
leaf_count=76 2408 7570 3001 5415 457 6547 398 304 318 4199 356 572 6272 133 146 1400 1201 296 101 3138 406 2112 266 70 115 112 1030 202
internal_value=-0.000113756 0.0164931 -7.39493e-05 -0.00893183 -0.0490292 0.0058428 0.0443198 -0.00684097 -0.0526242 -0.033178 0.0220903 0.0491967 -0.054388 -0.0174329 -0.00794222 0.028197 0.0386926 0.00539849 -0.0374582 -0.0554001 -0.0324015 0.0511337 -0.0379425 0.0221521 -0.0342567 0.0282248 0.0517108 -0.0514534
internal_weight=17836.1 13315.9 8347.13 7128.68 4520.22 4429.86 4968.79 355.281 4164.94 2698.82 895.152 4073.63 3728.42 260.635 167.765 654.657 637.9 240.495 436.516 3509.74 323.355 3435.73 218.682 94.6456 92.8702 68.762 1218.45 113.161
internal_count=48621 36505 22600 19162 12116 11962 13905 956 11160 7200 2450 11455 9994 698 450 1798 1773 652 1166 9410 863 9682 584 258 248 188 3438 303
is_linear=0
shrinkage=0.05


Tree=12
num_leaves=31
num_cat=0
split_feature=0 4 12 4 2 14 4 4 4 12 3 4 2 12 8 4 3 4 4 14 4 14 3 4 8 4 4 4 4 8
split_gain=10909.5 454.53 275.781 143.099 115.21 67.0583 58.6407 52.5562 35.3476 33.4386 24.6558 23.5633 23.7714 20.6193 16.1057 22.8399 15.4128 13.722 13.0025 7.39693 5.78913 5.73415 5.56898 4.39222 3.14747 2.05133 1.76378 1.65968 1.16283 0.353827
threshold=1.5000000000000002 1.2066628217611777 0.37262372512429615 1.2183682155135764 0.13953540543397289 0.37473341803059951 0.73223649117037526 1.9885447113350141 1.2744989906118291 0.27305909222469599 0.38815050275151575 1.9318871060011245 0.22700489504421514 0.41999477531863666 1.5000000000000002 2.1352545100387466 0.47755428312581027 0.73223649117037526 0.73884498667576015 0.047140451056956127 0.84057353615858876 0.52709260320112172 0.45986670950370939 1.9318871060011245 1.5000000000000002 3.0052214143843581 0.53974005845954975 2.2019799618799287 0.60990728518868331 1.5000000000000002
decision_type=2 2 2 2 2 2 2 2 2 2 2 2 2 2 2 2 2 2 2 2 2 2 2 2 2 2 2 2 2 2
left_child=2 6 3 9 14 8 22 16 18 19 24 12 -5 -9 27 -16 -6 -11 -4 -1 -12 29 26 -10 -8 -13 -2 -3 -24 -7
right_child=1 4 5 11 7 21 10 13 23 17 20 25 -14 -15 15 -17 -18 -19 -20 -21 -22 -23 28 -25 -26 -27 -28 -29 -30 -31
leaf_value=-0.017953156227966255 -0.040840979346570383 -0.03895972573941494 0.012172020399649291 0.0031394944003359827 -0.015465472717361931 0.081732671972262957 -0.039406796611346454 0.023620703228974933 0.066452561614459268 -0.0020578254342528872 -0.029533142967427286 0.062121928083100533 0.051770496541826354 0.00091349674670870731 -0.024183501318065376 0.00071207638113142836 -0.00020561277304289736 0.033400172549747136 0.054386675412625353 0.0081775078600444927 -0.019791525130576117 0.08379569301232842 -0.036268627480965134 0.074534374031674691 -0.032595689981984248 0.072902854776269538 -0.038136713578032264 -0.02793768628171614 -0.029066206578419802 0.073640175752259049
leaf_weight=54.299410343170166 3505.8599866777658 141.78897447884083 20.367159903049469 27.645768463611603 310.84995575249195 159.25976756215096 245.57392425835133 265.94311708211899 463.98467770218849 31.137298256158829 223.47139421105385 214.46716192364693 320.1203418970108 160.71680420637131 462.05499763786793 114.45563936233521 354.01809000968933 199.98954021930695 321.63225680589676 51.936331421136856 559.34315332770348 1159.4997979104519 178.28594197332859 568.70483660697937 1104.7352969497442 147.88768565654755 1171.1532898694277 69.911421447992325 154.80041232705116 387.968644708395
leaf_count=198 14610 588 69 89 1199 453 1028 923 1358 113 873 631 975 589 1856 441 1286 633 980 178 2121 3260 750 1637 4533 429 4800 285 623 1113
internal_value=-0.000177206 -0.0309823 0.0671317 0.0448802 -0.00909642 0.0746771 -0.0367388 0.00142075 0.0662824 0.0179749 -0.0297515 0.057612 0.047939 0.015101 -0.0236505 -0.0192396 -0.00736017 0.0286135 0.0519301 -0.00517469 -0.022613 0.081393 -0.0397062 0.0709759 -0.0338663 0.0667242 -0.0401732 -0.0354918 -0.0330333 0.0761492
internal_weight=13151.9 9022.96 4128.9 1047.48 1879.74 3081.42 7143.22 1091.53 1374.69 337.363 2133.12 710.121 347.766 426.66 788.211 576.511 664.868 231.127 341.999 106.236 782.815 1706.73 5010.1 1032.69 1350.31 362.355 4677.01 211.7 333.086 547.228
internal_count=48621 36505 12116 3246 7167 8870 29338 3997 4044 1122 8555 2124 1064 1512 3170 2297 2485 746 1049 376 2994 4826 20783 2995 5561 1060 19410 873 1373 1566
is_linear=0
shrinkage=0.05


Tree=13
num_leaves=10
num_cat=0
split_feature=5 5 2 1 12 12 6 4 13
split_gain=3006.93 2493.13 1250.16 430.279 387.541 48.8351 21.1223 15.0319 3.90588
threshold=8.0500000000000025 2.9500000000000006 0.37301211398020745 1.0000000180025095e-35 0.50365623222422817 0.58473329748473579 7.5000000000000009 1.7622829592919296 0.65562732543707336
decision_type=2 2 2 2 2 2 2 2 2
left_child=1 -1 3 4 -3 7 -5 -4 -7
right_child=-2 2 5 6 -6 8 -8 -9 -10
leaf_value=-0.040388757201405563 -0.04017078520435708 0.032813972159188333 -0.0032311105103878775 0.023358642784640841 0.062329331293789064 -0.029232986940437744 0.0091019699187935184 -0.019395173058607749 -0.040080401240130126
leaf_weight=1604.4202584773302 3312.8430088013411 2788.0503030270338 227.7769373357296 349.61647713184357 1856.4890519976616 159.57058069109917 1023.6609345674515 395.29923649132252 243.64792789518833
leaf_count=7415 15633 9758 922 1355 6098 698 4019 1644 1079
internal_value=0.00032699 0.0158432 0.0286556 0.0373541 0.0446236 -0.0223305 0.0127495 -0.0135088 -0.0358829
internal_weight=11961.4 8648.53 7044.11 6017.82 4644.54 1026.29 1373.28 623.076 403.219
internal_count=48621 32988 25573 21230 15856 4343 5374 2566 1777
is_linear=0
shrinkage=0.05


Tree=14
num_leaves=29
num_cat=0
split_feature=3 5 5 4 14 12 5 3 3 4 5 3 12 12 4 12 5 3 6 4 5 4 12 13 3 12 4 12
split_gain=5138.62 1960.22 959.704 826.114 558.862 203.799 171.229 133.409 120.063 92.704 75.0563 54.5051 32.865 31.1174 23.6476 20.8368 20.6579 18.8499 14.986 10.9001 10.8334 9.24201 6.34773 3.9112 3.38093 4.05688 1.07613 0.780543
threshold=0.52306469465060812 8.0500000000000025 2.9500000000000006 0.84057353615858876 0.00025983220223236816 0.6332569669456336 2.9500000000000006 0.68996437461150217 0.31623533157834999 1.0955282947583571 8.0500000000000025 0.86852066989568055 0.26504099393535174 0.27887742783285596 1.7827461747033078 0.62548690228441151 2.9500000000000006 0.20376831522380212 9.5000000000000018 2.1352545100387466 17.050000000000004 0.7257998037325224 0.34251785151176078 0.36840378591424155 0.57158096065488817 0.43178580415037265 0.94261758667152618 0.39403285805446653
decision_type=2 2 2 2 2 2 2 2 2 2 2 2 2 2 2 2 2 2 2 2 2 2 2 2 2 2 2 2
left_child=1 2 -1 6 18 -6 11 10 17 16 23 22 14 -12 -10 -11 -9 26 -4 -19 -14 -13 -2 -5 25 -8 -3 -26
right_child=3 8 4 7 5 -7 24 9 12 15 13 21 20 -15 -16 -17 -18 19 -20 -21 -22 -23 -24 -25 27 -27 -28 -29
leaf_value=0.051103720045398919 0.031761380829183346 0.051395809928738483 0.013532114508043466 -0.034549052863174452 -0.0072303301927411625 -0.030758683607006222 -0.012360018662654473 -0.020559857674608998 0.028917657996127846 -0.048267564475687752 -0.025629102480366678 0.019991868394795387 0.035802766039244739 0.0092406628479248 -0.0042998751930216584 -0.056212534781475081 -0.044672054929546845 0.044619213228602607 0.022322258566026917 0.029496716177972067 0.018376930566398716 -0.011538407355014704 0.046432282424056302 -0.045391242394637765 -0.042292072018261198 -0.035757392011893568 0.047716862196924205 -0.028281362574449184
leaf_weight=886.93884900212288 131.36607003211975 1982.5916165411472 1093.5258447825909 584.82863655686378 2933.5931940078735 1341.2852118313313 54.308308959007263 334.25682711601257 95.965889781713486 2480.8287492692471 107.27419421076775 34.662746161222458 584.5642394721508 155.27348008751869 118.77091410756111 1349.6967096924782 123.0733750462532 1081.3027630448341 889.77646458148956 145.52619007229805 110.79484724998474 65.681384325027466 225.02276527881622 116.01811900734901 40.09522333741188 29.601751089096069 540.6587136387825 32.608065694570541
leaf_count=2567 367 5737 2990 1563 7847 3589 145 899 267 6692 287 95 1637 422 324 3668 329 3087 2437 409 306 177 646 310 107 79 1551 87
internal_value=-8.91759e-05 0.0189148 0.00245831 -0.0383413 -0.00444221 -0.0146192 0.0165397 -0.0447543 0.0441394 -0.048537 -0.02788 0.032 0.0277833 -0.00503097 0.0105871 -0.0510822 -0.027143 0.048099 0.0174875 0.0428549 0.0330638 -0.000507499 0.0411425 -0.0364131 -0.0284325 -0.0209969 0.0506287 -0.036545
internal_weight=17669.9 11805.3 7145.12 5864.6 6258.18 4274.88 613.346 5251.25 4660.18 4287.86 963.394 456.733 910.096 262.548 214.737 3830.53 457.33 3750.08 1983.3 1226.83 695.359 100.344 356.389 700.847 156.613 83.9101 2523.25 72.7033
internal_count=48621 32748 19430 15873 16863 11436 1703 14170 13318 11588 2582 1285 2534 709 591 10360 1228 10784 5427 3496 1943 272 1013 1873 418 224 7288 194
is_linear=0
shrinkage=0.05


Tree=15
num_leaves=31
num_cat=0
split_feature=3 4 2 12 12 4 4 14 3 3 3 4 5 4 12 8 4 4 4 4 2 3 4 2 4 8 4 4 14 4
split_gain=9053.57 516.466 358.772 191.279 143.908 94.7597 89.5395 75.4794 53.5018 49.994 47.6012 29.3777 28.6261 20.8065 20.6945 18.2892 15.1314 14.962 13.7566 12.6715 9.24457 8.50125 8.50096 6.58437 2.94894 2.6718 2.01953 1.46577 0.903319 0.681198
threshold=0.67989319227990241 1.3688308200572312 0.37301211398020745 0.37262372512429615 0.27575413972000967 0.77904529080644569 1.2183682155135764 0.37473341803059951 0.47755428312581027 0.40671609845960266 0.41336223309574588 1.4098432226355835 3.5500000000000003 0.77184892090425949 0.27305909222469599 1.5000000000000002 1.877684800473175 2.451251114224628 1.6444917315117562 0.73223649117037526 0.12458045564627361 0.23054634066634519 2.6554496100324214 0.74786910256707684 0.59789111758923796 2.5000000000000004 1.9318871060011245 1.6632936106428837 0.23335771380547124 0.60423325630879665
decision_type=2 2 2 2 2 2 2 2 2 2 2 2 2 2 2 2 2 2 2 2 2 2 2 2 2 2 2 2 2 2
left_child=1 5 3 6 9 20 13 11 21 22 15 19 28 -2 -10 -6 -8 -12 -11 -4 29 -7 -3 27 -22 -14 -13 -9 -5 -1
right_child=2 4 7 12 10 8 16 23 14 18 17 26 25 -15 -16 -17 -18 -19 -20 -21 24 -23 -24 -25 -26 -27 -28 -29 -30 -31
leaf_value=-0.040390986461515427 -0.0090893621502444524 -0.0078404902497832291 0.0093559235546310723 -0.031621772532965185 -0.033688761020506212 -0.03621149787393723 0.046800835250174519 0.066452744013239293 0.0049547027597914052 0.014744975556844696 -0.0051272891528758311 0.059899974944331406 0.0024510138791553715 0.027346102205084901 -0.017971221713982102 -0.015076510083401879 0.063817621532194377 0.015230490761030911 0.042556355860109571 0.050233059858735732 -0.037274591783811907 -0.028142205869975907 0.02365786438231884 0.078022725723294606 -0.031862698035039216 0.017004754243771649 0.066470087670246106 0.073251854793968688 -0.019242690549391248 -0.037708524416912192
leaf_weight=3295.6995278894901 46.884389281272888 106.39210131764412 20.619727969169617 61.76102913916111 189.19596739113331 489.46152195334435 264.55495378375053 319.5900092124939 133.62750586867332 59.852820962667465 310.08454236388206 364.74663111567497 82.740045428276062 219.89505372941494 365.69370527565479 450.36485183238983 310.82977864146233 126.10792052745819 198.29589211940765 461.47331182658672 659.17272657155991 1166.9896191358566 25.737223267555237 892.92797467112541 565.64021898806095 51.389345020055771 595.33195978403091 552.61860141158104 31.678536623716354 608.42912343144417
leaf_count=14255 177 415 71 255 797 2148 788 890 468 204 1140 1040 293 697 1386 1814 889 442 626 1359 2819 4767 89 2445 2293 181 1671 1528 129 2625
internal_value=-0.000463162 -0.0296033 0.0591488 0.0340155 -0.00252037 -0.0350519 0.0449958 0.0675168 -0.0262235 0.0234465 -0.0119587 0.0588947 -0.00661648 0.0209142 -0.0118282 -0.0206342 0.056097 0.000768301 0.0362092 0.048518 -0.0387558 -0.03055 -0.00153581 0.0745211 -0.0348074 0.0081486 0.0640441 0.0708452 -0.0277261 -0.039984
internal_weight=13027.8 8750.75 4277.04 1069.73 1466.03 7284.71 842.164 3207.31 2155.77 390.278 1075.75 1442.17 227.569 266.779 499.321 639.561 575.385 436.192 258.149 482.093 5128.94 1656.45 132.129 1765.14 1224.81 134.129 960.079 872.209 93.4396 3904.13
internal_count=48701 36288 12413 3409 5527 30761 2551 9004 8769 1334 4193 4141 858 874 1854 2611 1677 1582 830 1430 21992 6915 504 4863 5112 474 2711 2418 384 16880
is_linear=0
shrinkage=0.05


Tree=16
num_leaves=27
num_cat=0
split_feature=4 14 3 0 15 4 4 3 4 3 14 15 4 3 0 4 0 6 4 3 14 13 15 3 4 3
split_gain=1027.99 604.234 606.817 215.21 151.902 111.484 98.131 97.2693 93.3973 127.465 150.605 51.2263 40.6255 35.7002 34.2635 18.3173 16.4464 14.8995 14.8978 22.7317 31.2397 8.77255 8.13793 5.25372 2.75405 4.82792
threshold=1.4098432226355835 0.00051463198849983915 0.84201553347578351 2.5000000000000004 2.9500000000000006 0.87864801224170075 0.7257998037325224 0.14129327087571827 1.9885447113350141 0.44350867355297502 0.30114855169134375 2.9500000000000006 0.38960324304274901 0.27766328840543458 1.5000000000000002 1.0765261235840404 1.5000000000000002 7.5000000000000009 2.6010457857246414 0.62330784168931186 0.35348083373051536 0.29017310033713267 2.9500000000000006 0.23623867309582006 3.2790762975066561 0.83110045617720962
decision_type=2 2 2 2 2 2 2 2 2 2 2 2 2 2 2 2 2 2 2 2 2 2 2 2 2 2
left_child=1 6 3 4 -3 -5 7 12 9 -2 14 16 -1 23 -11 -15 -4 -9 19 -10 -21 -13 -12 -8 25 -20
right_child=8 2 11 5 -6 -7 13 17 18 10 22 21 -14 15 -16 -17 -18 -19 24 20 -22 -23 -24 -25 -26 -27
leaf_value=-0.01184326919567562 -0.039528501472875816 0.021531388199657379 -0.037038645901464586 0.017241624575456981 0.044628221401065295 -0.0084316898897909588 -0.039147708638869703 0.016059970295916482 -0.039719746276584589 -0.00051651449313705152 -0.03741682407889263 -0.0022054536690478063 -0.036798804073873384 0.0038509299102593808 0.023181624119295627 -0.033152701134601191 0.0033682010164269396 0.0016801412601079658 -0.039777500547413518 -0.0089082968383838983 -0.035183519364441175 0.03611038235703503 -0.017483399294589301 -0.026375917018615469 -0.038476687351108013 -0.027644314226895346
leaf_weight=815.08057050406933 375.33014817535877 1589.9504535645247 515.08227990567684 2192.0614845305681 1295.5651692301035 522.92721447348595 340.46613851189613 238.65387289226055 226.64944563806057 381.6022380143404 248.91881050169468 71.472963035106659 203.94705803692341 104.76406237483025 252.59357282519341 47.882884666323662 26.069643259048462 730.64233718812466 149.93613573908806 264.04855038225651 199.07047392427921 17.790818631649017 69.180836111307144 122.27131849527359 664.18172535300255 230.47078961133957
leaf_count=3584 1844 6068 2363 8226 4335 2221 1712 955 1098 1507 1135 276 1015 421 920 229 112 2981 716 1074 900 69 290 570 3066 1014
internal_value=6.59699e-05 0.00871946 0.0171718 0.0224079 0.0319152 0.0122936 -0.0115046 -0.00609442 -0.0248947 -0.0148897 -0.00514224 -0.0292994 -0.0168739 -0.0289386 0.00893597 -0.0078642 -0.0350802 0.00523871 -0.0325375 -0.026713 -0.0202649 0.00569119 -0.0331657 -0.0358479 -0.0363496 -0.0325314
internal_weight=11896.6 8834.63 6230.92 5600.5 2885.52 2714.99 2603.71 1988.32 3061.98 1327.63 952.295 630.416 1019.03 615.384 634.196 152.647 541.152 969.296 1734.36 689.768 463.119 89.2638 318.1 462.737 1044.59 380.407
internal_count=48701 35137 23670 20850 10403 10447 11467 8535 13564 5696 3852 2820 4599 2932 2427 650 2475 3936 7868 3072 1974 345 1425 2282 4796 1730
is_linear=0
shrinkage=0.05


Tree=17
num_leaves=30
num_cat=0
split_feature=0 5 5 0 4 3 14 4 8 4 3 4 12 14 5 4 5 12 13 12 5 14 4 4 14 2 5 13 4
split_gain=4724.98 1987.89 1256.31 822.24 220.471 183.414 172.796 49.6056 46.8066 30.7188 30.7185 27.346 23.2741 13.0231 18.4888 12.9177 10.3951 20.5585 10.0627 8.77115 8.66902 5.27773 2.89339 2.22215 1.83475 1.62529 0.733444 0.382794 0.162033
threshold=1.5000000000000002 8.0500000000000025 2.9500000000000006 2.5000000000000004 0.91716262814627181 0.3527014403753494 0.00025983220223236816 1.2964451759188682 1.5000000000000002 0.68701453584286354 0.22515126370768893 2.451251114224628 0.27575413972000967 0.46328533307166314 2.9500000000000006 2.2392023482554277 2.9500000000000006 0.41083009731834375 0.42903491181425274 0.27575413972000967 8.4500000000000011 0.57990517750360471 1.544282398306964 0.59789111758923796 0.18785721949321085 0.23681809146806612 2.0250000000000004 0.59013423617905869 0.69973062607220415
decision_type=2 2 2 2 2 2 2 2 2 2 2 2 2 2 2 2 2 2 2 2 2 2 2 2 2 2 2 2 2
left_child=4 2 24 8 9 10 -5 13 -4 23 22 19 20 14 -6 -12 17 -11 -13 -7 -9 -14 -3 -1 28 -18 -25 -15 -2
right_child=1 5 3 6 7 11 -8 12 -10 16 15 18 21 27 -16 -17 25 -19 -20 -21 -22 -23 -24 26 -26 -27 -28 -29 -30
leaf_value=0.039010420290085168 0.049280249509658453 0.049269770442034899 -0.04045457025882538 0.01698997868026637 -0.025205203781178916 0.015570794297944102 -0.0028914019872146057 -0.044545965377475197 -0.025253209351770639 0.0092084793399319475 0.040999205586054382 0.0049606808508975636 -0.049570993869352625 -0.040584455155297815 -0.042174645350830348 0.025113563088123177 -0.017626685719764581 -0.022859133005914835 0.029513996961133878 0.030915853108504428 -0.023621674053847769 -0.054570129832942939 0.042020674308918204 0.010045892384632472 0.039664179233377943 -0.038353005505805629 0.025611796024853445 -0.052148692226856197 0.040746734519633045
leaf_weight=25.602471232414246 1047.7825104594231 2505.1084999740124 687.28755253553391 1963.999804019928 364.21173238754272 128.48286792635918 2461.186752229929 97.466931730508804 1987.8646991848946 103.06979468464851 1053.6284267306328 279.26304972171783 2178.8799564540386 38.012580662965775 301.3857242166996 154.5231542289257 18.721789747476578 95.078435599803925 48.398932248353958 392.18766224384308 112.91030102968216 930.82795000076294 207.04758715629578 18.226941049098969 91.835467964410782 32.549944490194321 18.508153885602951 113.29240983724594 46.202964305877686
leaf_count=72 3112 7437 1844 5401 977 357 6584 264 5312 278 3061 761 5964 104 815 438 50 255 134 1102 302 2575 599 50 268 87 51 312 135
internal_value=0.000299611 0.0154651 0.000662038 -0.00729559 -0.0441956 0.0411808 0.00593313 -0.0472506 -0.0291742 -0.00361862 0.0457443 0.0200571 -0.0499839 -0.0360884 -0.0329483 0.038994 -0.01149 -0.00619109 0.00868143 0.0271759 -0.0335043 -0.0510861 0.0487339 0.0274808 0.0482801 -0.0313625 0.0184918 -0.0495618 0.048962
internal_weight=17503.5 13054.8 8286.16 7100.34 4448.75 4768.64 4425.19 4136.99 2675.15 311.758 3920.31 848.333 3320.09 816.902 665.597 1208.15 249.42 198.148 327.662 520.671 210.377 3109.71 2712.16 62.3376 1185.82 51.2717 36.7351 151.305 1093.99
internal_count=48701 36545 22656 19141 12156 13889 11985 11313 7156 843 11535 2354 9105 2208 1792 3499 670 533 895 1459 566 8539 8036 173 3515 137 101 416 3247
is_linear=0
shrinkage=0.05


Tree=18
num_leaves=29
num_cat=0
split_feature=0 4 14 4 3 4 4 13 4 14 3 13 4 14 0 4 3 5 14 8 8 5 3 12 4 14 4 13
split_gain=8690.85 406.486 200.524 125.035 88.203 59.1772 41.5122 40.9383 37.5031 29.6669 23.2184 17.7054 20.2606 15.9754 15.3422 13.9375 9.1275 8.4413 8.20987 5.53337 4.75479 4.73868 3.94681 3.8555 3.01435 0.806865 0.67618 0.46959
threshold=1.5000000000000002 1.2066628217611777 0.28495593369372502 1.0507155505999866 0.3527014403753494 0.78576376000541903 1.7019360588247856 0.14253567668464981 1.7827461747033078 0.05106575530494422 0.37892281109509196 0.29268245517200553 2.2019799618799287 0.52709260320112172 2.5000000000000004 0.7257998037325224 0.30994607336117735 4.8500000000000005 0.070098633109127187 1.5000000000000002 1.5000000000000002 2.7500000000000004 0.64665974713322061 0.45395286386818401 0.57958094401324212 0.38460807444885564 0.60423325630879665 0.32400345391896995
decision_type=2 2 2 2 2 2 2 2 2 2 2 2 2 2 2 2 2 2 2 2 2 2 2 2 2 2 2 2
left_child=2 5 3 7 11 16 17 18 9 -5 23 12 -3 21 -8 -9 26 -6 -1 -13 -12 25 -10 -7 -18 -4 -2 -23
right_child=1 4 13 8 6 10 14 15 22 -11 20 19 -14 -15 -16 -17 24 -19 -20 -21 -22 27 -24 -25 -26 -27 -28 -29
leaf_value=-0.015603026622999781 -0.039922519267069766 -0.019973905073848594 0.052430322989847858 0.017151685502737945 0.0089785088537543637 -0.029132787781291799 0.013881259087876466 0 0.046185897564667032 0.047076701915186682 -0.030049571735221853 -0.036300826640581589 0.0086588254172779069 0.071561776390845239 -0.0062934721579926455 0.03464127604785041 -0.037128936531051142 -0.012338267505855566 0.013914625883352015 -0.02390466799974347 -0.01825994716907408 0.051576775855908898 0.059896292275147124 -0.035738164028409181 -0.031735780082203881 0.060526344068568265 -0.037242575470517486 0.065906697536956799
leaf_weight=76.050929188728333 3167.4823593199253 281.4870031028986 160.53104031085968 95.874519437551498 50.851998001337051 550.85713028907776 449.20759573578835 33.608442306518555 80.426518887281418 722.0011855661869 105.55074629187584 165.2241009324789 78.179732263088226 1212.1405990719795 118.16899116337299 216.57558086514473 601.86750535666943 444.32296043634415 32.876507073640823 234.34766222536564 573.53759880363941 30.050845503807068 801.25006258487701 462.79257735610008 643.46613922715187 197.19079086184502 603.4286030381918 670.43474188446999
leaf_count=279 14220 1184 451 294 178 2407 1593 120 231 2074 412 738 301 3266 433 662 2685 1690 110 1004 2235 83 2213 2073 2690 539 2702 1834
internal_value=-0.000534627 -0.0298153 0.0571583 0.0458028 -0.00886073 -0.0355024 0.000437686 0.0189046 0.0514689 0.0436001 -0.0273714 -0.0218639 -0.0137295 0.0674282 0.00966694 0.0300123 -0.0382393 -0.0101254 -0.00660298 -0.0291208 -0.0201413 0.0626255 0.058705 -0.0321857 -0.034374 0.0570634 -0.039505 0.0653735
internal_weight=12859.8 8530.77 4329.01 2058.66 1821.79 6708.98 1062.55 359.111 1699.55 817.876 1692.74 759.238 359.667 2270.35 567.377 250.184 5016.24 495.175 108.927 399.572 679.088 1058.21 881.677 1013.65 1245.33 357.722 3770.91 700.486
internal_count=48701 36545 12156 5983 7121 29424 3894 1171 4812 2368 7127 3227 1485 6173 2026 782 22297 1868 389 1742 2647 2907 2444 4480 5375 990 16922 1917
is_linear=0
shrinkage=0.05


Tree=19
num_leaves=10
num_cat=0
split_feature=5 5 3 14 12 2 12 14 6
split_gain=2619.43 2151.98 932.184 328.29 264.764 91.3141 52.044 20.4028 20.0143
threshold=8.0500000000000025 2.9500000000000006 0.84201553347578351 1.0000000180025095e-35 0.42581707827936488 0.44589075564287722 0.4470245523568786 0.52709260320112172 9.5000000000000018
decision_type=2 2 2 2 2 2 2 2 2
left_child=1 -1 3 8 -5 6 -4 -7 -3
right_child=-2 2 5 4 -6 7 -8 -9 -10
leaf_value=-0.03977640501474583 -0.039471752245116794 0.017274816868096357 -0.0021739027432815189 0.026492336887690562 0.050449581518213452 -0.019918275732704951 0.074082977357206439 -0.03760801378001314 0.0050958152018082126
leaf_weight=1527.7309018522501 3084.3741473853588 766.76149122416973 447.70319607853889 2093.6191587895155 2582.1993265151978 423.99386548995972 22.546097338199615 271.83651497960091 606.31391690671444
leaf_count=7494 15661 2965 1802 7031 8144 1851 74 1285 2394
internal_value=0.000136605 0.0141137 0.0255292 0.0334197 0.0397316 -0.0153906 0.00162107 -0.0268803 0.0119082
internal_weight=11827.1 8742.7 7214.97 6048.89 4675.82 1166.08 470.249 695.83 1373.08
internal_count=48701 33040 25546 20534 15175 5012 1876 3136 5359
is_linear=0
shrinkage=0.05


Tree=20
num_leaves=30
num_cat=0
split_feature=0 16 16 0 4 3 14 4 8 3 4 4 2 4 14 16 16 2 8 16 16 3 6 4 4 14 7 13 4
split_gain=4245.51 1853.71 1185.3 738.498 204.399 175.012 156.057 47.1654 44.9979 30.5111 27.8094 25.4914 21.4772 12.8252 12.2185 17.4914 9.6425 18.5655 9.5987 8.35498 5.52191 5.33371 4.53845 3.15873 2.11462 1.73677 1.53161 0.40042 0.140502
threshold=1.5000000000000002 2.6833333333333336 0.9833333333333335 2.5000000000000004 0.91716262814627181 0.3527014403753494 0.00025983220223236816 1.2964451759188682 1.5000000000000002 0.22515126370768893 0.68701453584286354 2.451251114224628 0.27163355956169294 2.2392023482554277 0.46328533307166314 0.9833333333333335 0.9833333333333335 0.41606263409056571 2.5000000000000004 2.8166666666666673 2.7166666666666668 0.41336223309574588 10.500000000000002 1.153084318752601 0.59789111758923796 0.18785721949321085 2.5000000000000004 0.59013423617905869 0.69973062607220415
decision_type=2 2 2 2 2 2 2 2 2 2 2 2 2 2 2 2 2 2 2 2 2 2 2 2 2 2 2 2 2
left_child=4 2 25 8 10 9 -5 14 -4 23 24 21 19 -11 15 -6 17 -12 -13 -9 -14 -7 -18 -3 -1 28 -26 -16 -2
right_child=1 5 3 6 7 11 -8 12 -10 13 16 18 20 -15 27 -17 22 -19 -20 -21 -22 -23 -24 -25 26 -27 -28 -29 -30
leaf_value=0.037934484511388179 0.048226021292639559 0.048297432389025459 -0.039049388506507805 0.015904073595605393 -0.023690647469889015 0.031755614718247532 -0.0030252494471017599 -0.042804379830194951 -0.024122444053936862 0.039664370177109359 0.0084599547230391203 0.015925024055630427 -0.049949807288529033 0.0237506937873595 -0.038611113841812164 -0.040241598140793117 -0.044096658621296081 -0.022130022644515107 -0.0012468887116230684 -0.021518482071320996 -0.043789382496294244 0.021222571013682533 -0.013412797225930301 0.042835401384583652 0.0065932905576771535 0.038779886511435033 0.027737724297316482 -0.049982583846144679 0.03985511255470818
leaf_weight=25.322652280330658 1026.3968890607357 2222.8845166862011 684.58869060873985 1951.1490277945995 362.86751282215118 237.29821875691414 2460.6281072497368 88.998424768447876 1984.9135669469833 1033.9171814322472 107.90668058395386 180.15620470046997 2539.5722836256027 152.51471847295761 37.498425930738449 298.63687688112259 26.131964981555939 89.995617866516113 146.59060698747635 106.35124361515045 530.61869531869888 278.734055519104 25.017671883106232 422.86011612415314 18.126798778772354 90.671201586723328 18.459832280874252 111.1646594107151 45.594737887382507
leaf_count=72 3112 6773 1844 5401 977 679 6584 243 5312 3061 291 495 7102 438 104 815 70 242 400 285 1475 780 67 1263 50 268 51 312 135
internal_value=0.000303639 0.0147352 0.000470892 -0.00721262 -0.0421903 0.0398826 0.00534699 -0.0451709 -0.0279655 0.0444213 -0.00308811 0.019211 -0.0478665 0.0376446 -0.0342542 -0.0312196 -0.010569 -0.00546695 0.00822552 -0.0314101 -0.0489013 0.0261279 -0.0297298 0.0474429 0.0266164 0.0472382 0.0178489 -0.0474248 0.0479121
internal_weight=17305.6 12918.9 8243.94 7081.28 4386.67 4674.96 4411.78 4075.71 2669.5 3832.18 310.961 842.779 3265.54 1186.43 810.167 661.504 249.052 197.902 326.747 195.35 3070.19 516.032 51.1496 2645.74 61.9093 1162.66 36.5866 148.663 1071.99
internal_count=48701 36545 22656 19141 12156 13889 11985 11313 7156 11535 843 2354 9105 3499 2208 1792 670 533 895 528 8577 1459 137 8036 173 3515 101 416 3247
is_linear=0
shrinkage=0.05


Tree=21
num_leaves=30
num_cat=0
split_feature=0 4 12 4 3 4 4 4 13 12 3 2 13 4 0 4 2 5 4 8 4 8 8 2 6 4 12 4 8
split_gain=7806.77 399.735 167.77 113.083 80.4839 59.336 38.7571 31.5467 28.0201 27.4174 21.9095 21.693 17.4702 19.0431 14.0334 10.0969 9.41478 7.83115 7.17213 5.62779 4.89687 4.66322 3.98113 3.52325 3.48392 2.9347 1.26638 0.718429 0.363574
threshold=1.5000000000000002 1.2066628217611777 0.44510444743563699 1.0507155505999866 0.3527014403753494 0.78576376000541903 1.7019360588247856 1.7827461747033078 0.14253567668464981 0.67509832973337014 0.37892281109509196 0.27163355956169294 0.29268245517200553 2.2019799618799287 2.5000000000000004 1.3949124213088451 0.12458045564627361 4.8500000000000005 0.68701453584286354 1.5000000000000002 0.73223649117037526 1.5000000000000002 1.5000000000000002 0.25949409042127702 11.500000000000002 0.57958094401324212 0.5534127238155907 0.60423325630879665 1.5000000000000002
decision_type=2 2 2 2 2 2 2 2 2 2 2 2 2 2 2 2 2 2 2 2 2 2 2 2 2 2 2 2 2
left_child=2 5 3 8 12 16 17 11 20 15 22 -5 13 -3 -8 26 27 -6 -10 -14 -1 -12 -7 -9 -17 -18 -4 -2 -11
right_child=1 4 9 7 6 10 14 23 18 28 21 -13 19 -15 -16 24 25 -19 -20 -21 -22 -23 -24 -25 -26 -27 -28 -29 -30
leaf_value=-0.023912878636093149 -0.039468706572282054 -0.019002939679475275 0.046158786057970837 0.01844653816660298 0.0086106957239320114 -0.038607886851238143 0.013422608954325852 0.043103477091098491 -0.002574233979652828 0.068603102581609565 -0.029558757534285031 0.043197479818500327 -0.035682845744705087 0.008871961530115503 -0.0059133424924071691 0.061238642553571858 -0.036532569719717981 -0.011885996342724102 0.028082964481968089 -0.022988025079886815 -7.2431487410215621e-05 -0.017793009365290623 -0.029848178758217978 0.055868880655200959 0.052842861782210294 -0.031104189852270165 0.05407380511501643 -0.036721598836951634 0.063862256217997806
leaf_weight=28.688227355480194 3054.244339838624 273.75829972326756 250.99760863184929 107.05308797955513 51.098675787448883 178.58983589708805 451.65488883852959 84.376381129026413 20.830889120697975 799.88075467944145 103.72408233582973 605.64192408323288 158.82813815772533 77.931198999285698 117.35292191803455 770.70759013295174 572.65651202201843 440.07207070291042 178.92920917272568 227.29096214473248 80.044148772954941 566.96498723328114 800.5215408205986 657.97543692588806 236.90937629342079 623.53336182236671 157.13074290752411 584.87693008780479 406.75863084197044
leaf_count=115 14255 1184 702 332 178 841 1593 238 77 2137 412 1706 738 301 433 2082 2652 1690 548 1004 274 2235 3639 1792 639 2671 427 2719 1087
internal_value=-0.00058924 -0.0291495 0.0533419 0.0413597 -0.00827969 -0.0349327 0.00054371 0.0471893 0.0137837 0.0613791 -0.0266985 0.0395177 -0.0209486 -0.0128043 0.00942259 0.0564871 -0.0377351 -0.00973031 0.0248642 -0.0283016 -0.00656872 -0.0196614 -0.0314888 0.0544846 0.0593239 -0.0337355 0.049343 -0.0390388 0.0670633
internal_weight=12669 8283.1 4385.92 1763.54 1797.99 6485.11 1060.18 1455.05 308.492 2622.38 1649.8 712.695 737.809 351.689 569.008 1415.75 4835.31 491.171 199.76 386.119 108.732 670.689 979.111 742.352 1007.62 1196.19 408.128 3639.12 1206.64
internal_count=48701 36545 12156 5082 7121 29424 3894 4068 1014 7074 7127 2038 3227 1485 2026 3850 22297 1868 625 1742 389 2647 4480 2030 2721 5323 1129 16974 3224
is_linear=0
shrinkage=0.05


Tree=22
num_leaves=10
num_cat=0
split_feature=5 5 0 0 4 14 8 14 3
split_gain=2434.47 1964.18 835.148 355.02 157.921 109.179 88.6132 41.9248 26.076
threshold=8.0500000000000025 2.9500000000000006 1.5000000000000002 2.5000000000000004 1.6632936106428837 0.00051463198849983915 1.5000000000000002 0.34412938935644355 0.66332181133667045
decision_type=2 2 2 2 2 2 2 2 2
left_child=1 -1 4 6 8 -5 -4 -6 -3
right_child=-2 2 3 5 7 -7 -8 -9 -10
leaf_value=-0.039400306159287871 -0.039092054708442105 0.031441787246883644 0.063752962429050042 0.011690188761745103 -0.011064965323149387 0.029880092766612507 0.041729025969387684 -0.031998006392660906 0.006126878899675019
leaf_weight=1465.5742553174496 2949.1068000495434 131.65052315592766 629.80005994439125 1405.4061136394739 501.43217119574547 2007.1168009340763 1730.7297694683075 461.02227100729942 442.98544853925705
leaf_count=7494 15661 433 1844 5447 2084 6538 5312 2196 1692
internal_value=0.000201799 0.0134101 0.0240025 0.0327218 -0.00874277 0.0223959 0.0476317 -0.02112 0.0119798
internal_weight=11724.8 8775.72 7310.14 5773.05 1537.09 3412.52 2360.53 962.454 574.636
internal_count=48701 33040 25546 19141 6405 11985 7156 4280 2125
is_linear=0
shrinkage=0.05


Tree=23
num_leaves=31
num_cat=0
split_feature=0 5 5 0 4 3 14 4 13 4 4 2 4 4 13 14 5 13 2 5 5 14 5 2 2 13 4 14 14 4
split_gain=3820.7 1693.29 1077.18 672.667 187.991 166.571 135.805 52.62 36.5373 30.3799 23.6909 20.8067 14.8002 13.8406 12.8504 12.7433 16.1399 9.27825 9.19434 7.48141 6.77616 6.63429 6.0876 5.78371 4.95913 2.70449 1.99835 1.80028 0.469409 0.191279
threshold=1.5000000000000002 8.0500000000000025 2.9500000000000006 2.5000000000000004 1.1145150239828217 0.3527014403753494 0.00025983220223236816 0.84057353615858876 0.66090734378388827 1.5130741619209702 2.451251114224628 0.27163355956169294 0.68701453584286354 1.3949124213088451 0.29268245517200553 0.3184699748316337 2.9500000000000006 0.42903491181425274 0.089731680858404897 8.4500000000000011 8.1500000000000004 0.05106575530494422 2.9500000000000006 0.40860991697310356 0.19622093852978492 0.13515606715652287 0.59789111758923796 0.18785721949321085 0.39431327402419158 0.69973062607220415
decision_type=2 2 2 2 2 2 2 2 2 2 2 2 2 2 2 2 2 2 2 2 2 2 2 2 2 2 2 2 2 2
left_child=4 2 27 8 7 9 -5 12 -4 18 24 19 26 22 -11 16 -9 -12 -3 25 -15 -21 -13 -14 -7 -6 -1 29 -17 -2
right_child=1 5 3 6 11 10 -8 15 -10 14 17 13 23 20 -16 28 -18 -19 -20 21 -22 -23 -24 -25 -26 -27 -28 -29 -30 -31
leaf_value=0.036630506852516426 0.046838814483448614 0.046668558020246984 -0.023699561211437306 0.015097803462860888 -0.041803472953389625 0.027748208042407387 -0.0025842670664085344 -0.011511752635242241 -0.038502908559442175 0.024910416448518075 0.0041142406541029904 -0.034480171077873538 0.0034239756790357756 -0.048696065153340767 0.039471797702462438 -0.031911977210862301 -0.033080332320831705 0.027822220092831546 0.039947862361232545 -0.0058038376358929573 -0.041892324098617421 -0.031096020161114776 -0.045423142569013052 -0.018229579162708492 0.015742885331756863 -0.01866267821615656 0.017020128336941717 0.037265221612453867 -0.041903161463037381 0.038391212271191272
leaf_weight=24.941120892763138 994.19555792212486 2347.6314375698566 2136.5635207593441 1940.8279392719269 102.51326268911362 391.24011275172234 2462.160812318325 218.77378386259079 523.68335476517677 289.48514378070831 278.03700578212738 368.89807656407356 90.610157817602158 2272.9430276155472 346.1944617331028 46.544995307922363 145.89377638697624 47.762900173664093 740.95718070864677 48.036358416080475 521.40149387717247 58.330801486968994 231.755565315485 45.371947973966599 119.31660962104797 18.056995332241058 36.372798502445221 88.506879806518555 83.594964563846588 44.497613102197647
leaf_count=72 3112 7379 5734 5401 283 1128 6584 586 1422 848 761 1033 245 6497 1049 126 398 134 2259 129 1475 157 648 122 331 50 101 268 234 135
internal_value=0.000298512 0.0140602 0.000462276 -0.00678266 -0.0403698 0.0384743 0.00521047 -0.0164502 -0.0266289 0.0430042 0.0182692 -0.0449334 0.00534381 -0.0459241 0.032898 -0.0251435 -0.0202213 0.00767968 0.0450713 -0.029953 -0.0474438 -0.0198809 -0.0387792 -0.00384481 0.0249886 -0.038561 0.0255373 0.0458305 -0.0386385 0.046519
internal_weight=17065.1 12751.1 8190.44 7063.24 4314.04 4560.62 4402.99 692.104 2660.25 3724.27 836.357 3621.94 197.296 3395 635.68 494.808 364.668 325.8 3088.59 226.937 2794.34 106.367 600.654 135.982 510.557 120.57 61.3139 1127.2 130.14 1038.69
internal_count=48701 36545 22656 19141 12156 13889 11985 1884 7156 11535 2354 10272 540 9653 1897 1344 984 895 9638 619 7972 286 1681 367 1459 333 173 3515 360 3247
is_linear=0
shrinkage=0.05


Tree=24
num_leaves=30
num_cat=0
split_feature=0 4 12 4 2 4 4 4 12 12 2 2 8 4 12 4 2 4 2 8 8 6 2 4 12 12 12 4 8
split_gain=7027.9 393.976 153.052 98.6065 73.0956 60.005 36.3416 28.3335 27.0523 21.1406 20.9511 18.9893 17.4096 20.8333 11.8738 11.4236 9.60564 9.21882 9.09119 4.62493 3.80229 3.23953 3.124 2.91007 2.61972 1.48114 1.22005 0.785323 0.418089
threshold=1.5000000000000002 1.2066628217611777 0.44510444743563699 1.0507155505999866 0.14076040642804724 0.78576376000541903 1.9885447113350141 1.7827461747033078 0.67509832973337014 0.27305909222469599 0.14951053220379723 0.27163355956169294 1.5000000000000002 2.2392023482554277 0.40668936997619759 0.73223649117037526 0.12458045564627361 1.3949124213088451 0.19622093852978492 1.5000000000000002 1.5000000000000002 11.500000000000002 0.25949409042127702 0.57958094401324212 0.21782030960161322 0.34876916285620013 0.5534127238155907 0.60423325630879665 1.5000000000000002
decision_type=2 2 2 2 2 2 2 2 2 2 2 2 2 2 2 2 2 2 2 2 2 2 2 2 2 2 2 2 2
left_child=2 5 3 9 12 16 18 11 17 24 20 -5 25 -14 -8 -11 27 26 -6 -12 -7 -19 -9 -18 -1 -3 -4 -2 -10
right_child=1 4 8 7 6 10 14 22 28 15 19 -13 13 -15 -16 -17 23 21 -20 -21 -22 -23 -24 -25 -26 -27 -28 -29 -30
leaf_value=-0.025331968957445425 -0.039049047633164906 -0.013741246906904012 0.043033948176734768 0.017192231073726007 -0.012995605083296061 -0.038071202030040323 0.018677336128599075 0.040261314494175228 0.064770316222182558 -0.0040935727283712073 -0.029129424711949223 0.040213824253269664 -0.020114976774056641 0.0052690219001806128 0.0016300785970280449 0.025376117472982958 -0.036005745031781465 0.057357122464431066 -0.00098998500616066082 -0.01742110381408354 -0.029259643372805066 0.049354811939374271 0.052188493529511271 -0.030523180115796779 -0.0040651933369263106 -0.034720973100554969 0.050601832571393592 -0.03620095273376342 0.060190062920410729
leaf_weight=18.845040932297707 2938.2456625252962 11.569826975464819 254.47927966713905 108.29524713754654 312.88494405150414 168.70178779959679 256.82428424060345 85.622091472148895 801.18349304795265 38.900459244847298 103.47112771868706 614.68997091054916 435.51855859160423 98.39544090628624 170.63605481386185 194.21963208913803 551.48483055830002 777.26495987176895 319.18356032669544 575.61438727378845 758.07519641518593 238.67637747526169 665.09446030855179 607.70345214009285 58.608232915401459 168.56693191826344 158.62828716635704 563.09625063836575 407.54803973436356
leaf_count=74 14255 50 702 332 1267 831 869 238 2137 142 422 1706 1959 394 614 585 2652 2082 1157 2302 3572 639 1792 2671 213 811 427 2719 1087
internal_value=-0.000644158 -0.0284904 0.0499783 0.0386152 -0.00767672 -0.0343783 0.000654531 0.0440111 0.0576453 0.0129361 -0.0259975 0.0368009 -0.0200295 -0.0154265 0.0119037 0.0204407 -0.0372587 0.0528338 -0.00695201 -0.0192526 -0.0309083 0.0555324 0.0508902 -0.0331646 -0.00956025 -0.0334844 0.0460672 -0.0386029 0.0632812
internal_weight=12462 8039.97 4422.06 1784.28 1773.58 6266.39 1059.53 1473.7 2637.78 310.573 1605.86 722.985 714.051 533.914 427.46 233.12 4660.53 1429.05 632.069 679.086 926.777 1015.94 750.717 1159.19 77.4533 180.137 413.108 3501.34 1208.73
internal_count=48701 36545 12156 5082 7121 29424 3907 4068 7074 1014 7127 2038 3214 2353 1483 727 22297 3850 2424 2724 4403 2721 2030 5323 287 861 1129 16974 3224
is_linear=0
shrinkage=0.05


Tree=25
num_leaves=10
num_cat=0
split_feature=16 16 0 0 4 14 12 14 14
split_gain=2265.16 1796.19 735.325 297.751 145.894 92.6976 86.2304 32.8956 25.9355
threshold=2.6833333333333336 0.9833333333333335 1.5000000000000002 2.5000000000000004 1.7827461747033078 0.00051463198849983915 0.58473329748473579 0.35348083373051536 0.12344951967315965
decision_type=2 2 2 2 2 2 2 2 2
left_child=1 -1 4 6 8 -5 -4 -6 -3
right_child=-2 2 3 5 7 -7 -8 -9 -10
leaf_value=-0.039045666393067641 -0.038738414121691517 0.017977567954686798 0.037126309756759693 0.01134846419170818 -0.012256979991585117 0.028029376784712623 0.057032255542698695 -0.032092323587055049 -0.0015705835959988598
leaf_weight=1404.4655307531357 2817.6330536603928 362.62580540776253 1570.5054837465286 1412.1210793107748 418.3543903529644 2041.4153002500534 845.28986409306526 423.06441593170166 317.02691733837128
leaf_count=7494 15661 1270 4775 5447 1781 6538 2381 2090 1264
internal_value=0.000267885 0.012768 0.0226192 0.0306472 -0.00835481 0.0212154 0.0441142 -0.0222624 0.00886299
internal_weight=11612.5 8794.87 7390.4 5869.33 1521.07 3453.54 2415.8 841.419 679.653
internal_count=48701 33040 25546 19141 6405 11985 7156 3871 2534
is_linear=0
shrinkage=0.05


Tree=26
num_leaves=31
num_cat=0
split_feature=0 5 5 0 4 3 14 4 8 3 4 3 4 4 4 14 5 12 12 5 5 14 5 12 4 13 4 14 14 4
split_gain=3447.44 1547.38 979.636 602.299 175.943 159.137 120.345 47.4836 39.1398 30.3887 22.0097 19.535 13.5103 13.2237 12.0375 11.6995 15.1361 8.98591 8.27185 7.13862 6.7762 6.39044 5.92386 5.23331 3.27532 2.60096 1.88037 1.87569 0.468808 0.244995
threshold=1.5000000000000002 8.0500000000000025 2.9500000000000006 2.5000000000000004 1.1145150239828217 0.3527014403753494 0.00025983220223236816 0.84057353615858876 1.5000000000000002 0.22515126370768893 2.451251114224628 0.67989319227990241 1.3949124213088451 0.68701453584286354 2.2019799618799287 0.3184699748316337 2.9500000000000006 0.4470245523568786 0.27575413972000967 8.4500000000000011 8.1500000000000004 0.05106575530494422 2.9500000000000006 0.41277930242792032 1.544282398306964 0.13515606715652287 0.59789111758923796 0.18785721949321085 0.39431327402419158 0.69973062607220415
decision_type=2 2 2 2 2 2 2 2 2 2 2 2 2 2 2 2 2 2 2 2 2 2 2 2 2 2 2 2 2 2
left_child=4 2 27 8 7 9 -5 13 -4 24 18 19 22 26 -11 16 -9 -12 -7 25 -14 -21 -13 -15 -3 -6 -1 29 -17 -2
right_child=1 5 3 6 11 10 -8 15 -10 14 17 12 20 23 -16 28 -18 -19 -20 21 -22 -23 -24 -25 -26 -27 -28 -29 -30 -31
leaf_value=0.035288195099137408 0.045584398954306715 0.045412965748657469 -0.035624112952359101 0.014332763102323785 -0.040320276143914535 0.01255930654785738 -0.0023359349115506006 -0.010702831637934595 -0.021615353431298112 0.036905257286902839 0.0012973491846440736 -0.032835152070642158 -0.046976111710498314 0.0032838037337922783 0.021682933835639847 -0.030303485520770047 -0.031642502915236917 0.018974153652869762 0.027603651468348225 -0.0050560713603060321 -0.040129685813379598 -0.029838015562999781 -0.043692865131131048 -0.017501125155390235 0.037696057884954615 -0.017616939766845582 0.016166838678801695 0.035841328675828031 -0.040096540963539207 0.03701910586711607
leaf_weight=24.502071529626846 960.64464750885963 2286.6999776363373 674.19589003920555 1930.5173079371452 101.94247514009476 125.52024012804031 2462.9994783699512 218.46749579906464 1973.2418685853481 974.81405791640282 217.91061952710152 363.45166018605232 2218.7694587111473 92.013224571943283 157.83108869194984 46.193543583154678 144.70208966732025 106.92524302005768 379.39677768945694 47.932764530181885 510.51900893449783 58.713460564613342 227.41218400001526 43.790081530809402 192.91311419010162 17.921701431274414 36.13176703453064 86.25515404343605 82.10530811548233 43.35672590136528
leaf_count=72 3112 7437 1844 5401 285 357 6584 586 5312 3032 595 1033 6496 249 467 126 398 300 1102 129 1473 159 647 118 599 50 101 268 234 135
internal_value=0.000292233 0.0134342 0.000468068 -0.00636243 -0.0387216 0.0371626 0.00498877 -0.015539 -0.0251968 0.0416999 0.0173772 -0.043211 -0.044191 0.00520057 0.0348095 -0.0238323 -0.0191238 0.00717169 0.0239058 -0.0286939 -0.0457125 -0.0188965 -0.0370893 -0.00346073 0.04483 -0.037141 0.0244221 0.0445499 -0.0368709 0.0452567
internal_weight=16807.8 12573.2 8131.21 7040.95 4234.57 4442.01 4393.52 687.906 2647.44 3612.26 829.753 3546.66 3320.15 196.437 1132.65 491.468 363.17 324.836 504.917 226.51 2729.29 106.646 590.864 135.803 2479.61 119.864 60.6338 1090.26 128.299 1004
internal_count=48701 36545 22656 19141 12156 13889 11985 1884 7156 11535 2354 10272 9649 540 3499 1344 984 895 1459 623 7969 288 1680 367 8036 335 173 3515 360 3247
is_linear=0
shrinkage=0.05


Tree=27
num_leaves=31
num_cat=0
split_feature=3 4 3 3 4 4 14 13 4 3 13 13 13 4 4 4 4 13 13 3 4 2 3 3 15 4 2 6 4 4
split_gain=5959.79 464.866 210.984 107.811 89.8133 71.5011 53.7265 47.8485 31.1324 29.1258 28.1939 22.3045 22.2194 24.1567 18.6727 17.1382 14.852 9.87604 8.92979 7.79523 6.46696 6.28293 5.99812 5.04623 3.66494 2.11796 1.68276 1.36897 1.33838 1.26487
threshold=0.67989319227990241 1.2394862045854702 0.94990545280006022 0.41336223309574588 1.1238901397349423 0.73884498667576015 0.37473341803059951 0.29519880648270858 1.6632936106428837 0.47755428312581027 0.27124118016925575 0.27575840247572508 0.29268245517200553 2.5495989103562535 1.4098432226355835 1.9318871060011245 0.73223649117037526 0.16168943695702734 0.20334985025965238 0.38512298101014758 0.73223649117037526 0.74786910256707684 0.22307437006596623 0.22515126370768893 2.7500000000000004 0.60990728518868331 0.2960990109529566 11.500000000000002 0.51487547411786116 1.6632936106428837
decision_type=2 2 2 2 2 2 2 2 2 2 2 2 2 2 2 2 2 2 2 2 2 2 2 2 2 2 2 2 2 2
left_child=1 5 4 12 10 19 14 15 17 22 16 -10 13 -3 20 -6 -2 -5 -11 28 -4 29 -7 -14 -9 -21 -12 -16 -1 -8
right_child=2 3 6 8 7 9 21 24 11 18 26 -13 23 -15 27 -17 -18 -19 -20 25 -22 -23 -24 -25 -26 -27 -28 -29 -30 -31
leaf_value=-0.038678648760702546 -0.014706264792639902 -0.013814620582336122 0.0077778830552391364 0.0065037343104299185 0.032809078973348914 -0.034354632625662879 0.050838547886989195 0.012473947060335697 0.022976946001390195 -0.0069657280797290281 -0.011081943433375926 -0.0015735513832856292 -0.031285338795374922 0.015497230462170164 0.050173033746997331 0.04836027777305324 0.01861802884382073 -0.011247911291659217 -0.021174582066395012 -0.034286925079419037 0.037748430052604164 0.061034036538124128 -0.026800605400968115 -0.019636475138223624 -0.0060191106578291039 -0.027234556843221049 -0.026909626177185144 0.04410811459830475 -0.036009310236283357 0.056466389224537394
leaf_weight=2678.4944897741079 39.120090469717979 395.19708074629307 19.770000740885735 143.72532522678375 392.82907950878143 383.38694781064987 331.86665025353432 58.82411116361618 377.52532285451889 222.33049726486206 30.761934876441956 121.78499372303486 168.86626967787743 84.428895816206932 750.74573394656181 349.65916952490807 200.9903751462698 169.51865474879742 224.74368061125278 296.99880574643612 468.81648606061935 912.71485587954521 1063.1583696603775 237.49111723899841 47.286368638277054 236.90379184484482 48.644665583968163 220.53823938965797 993.14264376461506 572.12439554929733
leaf_count=13515 165 1725 66 500 1111 2021 890 205 1218 841 140 447 831 310 2013 952 635 645 905 1499 1294 2445 4815 1089 165 1057 213 591 4870 1528
internal_value=-0.000699942 -0.0270378 0.0455014 -0.00389778 0.0272107 -0.0334795 0.0520103 0.0357107 0.00924637 -0.0253751 0.0045793 0.0169878 -0.015955 -0.00862292 0.0447681 0.0401945 0.0131294 -0.00309226 -0.014151 -0.0371206 0.0365643 0.0577995 -0.0288285 -0.0245545 0.00420689 -0.0312238 -0.0210543 0.0488479 -0.037968 0.0544643
internal_weight=12242.4 7797.7 4444.69 1698.54 1168.12 6099.16 3276.58 848.599 812.554 1893.62 319.517 499.31 885.983 479.626 1459.87 742.488 240.11 313.244 447.074 4205.54 488.586 1816.71 1446.55 406.357 106.11 533.903 79.4066 971.284 3671.64 903.991
internal_count=48701 36288 12413 6765 3586 29523 8827 2433 2810 8582 1153 1665 3955 2035 3964 2063 800 1145 1746 20941 1360 4863 6836 1920 370 2556 353 2604 18385 2418
is_linear=0
shrinkage=0.05


Tree=28
num_leaves=10
num_cat=0
split_feature=5 5 2 8 14 14 14 0 13
split_gain=2109.96 1645.4 652.919 200.635 110.512 109.854 49.8604 17.637 7.18102
threshold=8.0500000000000025 2.9500000000000006 0.37301211398020745 1.5000000000000002 0.0033771479892110235 0.00025983220223236816 0.37473341803059951 1.5000000000000002 0.60507488176640256
decision_type=2 2 2 2 2 2 2 2 2
left_child=1 -1 3 5 -5 -3 7 -4 -8
right_child=-2 2 6 4 -6 -7 8 -9 -10
leaf_value=-0.038712059659051473 -0.038409320988325363 0.017717747361703003 -0.0091998631811334424 0.0090104614989453182 0.026324499964212728 0.049982725071729434 -0.022499244484095904 0.049236123795389913 -0.036701436839309064
leaf_weight=1344.6330479085445 2690.3160280883312 341.58625663816929 524.29618269205093 1222.6128298789263 3772.3457466959953 1188.4684328883886 156.86303998529911 12.232360869646071 239.78855240345001
leaf_count=7494 15661 1314 2277 4580 11811 3498 767 38 1261
internal_value=0.000334119 0.0121785 0.0213581 0.0269528 0.0220902 0.0427991 -0.0177431 -0.00776916 -0.0311682
internal_weight=11493.1 8802.83 7458.19 6525.01 4994.96 1530.05 933.18 536.529 396.652
internal_count=48701 33040 25546 21203 16391 4812 4343 2315 2028
is_linear=0
shrinkage=0.05


Tree=29
num_leaves=31
num_cat=0
split_feature=0 5 5 0 4 3 14 4 12 3 4 3 4 4 4 14 5 8 12 5 5 14 5 12 4 13 14 4 14 4
split_gain=3115.02 1414.73 891.759 539.621 165.28 152.623 106.513 42.79 37.1367 30.5608 20.202 18.7204 13.2909 11.9519 11.5071 10.7657 14.2596 8.6067 7.92007 6.94888 6.79228 5.97235 5.8241 4.67361 3.36259 2.50263 1.96148 1.78758 0.470677 0.301287
threshold=1.5000000000000002 8.0500000000000025 2.9500000000000006 2.5000000000000004 1.1145150239828217 0.3527014403753494 0.00025983220223236816 0.84057353615858876 0.32760500783005497 0.22515126370768893 2.451251114224628 0.67989319227990241 1.3949124213088451 0.68701453584286354 2.2019799618799287 0.3184699748316337 2.9500000000000006 2.5000000000000004 0.27575413972000967 8.4500000000000011 8.1500000000000004 0.05106575530494422 2.9500000000000006 0.41277930242792032 1.153084318752601 0.13515606715652287 0.18785721949321085 0.59789111758923796 0.39431327402419158 0.69973062607220415
decision_type=2 2 2 2 2 2 2 2 2 2 2 2 2 2 2 2 2 2 2 2 2 2 2 2 2 2 2 2 2 2
left_child=4 2 26 8 7 9 -5 13 -4 24 18 19 22 27 -11 16 -9 -12 -7 25 -14 -21 -13 -15 -3 -6 29 -1 -17 -2
right_child=1 5 3 6 11 10 -8 15 -10 14 17 12 20 23 -16 28 -18 -19 -20 21 -22 -23 -24 -25 -26 -27 -28 -29 -30 -31
leaf_value=0.034117555436491712 0.044445106280203588 0.044609517537306742 -0.011293477544855299 0.013609364745731775 -0.038910138211889655 0.011697695830181177 -0.0020944975833714842 -0.0099354682308027218 -0.02667253643220115 0.035598900782088369 0.014092609106999802 -0.031291739778127284 -0.045424871627660457 0.0031842681108118992 0.020610068566057602 -0.028795727559428309 -0.030316949340100215 -0.0022299218102978164 0.026475769602983819 -0.0043510221044648556 -0.038522016620747966 -0.028346323054669071 -0.042121378931875002 -0.016477870945467304 0.038871646000034676 -0.016613763276726947 0.034494658778507672 0.015387060132837738 -0.038427206762865387 0.035725483873389141
leaf_weight=24.082992523908615 926.16083547472954 2003.7064534425735 484.38334777951241 1920.2743908166885 100.59056636691093 124.56249952316284 2463.7430265247822 218.11323341727257 2147.9912285804749 949.02714928984642 178.03924733400345 357.63471713662148 2161.0561355948448 91.931520938873291 155.72484254837036 45.793002068996429 143.39535841345787 145.85367357730865 374.34485152363777 47.821740746498108 499.64391508698463 58.300961226224899 223.08918777108192 43.664884626865387 389.12030339241028 17.781382441520691 83.94164189696312 35.902019292116165 80.48234698176384 42.184820622205734
leaf_count=72 3112 6773 1304 5401 285 357 6584 586 5852 3032 495 1033 6496 249 467 126 398 400 1102 129 1473 159 647 118 1263 50 268 101 234 135
internal_value=0.000285637 0.0128442 0.000478929 -0.00595959 -0.037205 0.0359308 0.00478446 -0.014692 -0.0238499 0.0404903 0.0165173 -0.0416368 -0.0426142 0.00502856 0.0335112 -0.0226034 -0.0180951 0.00674271 0.0228269 -0.0273768 -0.0441454 -0.0177216 -0.0355259 -0.00318503 0.0436951 -0.03577 0.043379 0.0234252 -0.0352274 0.0441077
internal_weight=16538.3 12389.1 8068.68 7016.39 4149.28 4320.38 4384.02 683.365 2632.37 3497.58 822.8 3465.92 3241.42 195.581 1104.75 487.784 361.509 323.893 498.907 224.495 2660.7 106.123 580.724 135.596 2392.83 118.372 1052.29 59.985 126.275 968.346
internal_count=48701 36545 22656 19141 12156 13889 11985 1884 7156 11535 2354 10272 9649 540 3499 1344 984 895 1459 623 7969 288 1680 367 8036 335 3515 173 360 3247
is_linear=0
shrinkage=0.05


Tree=30
num_leaves=29
num_cat=0
split_feature=0 3 14 5 14 3 5 5 5 2 2 2 12 5 14 12 5 3 8 3 5 3 6 3 5 7 14 5
split_gain=5755.56 250.653 140.564 107.457 61.2735 53.2248 97.612 28.8649 26.9587 26.1668 23.237 19.3076 16.6911 14.4873 12.933 12.7801 12.2913 13.4549 9.7048 7.76155 7.34177 12.5397 6.21758 5.28274 3.00843 1.21259 1.0251 0.356889
threshold=1.5000000000000002 0.4100288689995934 0.30114855169134375 7.3500000000000005 0.050219744625652117 0.24568843861515019 10.950000000000001 4.3500000000000005 3.9500000000000006 0.33494252363746546 0.22368108791520216 0.20374029322469314 0.24283221484806031 5.8500000000000005 0.57990517750360471 0.59103568885115154 4.3500000000000005 0.64665974713322061 2.5000000000000004 0.54611840654908517 11.350000000000003 0.2057241935506807 9.5000000000000018 0.68996437461150217 2.7500000000000004 1.5000000000000002 0.38460807444885564 8.4500000000000011
decision_type=2 2 2 2 2 2 2 2 2 2 2 2 2 2 2 2 2 2 2 2 2 2 2 2 2 2 2 2
left_child=2 5 4 8 16 20 13 9 19 -6 -10 15 -8 -7 24 -5 23 -18 -13 -3 27 -22 -9 -1 26 -26 -4 -2
right_child=1 3 14 11 7 6 12 22 10 -11 -12 18 -14 -15 -16 -17 17 -19 -20 -21 21 -23 -24 -25 25 -27 -28 -29
leaf_value=-0.015432759648709812 -0.038496525562892653 -0.03215729460765962 0.040622300576615727 0.0015793555339995574 0.015734709204660951 -0.035507658104339888 0.016586784703053085 0.050448090353679233 -0.019270177765185324 0.036682904244336997 -0.001217583186928827 0.0083602316814442579 -0.010100023030344291 -0.026513850884406089 0.057914816591322166 -0.036342794411300283 0.0081006953501973865 0.036402789068750524 0.027649040347885401 -0.020831726009166354 -0.034899150633012008 -0.018931837706561983 0.041638341699338291 0.0088577462849851133 0.057173306379221536 0.050337212281342004 0.04811525103819822 -0.035941821512308729
leaf_weight=39.985786974430084 1756.7571917325258 303.4725893586874 136.33042827248573 252.47891002893448 187.49716749787331 1054.3307442814112 67.112433239817619 366.98417887091637 458.39598853886127 790.74224965274334 292.51300857961178 147.0589956343174 416.47952082753181 827.00161200761795 1057.5371725857258 23.339499861001968 96.061394065618515 75.507153272628784 119.5595576018095 330.50764042139053 877.30010087788105 149.38717710971832 627.26336193084717 48.176875829696655 174.83903184533119 559.98013672232628 267.70375636219978 542.09779122471809
leaf_count=156 8913 1486 366 955 576 5160 271 986 1874 2178 1073 504 1872 3897 2859 93 288 208 403 1516 4880 738 1698 145 468 1498 717 3072
internal_value=-0.0005634 -0.0269143 0.0447583 -0.0113181 0.0358822 -0.0321928 -0.0264242 0.0388897 -0.0187042 0.0326931 -0.0122555 0.00752973 -0.00635955 -0.031573 0.0537564 -0.00173121 0.0129613 0.0207242 0.0170996 -0.026303 -0.0362844 -0.0326014 0.0449425 -0.00215255 0.0498432 0.052046 0.0457058 -0.0379122
internal_weight=12046.4 7617.79 4428.61 1927.33 2232.22 5690.47 2364.92 1972.49 1384.89 978.239 750.909 542.437 483.592 1881.33 2196.39 275.818 259.731 171.569 266.619 633.98 3325.54 1026.69 994.248 88.1627 1138.85 734.819 404.034 2298.85
internal_count=48850 36707 12143 7904 6235 28803 11200 5438 5949 2754 2947 1955 2143 9057 5908 1048 797 496 907 3002 17603 5618 2684 301 3049 1966 1083 11985
is_linear=0
shrinkage=0.05


Tree=31
num_leaves=10
num_cat=0
split_feature=5 5 0 0 14 12 8 3 14
split_gain=1988.6 1512.31 627.073 231.603 123.553 80.0126 74.6574 32.9678 16.2824
threshold=8.0500000000000025 2.9500000000000006 1.5000000000000002 2.5000000000000004 0.257584231435044 0.71275274428265267 1.5000000000000002 0.68996437461150217 0.52709260320112172
decision_type=2 2 2 2 2 2 2 2 2
left_child=1 -1 4 5 7 -4 -5 -3 -6
right_child=-2 2 3 6 8 -7 -8 -9 -10
leaf_value=-0.038402469909958006 -0.038103696393699198 0.020963119315402498 0.034357553656764031 0.031845199885290797 -0.019507614478227405 0.056187703736597532 0.015008727802099687 -0.0021217288632289395 -0.036561141189000716
leaf_weight=1282.6016630828381 2582.1929070204496 197.5155553817749 1980.0277214944363 877.27436809241772 356.26849913597107 538.07443457841873 2661.2564438283443 698.26590302586555 238.17884634435177
leaf_count=7469 15750 634 5762 2927 1687 1461 9088 2766 1306
internal_value=0.0004832 0.0117716 0.0203034 0.0274519 -0.00874531 0.0390447 0.0191921 0.00298049 -0.0263988
internal_weight=11411.7 8829.46 7546.86 6056.63 1490.23 2518.1 3538.53 895.781 594.447
internal_count=48850 33100 25631 19238 6393 7223 12015 3400 2993
is_linear=0
shrinkage=0.05


Tree=32
num_leaves=28
num_cat=0
split_feature=3 16 16 4 0 0 4 14 4 12 16 16 16 12 0 16 3 12 8 4 14 8 12 15 3 9 14
split_gain=2776.89 1165.81 573.029 439.159 327.938 111.472 104.519 79.9827 78.9075 61.7484 56.8576 54.381 62.2279 28.6843 20.915 17.8642 15.2234 15.0196 13.711 10.7887 8.30548 7.58146 3.17543 3.00047 1.45438 1.1749 0.344872
threshold=0.52306469465060812 2.6833333333333336 0.9833333333333335 0.75842317216955057 2.5000000000000004 1.5000000000000002 1.5130741619209702 0.00051463198849983915 1.2744989906118291 0.66262080908005794 0.9833333333333335 2.6833333333333336 0.9833333333333335 0.26504099393535174 1.5000000000000002 0.9833333333333335 0.23984860986657816 0.27575413972000967 1.5000000000000002 2.6554496100324214 0.17018572370914395 2.5000000000000004 0.26504099393535174 2.7500000000000004 0.12953350875458114 2.5000000000000004 0.070098633109127187
decision_type=2 2 2 2 2 2 2 2 2 2 2 2 2 2 2 2 2 2 2 2 2 2 2 2 2 2 2
left_child=1 2 -1 10 9 8 16 -6 15 -4 14 12 -7 19 20 -5 24 -10 -15 -8 -2 -13 -18 -12 -3 -25 -16
right_child=3 6 4 5 7 11 13 -9 17 -11 23 21 -14 18 26 -17 22 -19 -20 -21 -22 -23 -24 25 -26 -27 -28
leaf_value=0.043692217485850199 0.018891931202314263 0.044299253224094483 -0.014003780109631154 -0.019358187841165997 0.012157976533245457 0.033495359683530866 0.012719164900682667 -0.0014863523066797567 -0.026667040387654235 -0.03339384146314904 -0.03435125151881923 0.0099193960115692755 -0.028138574619553505 0.036174881982720709 0.03040301700075106 -0.034769244273902426 0.025674254958231224 -0.04217486203066452 0.022483454255274832 -0.013021314755285014 -0.014025240377851559 -0.0082798911767001503 0.035746174654126696 -0.017760771607042706 0.04101703074765297 -0.002410425387034244 0.039834826533508429
leaf_weight=738.09724208712578 79.919565379619598 1277.3737688660622 1216.296672552824 608.43340447545052 1938.0384647846222 42.225850313901901 151.18926131725311 2406.1089636683464 174.17762848734856 622.38516202569008 20.671506226062775 133.79368215799332 815.38264429569244 267.33185756206512 35.511555939912796 278.31565368175507 109.98617574572563 2819.6430258154869 627.53208914399147 54.503888219594955 24.12873187661171 98.285148948431015 577.51894775032997 31.154450267553329 958.73345246911049 22.297041863203049 187.40480333566666
leaf_count=2587 230 4501 3286 1706 5477 135 442 6428 490 1738 56 371 2230 852 121 796 352 8662 1918 150 66 270 1888 84 3320 60 634
internal_value=7.77027e-05 0.0145278 0.00208263 -0.0293634 -0.00289012 -0.0334251 0.0359245 0.00460099 -0.0373962 -0.0205845 0.0209152 -0.0192576 -0.0250626 0.0227464 0.0298704 -0.0242345 0.040874 -0.0412835 0.026615 0.00584435 0.01115 0.00218811 0.0341818 -0.0183923 0.0429132 -0.0116111 0.0384971
internal_weight=16316.4 10945.1 6920.93 5371.34 6182.83 4970.26 4024.17 4344.15 3880.57 1838.68 401.088 1089.69 857.608 1100.56 326.965 886.749 2923.61 2993.82 894.864 205.693 104.048 232.079 687.505 74.123 2236.11 53.4515 222.916
internal_count=48850 32939 19516 15911 16929 14660 13423 11905 11654 5024 1251 3006 2365 3362 1051 2502 10061 9152 2770 592 296 641 2240 200 7821 144 755
is_linear=0
shrinkage=0.05


Tree=33
num_leaves=31
num_cat=0
split_feature=3 4 2 12 12 12 3 3 4 4 4 4 5 4 3 4 4 4 4 8 12 4 4 15 6 4 8 4 5 7
split_gain=4922.76 496.929 156.344 118.667 92.1005 50.9238 46.1726 45.467 39.8683 34.2492 21.5597 20.766 15.9744 15.7043 14.1734 13.4489 9.54017 8.40241 5.97896 4.77976 4.53865 4.51609 4.46579 3.8664 3.21658 2.81326 2.65723 2.28273 1.19964 0.914306
threshold=0.68996437461150217 1.0765261235840404 0.37301211398020745 0.27575413972000967 0.374518398262847 0.58473329748473579 0.48583627225267123 0.43542162949511665 1.2744989906118291 1.6825559209537218 1.877684800473175 1.2744989906118291 3.3500000000000001 0.73223649117037526 0.50597438326271682 1.7182652516262829 2.7167709202657844 0.84838348339376879 1.7622829592919296 2.5000000000000004 0.76196748664799874 0.7257998037325224 0.64831966660174867 4.4500000000000011 11.500000000000002 0.60990728518868331 2.5000000000000004 0.53974005845954975 2.7500000000000004 1.5000000000000002
decision_type=2 2 2 2 2 2 2 2 2 2 2 2 2 2 2 2 2 2 2 2 2 2 2 2 2 2 2 2 2 2
left_child=1 7 4 9 8 11 10 13 22 14 -5 21 29 27 -3 -8 -11 25 -10 -14 28 -4 -2 -19 -13 -9 -15 -1 -7 -6
right_child=2 3 5 6 12 20 15 17 18 16 -12 24 19 26 -16 -17 -18 23 -20 -21 -22 -23 -24 -25 -26 -27 -28 -29 -30 -31
leaf_value=-0.037833125517088458 -0.0069700281100133279 -0.0073185204410464973 0.0067520247157314105 -0.02202806577197769 -0.01402028261701063 0.046718677342526778 -0.006677200306327619 -0.031735958241131151 0.032425181113670258 0.01949575825846122 -0.0068873823241853323 0.045664435366365254 -0.0036543189196448726 -0.033077567999305009 0.015281310009977945 0.010865306974416549 0.038734998851421724 -0.013622697739831872 0.043591747572312621 0.015773601874081163 0.056114149932467584 0.032241591881066289 0.018421666866419953 -0.037392440406779887 0.038939459689008832 -0.02314969244778213 -0.027336181358494024 -0.034505584836327791 0.052377475504247518 -0.029962483343166271
leaf_weight=2671.525075212121 17.646581217646599 167.68612486124039 19.282786816358566 788.87494783103466 16.105549812316895 321.88612747192383 228.96840758621693 167.46202199161053 215.78499120473862 190.51479199528694 338.04035286605358 939.76717787981033 80.338824942708015 400.46256230771542 116.74910718202591 206.97755686938763 102.07735186815262 269.02060623466969 360.48218017816544 50.664773344993591 848.57490381598473 417.35843478143215 282.60552352666855 18.0419692248106 304.17331075668335 302.29057522118092 579.32633022964001 897.57409738004208 446.06701922416687 48.287567660212517
leaf_count=14581 76 728 65 3863 79 871 870 934 594 629 1475 2523 283 2087 366 712 302 1074 973 178 2327 1144 853 72 816 1354 2912 4661 1210 238
internal_value=-0.000627208 -0.02535 0.0414998 -0.0050045 0.0248645 0.0468973 -0.0121592 -0.0335523 0.0317787 0.0143527 -0.0175009 0.0407256 -0.00612994 -0.0354457 0.00196131 0.00164596 0.0263339 -0.0221331 0.0394825 0.003884 0.0532814 0.0311454 0.0168946 -0.0152586 0.0440566 -0.0262821 -0.0297193 -0.0370076 0.0500759 -0.026327
internal_weight=11814.6 7445.59 4369.03 2139.89 1071.92 3297.11 1562.86 5305.7 876.519 577.027 1126.92 1680.58 195.397 4548.89 284.435 435.946 292.592 756.815 576.267 131.004 1616.53 436.641 300.252 287.063 1243.94 469.753 979.789 3569.1 767.953 64.3931
internal_count=48850 36620 12230 8945 3274 8956 6920 27675 2496 2025 5338 4548 778 24241 1094 1582 931 3434 1567 461 4408 1209 929 1146 3339 2288 4999 19242 2081 317
is_linear=0
shrinkage=0.05


Tree=34
num_leaves=10
num_cat=0
split_feature=16 16 2 12 14 12 4 0 12
split_gain=1856.17 1388.57 555.039 193.764 152.473 43.1106 28.6534 20.1296 4.44028
threshold=2.6833333333333336 0.9833333333333335 0.37301211398020745 0.37673585759819378 0.00051463198849983915 0.58473329748473579 1.7182652516262829 1.5000000000000002 0.70294724398378461
decision_type=2 2 2 2 2 2 2 2 2
left_child=1 -1 3 6 -5 7 -3 -4 -7
right_child=-2 2 5 4 -6 8 -8 -9 -10
leaf_value=-0.03810646817958236 -0.037821087472550793 0.014298715634877269 -0.011125714344520643 0.013388380550797656 0.035672776835773252 -0.0245752738039045 -0.0064752192899939099 0.045365263196203376 -0.037268971073277805
leaf_weight=1225.7278600782156 2463.9849285036325 2222.4059620350599 550.36879105865955 1003.0084840357304 3304.1033876538277 125.9463657438755 178.47519405186176 15.232194721698759 197.3513150960207
leaf_count=7469 15750 7259 2478 3774 9599 670 672 46 1133
internal_value=0.000538131 0.0112547 0.0192236 0.0241436 0.0304888 -0.0178842 0.0127503 -0.00951815 -0.0324304
internal_weight=11286.6 8822.62 7596.89 6707.99 4307.11 888.899 2400.88 565.601 323.298
internal_count=48850 33100 25631 21304 13373 4327 7931 2524 1803
is_linear=0
shrinkage=0.05


Tree=35
num_leaves=28
num_cat=0
split_feature=2 16 16 4 0 4 0 14 4 16 13 16 16 0 13 16 3 0 16 14 8 16 9 7 2 13 14
split_gain=2520.3 1073.17 545.465 380.482 304.306 117.021 80.2305 73.3071 67.8765 57.4415 54.829 50.9503 38.9657 29.7054 28.468 16.1774 15.551 15.3634 13.0634 10.3612 9.1127 6.43827 2.87451 2.17084 1.62868 1.43211 0.720947
threshold=0.21754636732111929 2.6833333333333336 0.9833333333333335 0.80155306404209947 2.5000000000000004 1.5130741619209702 1.5000000000000002 0.00051463198849983915 1.2744989906118291 0.9833333333333335 0.66090734378388827 2.6833333333333336 0.9833333333333335 1.5000000000000002 0.28752446384215607 0.9833333333333335 0.23984860986657816 2.5000000000000004 2.7166666666666668 0.17018572370914395 1.5000000000000002 5.6833333333333345 2.5000000000000004 3.5000000000000004 0.052202734487066936 0.26624749019793276 0.070098633109127187
decision_type=2 2 2 2 2 2 2 2 2 2 2 2 2 2 2 2 2 2 2 2 2 2 2 2 2 2 2
left_child=1 2 -1 9 10 16 8 -6 15 13 -4 12 -8 19 17 -5 24 -7 -10 -2 -16 -13 25 -18 -3 -11 -15
right_child=3 5 4 6 7 14 11 -9 18 22 -12 21 -14 26 20 -17 23 -19 -20 -21 -22 -23 -24 -25 -26 -27 -28
leaf_value=0.042558606764960177 0.015756209589780329 0.043408942726224135 -0.014449196511231971 -0.019031305397418947 0.011688027000772091 0.0045417856188114496 0.031153966982406245 -0.0013707248538258187 -0.041743657708660939 -0.036775874537222267 -0.033781902796452677 0.0066227526398331118 -0.028431185268961275 0.026578171221662079 0.038042253255912588 -0.034162477820196928 0.034398478207481292 0.020206448115581043 -0.032878371766740092 -0.014799008023098643 0.02371905548155202 -0.017891924012639306 -0.0093347426903160838 0.025858463588655879 0.039961195546169781 -0.016782054047227029 0.038843368112927247
leaf_weight=734.98993486166 96.375539928674698 1234.4059883654118 1457.6171111762524 570.80182954668999 1930.8364370763302 262.32956635951996 27.708976060152054 2420.3960213065147 2357.3325928747654 28.53218674659729 491.64333358407021 165.33020624518394 684.7729327082634 26.33579283952713 208.5066015124321 262.04380697011948 557.15592849254608 393.30255201458931 541.57480677962303 37.756383240222931 263.59711235761642 30.876889944076538 31.402940571308136 111.83474019169807 914.66865301132202 18.673782050609589 178.48993554711342
