tree
version=v4
num_class=1
num_tree_per_iteration=1
label_index=0
max_feature_idx=101
objective=lambdarank
feature_names=market_prob career_win_pct career_place_pct career_starts track_dist_sr track_dist_starts distance_sr distance_starts track_sr track_starts cond_good_sr cond_good_starts cond_soft_sr cond_soft_starts cond_heavy_sr cond_heavy_starts cond_firm_sr cond_firm_starts cond_synthetic_sr cond_synthetic_starts first_up_sr first_up_starts second_up_sr second_up_starts last5_score last5_wins last5_places form_trend place_vs_market prize_per_start handicap_rating avg_margin class_differential days_since_last settle_pos barrier_relative barrier_raw jockey_career_sr jockey_career_a2e jockey_career_pot jockey_career_runners jockey_l100_sr trainer_career_sr trainer_career_a2e trainer_career_pot trainer_l100_sr combo_career_sr combo_career_runners combo_l100_sr weight weight_diff age is_gelding is_mare price_move_pct group_starts group_sr distance_place_rate track_place_rate field_size distance is_leader is_staying last_start_won is_australia is_hong_kong is_new_zealand head_to_head_wins field_beaten_pct rail_bias_score pf_map_factor pf_speed_rank pf_jockey_factor speed_map_encoded weather_rain_prob weather_wind_speed weather_temp weather_humidity has_gear_change blinkers_on runs_this_prep campaign_win_rate class_win_rate track_specialist has_stewards_issue has_excuse peak_age_sex_score flucs_direction distance_bucket track_cond_bucket class_bucket venue_type_code jockey_sr_x_cond barrier_rel_x_dist form_score_x_cond weight_diff_x_dist settle_pos_x_dist jockey_sr_x_class barrier_rel_x_field trainer_sr_x_venue form_trend_x_class days_since_x_class
feature_infos=[0.00041666666666666669:0.93457943925233644] [0.010500000000000001:1] [0.027799999999999998:1] [0:170] [0:1] [0:64] [0:1] [0:89] [0:1] [0:72] [0:1] [0:119] [0:1] [0:71] [0:1] [0:49] [0:1] [0:28] [0:1] [0:55] [0:1] [0:14] [0:1] [0:14] [0:1] [0:5] [0:5] [-4.5:4.5] [-1.7142999999999999:0.84210526315789469] [41.666666666666664:5938661.111111111] none [0:99.900000000000006] [0.059100684582929754:2666.6666666666665] [1:1854] [0:5.166666666666667] [0:6] [1:24] [0:32.475247524752] [0:2.3527333243594408] [-100:117.51591975979007] [0:10845] [0:43] [0:35.314685314685001] [0:3.6375263702644567] [-99.999999999999986:219.39794283543912] [0:41.379310344826997] [0:72.727272727271995] [0:24656] [0:72.727272727271995] [47.5:76] [-10.714285714285715:10.888888888888886] [2:13] [0:1] [0:1] [-6.1904761904761907:0.86092715231788075] [0:37] [0:1] [0:1] [0:1] [1:24] [800:6200] [0:1] [0:1] none [0:1] [0:1] [0:1] none [-10.169595959595959:1] none none none none [0:4] none none none none none none [1:10] [0:1] [0:1] [0:1] none none [0.59999999999999998:1] [-1:1] [1:5] [0:5] [0:5] [1:3] [0:23.615600086188] [0:3.9000000000000004] [0:1] [-10.649350649350648:11.530612244897956] [0:4] [0:27.031349968010002] [0:1.5220588235294119] [0:35.314685314685001] [-3.75:3.75] [0.00045662100456621003:2.0936073059360734]
tree_sizes=6969 6984 6982 6998 7017 6999 6987 6977 6972 6936 7020 7023 6989 7019 7009 6965 7008 6992 6996 6994 7001 6951 6979 7000 7012 7014 7004 7022 6986 7012 7037 6985 7038 7028 6984 7020 6992 6980 6964 7006 7019 6964 7023 7015 6985 7010 7017 7007 7009 7048 7016 7016 6961 7037 7026 7011 7011 6988 7014 7013 7012 7038 7004 7013 7037 7002 7010 7012 6989 6990 6965 7033 7027 7026 6999 6977 7020 7017 7009 7007 6999 7016 7002 7021 6989 6995 7001 6995 6991 6999 7035 6982 7007 6993 7015 6961 6969 6984 7013 7029 7027 7025 6972 7018 7004 7022 6982 6985 6993 6945 7011 6971 7002 7005 7001 7028 7026 7008 7020 7022 7015 7000 7026 6980 7009 6990 6984 6985 7014 7031 6980 6960 6973 7023 7005 6971 6975 7001 7010 7007 7014 7037 7008 7046 6951 7021 6982 7023 6968 7014 7019 6985 6991 7011 6954 6972 7004 6995 7019 6999 6964 7016 6991 7024 7031 6977 6998 6959 6967 7018 6998 6998 6989 6996 6970 7014 6991 7013 7034 6974 6977 6945 6996 6962 7052 7003 6989 6982 6960 7007 6974 6962 6986 6996 6954 7026 6954 6958 6975 6969 6956 7005 6996 6966 6709 6882 7000 7011 6991 6987 7016 7017 6995 6952 6998 6986 6898 7002 6931 7016 6890 7006 6985 7017 6945 7008 6967 6991 6954 6806 6984 6986 6996 6943 6983 5765 4694 6949 5471 4778 6951 7002 4918 6953 6051 7020 6927 6974 6939 6952 5523 5347 2959 6837 5846 6129 6994 6891 6990 6983 6955 6945 6989 6989 7028 6978 6992 6973 6939 6881 6991 6713 6929 6959 6927 6956 6947 6994 7005 6980 6972 6939 6953 6968 5272 5493 6214 6874 6970 6055 6976 5342 6702 6849 6911 6850 6500 6082 5027 6888 6948 7007 6960 6991 6768 7003 6939 5495 6935 7008 6950 5849 6984 6964 3879 6992 7002 7014 6988 6800 6993 6981 6895 6979 7027 7023 7009 6884 6982 6923 7025 6092 4616 5155 6917 6927

Tree=0
num_leaves=63
num_cat=0
split_feature=0 28 32 32 0 28 0 0 28 32 2 32 90 2 90 2 32 90 28 32 0 90 26 28 28 32 59 3 24 0 21 90 59 24 23 28 32 24 24 28 24 57 0 59 57 31 0 3 2 24 59 21 26 2 28 31 29 32 3 32 28 28
split_gain=6290.24 1499.86 779.441 647.495 491.667 393.889 317.025 242.238 173.97 108.638 106.286 96.7095 95.9169 89.6538 86.8565 85.051 76.787 75.7255 75.6151 72.2158 69.6522 68.4335 67.3002 63.5085 59.3769 59.0334 44.1147 43.9164 38.7613 37.1587 35.0551 34.3157 33.979 33.0479 36.3265 30.8352 28.8301 28.7269 28.6954 27.9822 27.2808 25.6674 25.1897 24.205 24.1246 23.9593 23.8013 23.6383 23.2386 22.4341 20.2035 19.4027 18.6052 18.4525 17.2904 16.0372 14.9813 14.3971 14.105 13.946 13.4006 13.3125
threshold=0.08368347338935575 0.081842857142857148 20.75739793170986 18.541098136254146 0.22991543340380552 0.16665000000000005 0.21390986044383439 0.037105879113314068 0.24999285714285718 9.249759261140218 0.66400000000000015 6.3793235817664282 1.5000000000000002 0.059400000000000001 1.5000000000000002 0.084500000000000006 13.97904106927251 1.5000000000000002 0.29168333333333346 12.094275961258022 0.033167587071791606 1.5000000000000002 1.5000000000000002 -0.01876363636363634 -0.083316666666666636 13.013556477807816 7.5000000000000009 6.5000000000000009 0.25125000000000008 0.034782713898567567 3.5000000000000004 1.5000000000000002 7.5000000000000009 0.48885448916408675 3.5000000000000004 -0.037866666666666653 12.770262969321296 0.21360294117647061 0.11625000000000001 0.47766538461538466 0.21055555555555558 0.50531914893617025 0.019249295983400035 7.5000000000000009 0.50531914893617025 3.390000000000001 0.35098522167487695 3.5000000000000004 1.0000000180025095e-35 0.51808278867102409 7.5000000000000009 6.5000000000000009 1.0000000180025095e-35 0.091750000000000012 0.52071538461538469 2.6900000000000008 1630.4120879120881 4.0953430116403489 18.500000000000004 12.64613265636387 -0.12729285714285712 -0.15894999999999998
decision_type=2 10 8 10 2 10 2 2 10 10 10 8 2 10 2 10 8 2 10 8 2 2 10 10 10 10 2 2 8 2 2 2 2 10 2 10 10 8 8 10 10 10 2 2 10 8 2 2 10 10 2 2 8 10 10 8 10 10 2 10 10 10
left_child=2 3 5 6 8 7 14 17 22 18 20 39 25 -5 16 -4 28 38 31 21 40 56 33 60 61 30 -13 -24 -2 -17 -9 -6 -29 34 -3 -23 -28 -27 -1 49 51 45 -19 -26 -25 -22 -33 -35 -18 -10 59 -7 -15 -21 -31 -12 -8 -20 -54 -11 -14 -16
right_child=1 4 15 13 9 10 19 12 11 50 55 26 23 52 24 29 48 42 57 53 41 35 27 44 43 37 36 32 -30 54 -32 46 -34 47 -36 -37 -38 -39 -40 -41 -42 -43 -44 -45 -46 -47 -48 -49 -50 -51 -52 -53 58 -55 -56 -57 -58 -59 -60 -61 -62 -63
leaf_value=0.0013081302677147195 0.04737026044452284 0.045103000471204274 -0.098634171578372315 -0.099220959183433516 0.078036352825516464 0.016945773504393028 0.032325937499991318 0.029762914851145059 0.06388337313727821 0.012816820941203889 0.016544277200925033 -0.029019130111087112 -0.077068744476875173 -0.027354233904163403 -0.062436484225574684 -0.081640218633854053 -0.089951762379233483 -0.086635149869913941 0.086803459894441395 -0.076783475974340043 -0.0095135657735910678 0.0079801368508202308 -0.044226787632016137 -0.028439286696598506 -0.026044417151518125 -0.0086757491283337446 0.040498338056402766 -0.0099301250376708436 0.00036722978788992025 -0.056914094123636051 -0.036441538952976568 0.047079587260797306 0.018144279012761836 -0.087734617010041621 0.019900924134958878 0.035066159620392355 0 -0.053667068904017429 -0.049946946796152671 0.082565161081412639 -0.049118422682396072 -0.018020527411191686 -0.066094236228264477 -0.004306613655309567 -0.051151529179112178 0.018603689794527221 0.065774863835202577 0.024132820515818484 -0.01103267882268842 0.037365103341161048 0.036243177749755745 -0.082204075837234505 -0.072965025097156966 -7.3896290659706114e-05 0.034927018347202902 0.054863936469639732 0.06801873863342224 0.072498359195104098 -0.028723618263437098 -0.058310501545736818 -0.052446740456054186 -0.031281869437241254
leaf_weight=43.233049715403467 146.46484208200127 346.0674019169528 553.64818298467435 133.78112798091024 207.28564208978787 29.114274695515633 39.521110273897648 104.6804800464306 260.99595011491328 23.606693143490702 48.111575277056545 29.516301806550473 79.967590280808508 86.270882341079414 50.080681292340159 330.69513837085105 9.4495936464518291 290.71123701101169 468.6159685337916 7.5117008099332443 135.65310495859012 143.72309003816918 34.305302944034338 662.93153087585233 158.04793880926445 79.020777557278052 272.52411201724317 131.59505614219233 62.759944485500455 233.44799200328998 23.704096002038568 454.6459929891862 576.20066376496106 8.720426959916951 249.266889894614 402.518266168423 52.138141574105248 64.571539205498993 72.043460758170113 136.26977387955412 140.83321178983897 172.12355392053723 375.73045154404826 665.1497806943953 144.88336682412773 168.88924320950173 297.38807908864692 8.4234063029289228 94.201122264144942 124.60503046913072 146.88782521290705 4.9002274363301686 65.366126276552677 100.99199824640527 4.5450527912471435 67.527076998725533 172.26926303375512 383.5253186088521 27.941789139062166 8.5647003017365915 260.78075117478147 125.46136284456588
leaf_count=565 1244 3510 11174 2569 1336 335 351 1097 2151 231 601 365 1389 1176 751 6132 165 4764 2806 129 1904 1556 576 9188 1839 999 3036 1409 685 4100 298 3967 6723 163 2431 3685 816 926 1060 941 2243 2458 6000 8551 2155 2014 2109 82 1096 1235 1553 66 1130 1164 48 650 1234 2821 372 113 4206 1811
internal_value=-0.000168444 0.0296156 -0.0490268 -0.00114655 0.04777 -0.0355869 0.00852913 -0.0463311 0.031623 0.0658373 -0.00471707 0.0489848 -0.0339819 -0.0682309 -0.00697297 -0.0845176 0.0159731 -0.0686934 0.0695152 0.0319804 -0.0125754 0.0374361 0.020363 -0.040301 -0.0141751 -0.00722834 0.0286701 0.0102069 0.0333636 -0.0706165 0.0173135 0.0597113 0.0129109 0.0326237 0.0346103 0.0279762 0.0340032 -0.0291736 -0.0308354 0.0626811 -0.0394736 -0.0026363 -0.0751783 -0.00851272 -0.0325772 0.00607284 0.0545567 -0.0341937 -0.0190661 0.0554459 0.0284217 0.000579387 -0.0446949 -0.00608285 -0.0550004 0.0392424 0.061565 0.0804635 -0.0602147 -0.00715505 -0.0584483 -0.0405017
internal_weight=10804.4 6712.66 4091.75 2491.51 4221.15 2969.41 2178.15 2202.26 2230.63 1990.52 767.152 876.049 1420.54 313.36 1311.62 1122.34 312.876 781.718 1811.46 866.535 651.514 758.032 1354.58 1148.56 998.74 271.977 354.179 742.101 209.225 568.688 128.385 959.32 707.796 612.478 595.334 546.241 324.662 143.592 115.277 521.871 174.848 476.666 666.442 823.198 807.815 304.542 752.034 17.1438 103.651 385.601 179.059 34.0145 179.579 108.504 237.993 115.639 211.79 852.141 93.3079 32.1714 340.748 175.542
internal_count=132254 67882 64372 29508 38374 42918 24261 32647 23438 14936 10271 8544 20258 5247 16142 21454 3190 12389 13039 8119 9020 6826 14894 16938 12952 3320 4217 8708 1929 10280 1395 7412 8132 6186 5941 5241 3852 1925 1625 4327 2644 6376 10764 10390 11343 3918 6076 245 1261 3386 1897 401 2678 1293 4148 1251 1585 5627 1502 344 5595 2562
is_linear=0
shrinkage=0.05


Tree=1
num_leaves=63
num_cat=0
split_feature=0 1 32 1 0 97 0 1 28 1 28 25 0 3 28 0 37 32 25 25 97 28 28 3 32 1 28 97 32 101 20 81 3 59 28 81 59 32 1 24 24 28 0 59 28 3 20 26 31 3 20 24 20 26 1 59 32 32 3 28 0 0
split_gain=12847.5 3951.91 3052.71 1262.73 1000.88 965.337 833.389 606.74 564.515 482.122 477.646 338.257 326.462 310.074 297.041 282.537 259.909 223.823 208.677 178.809 170.111 169.193 169.14 169.936 158.108 140.693 136.604 135.163 126.985 113.645 105.408 128.879 105.346 103.936 101.931 99.141 98.3037 97.9904 95.9188 94.5818 94.2142 92.7425 90.4564 88.9771 87.0798 82.9366 79.1214 79.0042 78.6134 76.476 72.0325 70.7719 70.4161 69.1662 67.2482 67.112 66.1771 65.0982 58.9776 55.9043 52.8087 52.3083
threshold=0.13423423423423425 0.15570000000000003 12.885389910913487 0.036050000000000006 0.062696540880503152 2.7071989483727505 0.33908045977011497 0.21245000000000006 0.79285714285714304 0.32070000000000004 -0.01876363636363634 1.0000000180025095e-35 0.35098522167487695 6.5000000000000009 0.22621666666666665 0.04773296878560037 8.0976736272810026 5.1387624464832813 1.0000000180025095e-35 1.0000000180025095e-35 2.1020115566593338 0.12727922077922083 0.13542619047619053 12.500000000000002 10.205941909254124 0.35070000000000007 -0.020816666666666647 1.4729249939437501 9.0580642514563632 0.015296803652968038 0.91666666666666685 0.5277777777777779 5.5000000000000009 7.5000000000000009 0.2167071428571429 0.21111111111111114 7.5000000000000009 20.75739793170986 0.097800000000000012 0.23514705882352946 0.60745370370370388 0.12501666666666669 0.041067934965931328 7.5000000000000009 0.46668333333333345 4.5000000000000009 0.91666666666666685 1.0000000180025095e-35 3.6100000000000008 20.500000000000004 0.30384615384615393 0.30544117647058827 0.91666666666666685 1.0000000180025095e-35 0.54860000000000009 6.5000000000000009 11.481409344203417 9.0580642514563632 16.500000000000004 -0.01876363636363634 0.5064102564102565 0.02442006082652514
decision_type=2 10 8 10 2 8 2 10 8 10 10 8 2 2 10 2 10 10 10 10 8 10 10 2 10 10 8 10 10 8 10 8 2 2 10 10 2 10 10 8 10 10 2 2 10 2 10 8 8 2 10 10 10 8 10 2 10 10 2 10 2 2
left_child=2 3 4 10 14 16 9 21 15 11 26 35 22 41 20 61 27 40 30 -8 49 29 23 -7 44 32 53 -5 -15 38 31 -9 -21 -23 45 58 -24 47 -6 -26 52 -13 -22 60 51 -20 -16 -17 -35 50 -1 -12 -11 -2 -42 -34 -19 -36 -3 -31 -14 -4
right_child=1 6 8 5 7 12 19 18 -10 17 24 13 43 28 46 37 -18 56 34 25 42 33 36 -25 39 -27 -28 -29 -30 59 -32 -33 55 48 57 -37 -38 -39 -40 -41 54 -43 -44 -45 -46 -47 -48 -49 -50 -51 -52 -53 -54 -55 -56 -57 -58 -59 -60 -61 -62 -63
leaf_value=-0.01380936615734326 -0.029712090181966713 0.059501025875182724 -0.077201640042160694 0.052534361386544506 -0.025420315548807793 -0.04295652014808235 0.075207746599818978 0.044443140499806508 -0.093042595217781979 0.063906114930136496 0.0076119510877132261 -0.066227478141112017 0.002677099445136384 0.025666663632608673 -0.014629104212380815 -0.018133472141616272 0.060700254637627071 0.029598261354938107 -0.080948913744653392 -0.00053491203156248626 -0.062901920201821962 -0.034810059265846176 -0.014436630041190968 -0.0055610076550796188 -0.0072596368480683003 0.06948270865679014 -0.093173682334563218 0.0090936394318733085 -0.0090508962294438659 -0.043489068650352153 0.0951039595359809 -0.028279977494429006 0.025063446369761096 -0.010200957443463277 0.024064364332770607 0.026804340264104033 0.014864322180290558 -0.060622698577357338 0.0042959098851417373 -0.043660621559891907 0.031573306632982065 -0.010346015191651358 -0.043195245268872605 0.03946992391367557 0.025964261787353549 -0.0063022496819726053 0.060000442419149862 -0.043417073559036318 0.010145900888712546 -0.060791107813883041 0.06835111295596695 -0.023523546342066146 0.092456984785926108 -0.062219462453357424 0.073891798014445884 0.054123564643813953 -0.037031013188200713 -0.024071509913256267 0.039095492427161031 -0.025004087202515537 0.043657175479327112 -0.06030000995476098
leaf_weight=284.7943160161376 321.48109341785312 758.20817168056965 1047.7242922428995 262.84737588837743 527.20104555040598 339.97356615588069 1793.6592023000121 430.83447747677565 1338.8167660515755 938.80123933777213 363.87463594414294 109.23369169980288 386.52868101559579 2521.322147641331 614.77832884527743 426.13178918510675 1036.9463731646538 403.13540514744818 40.526925027370453 122.80267035961151 1168.7604326494038 258.24686847440898 351.53727865591645 2796.9800684154034 291.85247770696878 873.15305490791798 207.70940251834691 560.15294162929058 293.37168805673718 571.27803699858487 82.637650564312935 70.141092628240585 255.12656942009926 1057.5550323780626 560.74588678777218 698.73691419884562 1521.1900240965188 587.54714407399297 557.88891892507672 461.6499668546021 326.62050659954548 229.76024905219674 1193.0648865699768 641.13426759094 254.3423794656992 362.63667241483927 36.689418401569128 1151.4827729519457 859.6572200153023 79.658381043002009 28.419631954282522 364.10241220146418 291.30967408418655 341.60149359889328 133.19382892549038 954.25217119976878 40.138257186859846 79.35693534463644 688.21090919151902 1477.3436253555119 97.837168091908097 874.42276792693883
leaf_count=1158 1070 1117 9802 420 2104 1147 2179 961 11876 1321 769 396 628 5133 3090 1907 1528 762 240 228 9828 849 777 7536 856 1088 1482 1353 821 2873 107 196 372 3634 1396 1350 3336 3748 1964 1576 563 560 7381 1041 458 1356 96 5926 2643 608 87 793 319 1242 160 1345 150 261 1303 6278 140 6566
internal_value=-1.55191e-05 0.0246435 -0.0344708 0.00265394 -0.0185318 0.0125073 0.0450354 -0.00762848 -0.0648407 0.0351223 -0.0275601 0.0270314 0.00293793 0.0166014 -0.0407242 -0.0555813 0.0440515 0.0551956 0.0190769 0.063444 -0.0479034 -0.0158148 -0.00252955 -0.00962781 -0.0123829 0.0538442 -0.0577595 0.0230206 0.0220444 -0.0232505 0.0429934 0.0342152 0.0435461 -0.00509568 0.0056647 0.0423477 0.00935668 -0.043151 -0.0101475 -0.0295964 0.0634919 -0.0285092 -0.0529718 0.0272591 0.000832568 -0.014 -0.0103329 -0.0366067 -0.00107451 -0.0173637 -0.00614477 -0.00796472 0.0707411 -0.046535 0.0439762 0.048023 0.023484 0.0180607 0.0498292 -0.0301799 0.0110379 -0.0695507
internal_weight=37801.1 22032.8 15768.3 10601.7 10342.2 7995.13 11431 6936.05 5426.13 7432.04 2606.61 5298.84 6135.18 3153.69 3406.17 4087.31 1859.95 2133.2 1626.88 3998.99 2754.7 5309.17 5009.68 3136.95 1735.82 2205.33 870.792 823 2814.69 3133.71 583.613 500.976 1332.18 2175.46 1043.27 2145.16 1872.73 2165.16 1085.09 753.502 1689.93 338.994 2361.83 1125.5 982.319 403.164 651.468 1577.61 1917.21 392.872 313.214 727.977 1230.11 663.083 459.814 1209.38 443.274 640.103 1446.42 2048.62 484.366 1922.15
internal_count=132254 45319 86935 26152 47110 17906 19167 24862 39825 13955 8246 10680 14605 6910 22248 27949 3301 3275 4517 5212 19062 20345 12796 8683 4452 3033 3794 1773 5954 13219 1264 1157 1945 7126 3253 3770 4113 11581 4068 2432 2363 956 17209 1809 2020 1596 3186 7833 6277 1853 1245 1562 1640 2312 723 1717 912 1657 2420 9151 768 16368
is_linear=0
shrinkage=0.05


Tree=2
num_leaves=63
num_cat=0
split_feature=0 1 32 0 32 90 28 1 0 20 25 0 0 28 1 90 28 97 101 1 32 32 28 28 25 1 32 0 32 23 101 1 1 97 0 28 59 32 28 20 33 59 24 59 26 28 32 32 1 25 26 0 1 32 97 6 0 0 28 26 28 24
split_gain=9332.12 3174.12 1672.9 1046.41 977.216 656.627 517.71 444.721 348.179 344.405 337.611 332.386 291.624 247.834 230.148 377.732 214.045 193.261 163.142 227.612 148.14 136.779 130.88 130.354 120.528 113.021 112.631 105.438 99.0547 98.1309 89.7675 80.9022 77.5956 73.4539 72.6392 71.874 70.9862 64.9217 64.0809 63.339 179.123 61.321 57.982 55.6345 55.3824 53.1316 50.6066 49.8724 48.7784 64.2132 47.7072 46.6511 46.5074 45.7526 44.6758 44.5401 44.0281 42.6275 41.9463 38.0617 52.7575 36.4997
threshold=0.10152545866831582 0.13525000000000001 15.698477108326633 0.24099883855981422 15.132526369966881 1.5000000000000002 0.16667619047619053 0.35805000000000003 0.23532668881506094 0.30384615384615393 1.0000000180025095e-35 0.43961352657004837 0.04773296878560037 0.79285714285714304 0.064700000000000021 1.5000000000000002 0.62566538461538468 2.7071989483727505 0.031278538812785396 0.038750000000000007 6.0487512098519547 6.5240820995325928 0.025015384615384609 0.0073582417582417356 1.5000000000000002 0.33810000000000001 10.061587308727566 0.036166483545231005 9.1236249395377609 2.5000000000000004 0.011187214611872148 0.12780000000000002 0.041900000000000007 3.0111133465838336 0.062286381570524636 0.41700714285714291 7.5000000000000009 11.387948034313224 0.21280714285714294 0.43650793650793657 103.50000000000001 8.5000000000000018 0.33291666666666669 8.5000000000000018 1.0000000180025095e-35 0.52071538461538469 23.259373153664914 5.6290358466583168 0.27385000000000009 1.0000000180025095e-35 1.0000000180025095e-35 0.025094142391153769 0.12780000000000002 7.0374245719256452 2.8125343331135002 0.1676706827309237 0.04282674883533253 0.028612361850184204 0.60100000000000009 1.0000000180025095e-35 -1.0000000180025095e-35 0.97750000000000015
decision_type=2 10 8 2 10 2 10 10 2 10 10 2 2 8 10 2 8 8 8 10 10 10 10 10 10 10 8 2 10 2 8 8 10 8 2 10 2 10 10 8 8 2 10 2 8 10 10 10 10 10 8 2 8 10 8 8 2 2 10 8 10 10
left_child=2 4 5 7 8 9 12 10 22 18 26 17 57 27 41 -16 46 39 19 -1 25 35 30 55 47 -19 29 -4 -25 -3 32 -14 -2 -11 -23 56 -17 -22 -20 40 -5 -10 -33 -24 -32 53 50 61 49 -13 -6 -21 -52 -26 -45 -12 -8 -7 59 -29 -61 -9
right_child=1 3 13 11 16 6 21 24 14 33 23 48 31 -15 15 36 -18 20 38 51 37 34 43 28 45 -27 -28 58 -30 -31 44 42 -34 -35 -36 -37 -38 -39 -40 -41 -42 -43 -44 54 -46 -47 -48 -49 -50 -51 52 -53 -54 -55 -56 -57 -58 -59 -60 60 -62 -63
leaf_value=-0.02143703121617449 -0.033928788268207222 0.042470224487066582 -0.071397943189297985 0.06343236037517673 -0.013048840893906699 -0.072350139325773652 -0.035255766410211824 0.072487375999679179 -0.016290719512747538 0.092678081674783822 -0.0059982896500685307 0.067353268327067728 -0.041043030898994165 -0.087989307742479039 0.055334796098090513 -0.0032062038999321101 -0.087817774205630902 0.036048266392244344 -0.043171973393524382 -0.013356544013985231 0.023988719943583144 -0.037728067020803377 -0.014336386659966886 0.0091255733002613398 0.02292379560588494 0.058381632552364171 -0.0045519629511356777 -0.037655766360892594 -0.019196627454996534 0.021070406516835297 -0.010586084701324622 -0.010446608622808584 0.0097716050049372755 0 -0.010645412784615081 0.039541023973910461 0.017000740059362789 -0.016521459421635888 -0.003456469271102304 0.082823171545621604 -0.0078127221416380583 0.0056617887585042491 -0.033632723561704075 0.011918340641042831 -0.036178825556478743 0.055445830171633105 -0.057915706710216779 0.021264659781927306 0.073510083599223272 0.03952144058255392 -0.01776366426328314 0.039650740199577039 -0.050518074818207075 -0.036164987823410683 -0.0030308603567349218 -0.046087321507937803 0.0034976440447502576 -0.054248899446537852 0.055006734977337352 -0.070990609917314498 -0.045114319079807702 0.017478832480222261
leaf_weight=316.90846408903599 140.49141417443752 991.30559673160315 971.92683171853423 594.47849804162979 277.11088252440095 558.12131645344198 83.394291546195745 498.13749894499779 608.87237679585814 124.68764676898718 117.80037381127477 548.20526419579983 1348.9272247236222 1113.0183615712449 614.31524950638413 640.27325388044119 247.96448726952076 2500.3750326856971 261.66138734295964 45.759380418807268 1016.2760143242776 450.01566074602306 671.97782146930695 2450.451703902334 192.45326301082969 738.40857028961182 249.71351066976786 422.2181335631758 352.15595973469317 1176.3066499792039 304.21449539065361 515.14942132495344 358.98536501824856 25.717273145914078 552.96203436329961 126.25385906174779 1347.83427644521 108.7026797439903 166.37347180396318 244.27938808500767 103.18218770623207 663.73323293402791 569.61884215287864 757.84610681980848 704.64047778118402 107.86195509508252 202.7240663189441 62.275439437478781 894.86041009426117 344.59158657491207 168.31742068380117 393.06976177170873 314.33131758496165 38.454632930457592 1462.2834111824632 169.51665544509888 555.54564345255494 857.70376538578421 8.7470626533031446 356.23090638779104 466.85681680217385 33.145078778266907
leaf_count=1512 577 1867 9997 866 1085 6261 660 720 1626 174 417 832 8633 11030 958 1325 2096 4240 1498 228 1879 3492 2321 6817 409 1067 755 2646 1490 2957 1223 2704 1102 123 2472 338 2844 305 665 341 184 1880 3468 2357 3156 169 1117 159 1336 574 688 1104 1612 156 4989 754 2274 7433 26 2639 3547 80
internal_value=-8.31946e-06 0.0176868 -0.0395876 0.0332307 -0.00448927 -0.025609 -0.0330967 0.0186328 0.00164981 0.00591625 0.0132199 0.0464779 -0.0433824 -0.0686735 0.0125778 0.0210966 -0.0464312 0.0401779 -0.00315886 0.0108037 0.0357256 -0.0106887 -0.00797288 0.00226639 0.0505527 0.041158 0.0272124 -0.0589779 0.00555944 0.0308745 -0.0199083 -0.0328577 -0.00255356 0.0769247 -0.0228273 0.00522448 0.0104922 0.0200587 -0.0277906 0.0607393 0.0528921 -0.00484191 -0.0226462 -0.00174169 -0.0284846 0.0266173 -0.0356835 0.0641376 0.0651404 0.0566729 -0.0296765 0.0340942 -0.0391661 0.0129483 0.0020729 -0.0297459 -0.00159982 -0.061434 -0.0492987 -0.0500789 -0.0563922 0.0691042
internal_weight=33309.7 23018.9 10290.9 13532.9 9485.92 6951.87 5617.69 6439.58 8275.47 1334.18 5507.25 7093.36 3849.52 3339 3875.03 2602.42 1210.45 5305.7 1183.77 755.738 4363.76 1768.17 4400.44 3089.92 932.328 3238.78 2417.33 2225.98 2802.61 2167.61 1508.33 2433.7 499.477 150.405 1002.98 765.194 1988.11 1124.98 428.035 941.94 697.661 1272.61 1084.77 2892.11 1008.85 338.77 962.484 593.558 1787.66 892.797 759.76 438.829 482.649 230.908 2220.13 287.317 638.94 1415.83 1254.05 1245.31 823.088 531.283
internal_count=132254 59330 72924 28374 30956 43039 37735 16750 24358 5304 15057 11624 28499 29885 8633 5127 6598 8882 5007 2844 7491 9236 15725 9478 1693 5307 5579 18855 8307 4824 6058 14805 1679 297 5964 3272 4169 2184 2163 1391 1050 3506 6172 9667 4379 734 4502 959 2742 1406 3385 1332 2300 565 7346 1171 2934 13694 8858 8832 6186 800
is_linear=0
shrinkage=0.05


Tree=3
num_leaves=63
num_cat=0
split_feature=32 0 32 1 90 0 28 20 25 0 0 1 90 3 28 101 22 32 80 1 90 29 1 3 3 0 90 1 90 1 20 33 1 28 28 0 26 28 3 0 29 1 28 28 28 0 28 22 3 28 20 0 20 28 97 59 1 28 26 101 3 3
split_gain=7232.46 2497.16 1413.56 1086.29 804.343 689.96 616.153 270.505 250.727 246.594 246.28 243.729 285.079 279.136 211.621 204.682 221.597 186.387 173.603 161.398 210.315 164.876 158.509 150.095 126.116 123.896 115.868 156.378 113.979 98.2492 94.2713 271.125 92.8504 91.5826 85.5202 82.5829 80.1502 77.602 75.5683 75.2885 73.7384 72.3517 71.2639 71.2244 70.0158 69.2882 67.2479 63.6051 63.3929 63.3078 60.9944 60.6289 59.6893 96.6528 59.7145 59.5825 58.9734 50.7601 50.2744 49.7837 45.3748 45.106
threshold=9.9928030739642661 0.16807909604519775 19.108034880451179 0.19475000000000006 1.5000000000000002 0.078432578740157494 0.10253205128205128 0.47222222222222227 1.0000000180025095e-35 0.066445916114790296 0.077221228384019097 0.095450000000000021 1.5000000000000002 10.500000000000002 0.72793636363636371 0.038584474885844759 0.31666666666666671 4.0953430116403489 1.5000000000000002 0.028200000000000003 1.5000000000000002 23042.597402597406 0.18785000000000004 5.5000000000000009 12.500000000000002 0.32795698924731187 1.5000000000000002 0.026500000000000003 1.5000000000000002 0.33810000000000001 0.47222222222222227 166.50000000000003 0.14375000000000002 0.46668333333333345 0.79285714285714304 0.21390986044383439 1.0000000180025095e-35 0.17145000000000002 5.5000000000000009 0.037105879113314068 2749.7386363636365 0.57515000000000016 -0.14581666666666662 0.36680000000000007 -0.072713636363636328 0.025094142391153769 -0.035707142857142847 0.69047619047619058 10.500000000000002 0.11895714285714287 0.23611111111111113 0.032310262031527308 0.16025641025641027 0.19136538461538463 0.90090090090075015 9.5000000000000018 0.095450000000000021 0.062550000000000008 1.0000000180025095e-35 0.12077625570776257 6.5000000000000009 21.500000000000004
decision_type=8 2 10 10 2 2 10 10 10 2 2 10 2 2 8 8 10 10 10 10 2 8 10 2 2 2 2 10 2 10 10 8 10 10 8 2 8 10 2 2 10 10 10 10 10 2 10 8 2 10 10 2 10 10 10 2 8 10 10 8 2 2
left_child=1 4 5 11 7 28 9 15 30 -6 33 26 59 49 39 16 18 29 -1 36 40 24 61 43 -22 -15 27 37 34 38 31 47 -11 51 56 -23 42 -3 -10 -4 -21 -24 -7 -19 -38 -30 -28 -5 -32 -14 -33 -8 53 -17 -54 -25 -2 -47 -58 -13 -34 -12
right_child=2 3 14 8 6 19 10 -9 17 32 22 12 13 25 -16 52 -18 23 -20 20 21 35 41 55 -26 -27 46 -29 45 -31 48 50 60 -35 -36 -37 44 -39 -40 -41 -42 -43 -44 -45 -46 57 -48 -49 -50 -51 -52 -53 54 -55 -56 -57 58 -59 -60 -61 -62 -63
leaf_value=-0.01956671348781169 0.010807385305983059 -0.026490396152948528 -0.069346851866718046 0.053684169781439584 -0.052017535924401864 -0.041904206282701244 -0.047267585751993621 0.080181797202326058 -0.0094462788986913911 -0.028051583179014267 -0.011946507406923169 0.054411677906661841 -0.046203199224319536 0.015621145978331278 -0.08384993155874465 -0.049400181910626347 0.09147954489756438 -0.040921090056491277 0.037142183258374845 0.041729923529584156 -0.048949223428566668 -0.0028814304798225219 0.017006016723913095 0.022122818206770339 -0.01213691867349884 0.035871577091968941 -0.032115212344515781 0.044582307333216248 -0.070885843582419575 0.060676779656046224 0.085057976376418931 -0.033267433475983224 -0.041266132666577471 0.038154091352785455 -0.083441855517577462 0.037515542458761514 -0.06930481226586982 0.013705448359515966 0.041583245847934033 -0.047907604303551017 -0.0015467132486948322 0.070103743050172751 0.0049085181651725594 0.018026102680601324 -0.028911360040415963 -0.056812066022413565 -0.0022879326356273536 0.080851056738349761 0.039897818812970276 -0.0067285448901481335 0.056138435783780506 -0.016949925906660841 -0.0014476454400521948 0.0041164356246627901 0.089199530677236766 0.040919514029727114 -0.012746872090243553 -0.035183576916362272 -0.04539022957181521 0.012366107633957809 -0.0031056114720690109 0.0048696900889365485
leaf_weight=180.93576230108738 106.9161122944206 183.31448955833912 664.13192088063806 1330.6013451516628 832.99914050940424 111.33413702063262 202.88173172622919 216.07566718757153 79.005292072892189 1397.8113725390285 763.06767595931888 692.11323031783104 148.187295217067 2530.3734068647027 1110.0892521850765 139.12247247621417 139.16609175503254 111.45127744972706 522.96843295171857 292.10642725601792 280.03347629494965 304.92570258490741 1459.267657963559 886.20740161463618 1363.8588584903628 1078.9459325466305 231.28259756602347 306.14750499278307 433.92452813126147 884.37841339409351 435.86976006627083 105.46503850072622 85.900377292186022 64.715139400213957 63.546595174819231 214.81588010489941 127.32830369099975 343.49710786342621 824.41114467382431 1120.4812704483047 147.76288200169802 66.32460243999958 293.16537198796868 93.201996386051178 691.13666983321309 615.18698435928673 1016.9519409053028 263.73656836152077 98.398014828562737 320.78885431215167 22.264133833348751 883.99167798273265 50.570782592520118 211.30580490082502 27.236194342374802 815.60592821612954 223.17731878906488 502.30266419053078 253.02168304845691 79.47555772960186 758.67824238166213 832.72904480434954
leaf_count=668 501 598 7485 2263 8017 550 2225 351 209 7764 2867 1201 569 6026 11835 754 203 341 1369 667 1440 1267 4220 1791 5757 1911 775 561 5660 1474 689 251 550 199 701 454 751 1047 1502 7943 468 100 1115 205 3219 5661 2723 418 177 836 38 5706 252 781 39 1544 1175 4216 1754 176 3212 3033
internal_value=-4.12825e-05 0.0155273 -0.0379471 0.0295683 -0.00494376 -0.0241414 -0.0117319 0.0285748 0.0452379 -0.0287941 0.000550978 0.0161101 0.0222512 0.0169684 -0.0666598 0.0197434 0.0340301 0.0371932 0.0225512 -0.0113099 -0.00426584 -0.0106769 0.00784339 0.0262883 -0.0184368 0.0216843 0.00179304 0.0162265 -0.0464614 0.0487979 0.0583849 0.0526151 -0.0201455 -0.0192005 -0.0287376 0.0138455 -0.0262857 -0.000295705 0.0371096 -0.0559232 0.0272104 0.0193621 -0.00803541 -0.0140943 -0.0352784 -0.0538225 -0.00783985 0.0582291 0.0768401 -0.0192842 -0.0173295 -0.022652 -0.00838499 -0.0171959 0.030949 0.0311529 -0.0226349 -0.0471349 -0.0301607 0.050109 -0.00703697 -0.00317068
internal_weight=30636.7 21717.4 8919.25 12881.7 8835.75 6024.54 7348.37 1487.38 5950.6 3075.39 4272.98 6931.08 4849.88 4078.3 2894.7 1271.31 843.07 3694.26 703.904 3826.47 2603.5 2163.63 3121.39 1906.47 1643.89 3609.32 2081.19 832.959 2198.08 1787.79 2256.33 1722.07 2242.39 1151.59 646.662 519.742 1222.96 526.812 903.416 1784.61 439.869 1525.59 404.5 204.653 818.465 1551.41 1248.23 1594.34 534.268 468.976 127.729 1086.87 428.235 350.428 77.807 1701.81 583.115 1117.49 476.199 771.589 844.579 1595.8
internal_count=132254 69635 62619 27325 42310 35356 37893 4417 10902 19543 18350 16423 10719 9342 27263 4066 2240 7066 2037 15688 10053 8918 10220 3881 7197 7937 5704 2206 19668 3185 3836 2970 11526 8130 4131 1721 5635 1645 1711 15428 1135 4320 1665 546 3970 15537 3498 2681 866 1405 289 7931 1826 1535 291 3335 3430 9877 2929 1377 3762 5900
is_linear=0
shrinkage=0.05


Tree=4
num_leaves=63
num_cat=0
split_feature=0 1 32 32 32 1 2 0 0 2 81 0 2 82 1 25 101 28 25 28 32 28 24 11 81 101 24 25 1 1 24 1 6 2 25 28 0 0 0 20 21 24 59 81 1 32 28 25 28 28 51 20 101 24 24 24 0 0 33 32 28 28
split_gain=5915.91 2312.67 890.441 857.164 696.165 413.766 356.924 323.43 227.363 217.264 186.403 175.789 171.043 124.295 166.03 123.167 115.629 113.181 112.342 109.223 108.265 105.296 93.3356 113.401 92.4898 90.6553 84.5921 79.8861 78.969 76.9419 74.4391 74.3394 67.8091 61.9804 61.6791 61.2874 58.7135 58.0226 56.3603 51.3631 50.3302 65.9496 50.013 49.564 48.0184 47.9936 45.8785 44.5282 43.4819 41.409 40.5438 40.5431 40.1261 40.0018 38.3382 37.1798 36.8307 36.4175 35.7565 33.6085 31.0344 30.2726
threshold=0.08368347338935575 0.14375000000000002 15.319265344846153 13.97904106927251 5.6290358466583168 0.29865000000000003 0.49740000000000001 0.23532668881506094 0.21980676328502419 1.0000000180025095e-35 0.21111111111111114 0.039447885219881122 0.15045000000000003 0.11805555555555557 0.029650000000000006 1.0000000180025095e-35 0.012100456621004568 0.071392857142857188 1.5000000000000002 0.14939047619047621 8.5887550727722424 0.52071538461538469 0.20125000000000004 8.5000000000000018 0.35416666666666669 0.015753424657534251 0.49875000000000008 1.0000000180025095e-35 0.54860000000000009 0.10050000000000002 0.42301470588235296 0.074300000000000019 0.17902930402930406 0.29835000000000006 1.0000000180025095e-35 0.021533333333333297 0.18693221523410206 0.032206202676070952 0.43961352657004837 0.41428571428571431 2.5000000000000004 0.24330882352941183 6.5000000000000009 0.11805555555555557 0.13770000000000002 21.994806792204333 0.030269696969696978 1.0000000180025095e-35 0.090869696969697003 0.5362571428571431 5.5000000000000009 0.43650793650793657 0.014383561643835618 0.58639705882352955 0.23786764705882357 0.45669117647058832 0.1941930618401207 0.37749287749287752 91.500000000000014 5.8166449528608295 0.60100000000000009 0.41436538461538469
decision_type=2 10 8 10 10 10 10 2 2 10 8 2 10 8 10 10 8 10 10 10 10 10 8 2 10 8 10 8 10 10 10 10 10 10 10 10 2 2 2 10 2 8 2 10 10 10 10 10 10 10 2 8 8 8 8 10 2 2 8 10 10 10
left_child=2 3 6 7 5 8 11 19 27 -5 20 40 -4 14 -9 57 -16 47 24 25 26 30 23 44 51 31 32 50 -26 33 39 -2 -6 -15 -31 -24 61 -14 49 52 41 -1 -17 55 -13 54 -27 -12 -29 -20 -3 -7 -8 -38 -11 -21 -28 -10 -41 -23 -39 -19
right_child=1 4 12 9 10 18 21 13 15 45 17 22 37 29 16 42 -18 36 38 43 -22 59 35 -25 28 46 56 48 -30 34 -32 -33 -34 -35 -36 -37 53 60 -40 58 -42 -43 -44 -45 -46 -47 -48 -49 -50 -51 -52 -53 -54 -55 -56 -57 -58 -59 -60 -61 -62 -63
leaf_value=-0.0059683961531483134 -0.016888985233567699 0.034034855597725844 -0.075758216192064173 -0.080566473520440662 0.040624701258857497 0.059069841660653336 0.025850486017571589 -0.0045969527653303673 0.042165608192742551 -0.015865126389885357 -0.0049938425615198628 -0.0057521420751370372 -0.064193752430736689 -0.034980948539078363 0.04584893285370447 0.0092419190571306747 0.016893402368635888 -0.0099507024588885527 0.024182170988929646 0.014898428416063439 0.0028361945600153173 0.061983738281208546 -0.046351969472158368 -0.029116066217435812 0.035587045198169173 -0.027382794607939066 -0.0061116860334305672 -0.01560130754102149 0.078465130358068236 0.023960114705531766 -0.021315901339841986 0.0064899002264444602 0.016308623471515502 -0.00055269263956651349 -0.00097242723354768129 -0.025273258934031914 0.020586753283024978 -0.0433494767421383 0.062785217419006431 0.002037901333990563 -0.055418337985154643 -0.055252347264953428 0.032333882857821378 -0.010949872199419116 0.033328188050185822 -0.04912740277861237 -0.01170824995507109 -0.044140052009342776 0.010057982255902161 0.055808948210595483 0.0075823763754808305 0.077105030670621397 -0.0079988342504710083 -0.0072034609327764265 -0.035826126142288951 -0.0043559329224618342 0.02163275845156316 0.060333768184012704 0.080230753875679489 0.0069380189606648062 0.052962088984222555 0.01964497127223315
leaf_weight=136.59787533245981 545.65615787357092 508.70211662352085 1269.5796688990667 260.3955977410078 980.67612771317363 742.21366619318724 116.02078695036471 438.20889009162784 719.93047887831926 524.10103632882237 124.68017884343863 175.89636968635023 483.30333609133959 157.05555007606745 659.22094890475273 296.60812426358461 727.18649832345545 551.75170081295073 524.77822398394346 845.60581223480403 601.5017121527344 77.909133091568947 527.38578492775559 368.37676558457315 544.68894980102777 874.98373157251626 216.9119975939393 211.2387688793242 134.71017012000084 588.69669583439827 459.63195241056383 898.33229083567858 408.91879979893565 758.08860179409385 427.37874774262309 1017.936846613884 631.06548449397087 880.4595076488331 172.47982303798199 24.496456036344171 894.83666984271258 134.96899242699146 1148.9815413765609 407.94338750094175 140.49552376382053 267.20754084177315 1008.8033754024655 175.06450914591551 741.68627946637571 129.78320078551769 204.06811364367604 584.48409099131823 346.60618620738387 162.00237676128745 450.50073344446719 355.17116805911064 264.13724400103092 469.50360952317715 35.964222587645054 43.516072945669293 7.5956715717911711 101.37275226414204
leaf_count=828 2386 1176 14729 2693 2214 1420 455 1579 1330 2458 390 1035 6170 549 1282 574 1633 2125 1151 2881 2188 185 4333 2914 1177 4754 786 935 224 1256 2991 3349 1133 2120 1007 7704 1418 7672 328 153 10938 1450 2300 1532 516 1863 4502 804 2361 219 658 1035 2016 446 2515 1341 555 896 71 188 24 339
internal_value=-1.21327e-05 0.0130598 -0.0394477 -0.00422561 0.0285822 0.038103 -0.025912 0.00180254 0.0283156 -0.0390881 0.0124738 -0.0339382 -0.0624945 0.0128585 0.0222133 0.0374559 0.0306882 -3.16477e-05 0.0529433 -0.00660903 0.0213041 -0.00120945 -0.025687 -0.01029 0.0593535 -0.0117793 0.0272351 0.0138395 0.044199 0.0040105 -0.0066549 -0.00234666 0.0334896 -0.00649841 0.0134775 -0.0324955 0.00576553 -0.0501653 0.0373355 0.00623412 -0.049674 -0.0305938 0.027609 0.00408379 0.0116363 -0.0303286 -0.0190021 -0.0279444 0.00435435 0.0305362 0.0264897 0.0670712 0.000516795 0.0149017 -0.0251243 0.00920024 0.00912529 0.049386 0.0491798 0.0425152 -0.0424614 -0.00532645
internal_weight=28688.1 21546.5 7141.58 10194.5 11351.9 7133.86 4500.64 8692.33 4300.72 1502.2 4218.08 3396.49 2640.94 3755.84 1824.62 2635.02 1386.41 1745.94 2833.14 4936.5 2472.15 1104.14 2230.09 684.769 2006.1 3327.78 1870.64 1665.7 679.399 1931.22 982.72 1443.99 1389.59 915.144 1016.08 1545.32 1446.19 1371.36 827.041 523.088 1166.4 271.567 1445.59 1608.72 316.392 1241.81 1883.79 299.745 952.925 654.561 712.77 1326.7 462.627 793.068 974.602 1200.78 481.049 1189.43 60.4607 121.425 888.055 653.124
internal_count=132254 67882 64372 39700 28182 15784 35777 30171 10230 9529 12398 29718 28595 9426 4494 5100 2915 5522 5554 20745 6876 6059 16502 4465 3856 14991 4688 5130 1401 4932 5686 5735 3347 2669 2263 12037 4328 13866 1698 2695 13216 2278 2874 5754 1551 6836 9256 1194 3296 1370 1834 2455 2471 1864 4973 4222 1341 2226 224 373 7696 2464
is_linear=0
shrinkage=0.05


Tree=5
num_leaves=63
num_cat=0
split_feature=32 1 32 0 0 0 0 0 2 25 28 90 0 20 33 81 0 1 90 28 28 25 22 101 20 3 29 28 82 1 90 3 3 59 33 1 0 1 90 2 1 90 101 0 1 1 2 1 81 29 2 1 59 28 29 21 28 32 28 1 101 101
split_gain=5174.12 1451.95 1338.21 695.407 667.532 417.194 216.169 201.499 186.638 176.386 173.274 163.767 162.448 141.1 158.524 137.019 134.944 124.879 132.805 124.315 116.896 105.475 105.244 101.968 94.8277 91.0403 90.6166 88.7522 81.9779 78.5871 99.4556 77.6821 71.6983 71.2746 69.3843 68.0515 66.5126 64.1476 62.018 55.3287 51.2001 83.3867 50.1627 45.1432 44.9953 43.3265 42.3567 41.9711 41.5963 40.9346 40.0606 36.0145 35.0602 34.3701 31.9752 31.4144 30.144 29.6426 29.179 27.9837 27.0811 26.0651
threshold=8.7617417531600719 0.19475000000000006 18.818424684586336 0.12579113924050636 0.060060601688189892 0.16807909604519775 0.33908045977011497 0.15504807692307696 0.084500000000000006 1.0000000180025095e-35 0.30000714285714292 1.5000000000000002 0.43961352657004837 0.47222222222222227 91.500000000000014 0.2678571428571429 0.063898415809243853 0.028200000000000003 1.5000000000000002 0.38916666666666672 0.12501666666666669 1.5000000000000002 0.81666666666666676 0.015753424657534251 0.23611111111111113 5.5000000000000009 9482.389705882355 0.10228636363636363 0.11805555555555557 0.062200000000000012 1.5000000000000002 10.500000000000002 3.5000000000000004 7.5000000000000009 51.500000000000007 0.27385000000000009 0.043573191570153796 0.097800000000000012 1.5000000000000002 0.24035000000000004 0.064700000000000021 1.5000000000000002 0.031278538812785396 0.025094142391153769 0.39210000000000006 0.11445000000000001 0.072300000000000017 0.29220000000000007 0.13392857142857145 3180.0909090909095 0.17425000000000004 0.36940000000000012 7.5000000000000009 0.06060303030303036 7700.357142857144 3.5000000000000004 -0.083316666666666636 4.0953430116403489 0.42859285714285722 0.13355000000000003 0.0034246575342465756 0.017579908675799092
decision_type=8 10 10 2 2 2 2 2 10 10 10 2 2 10 8 10 2 10 2 10 10 10 10 8 10 2 8 10 8 10 2 2 2 2 8 10 2 10 2 10 10 2 8 2 10 10 10 10 10 10 10 10 2 10 10 2 10 10 10 8 10 10
left_child=1 3 4 11 38 9 20 28 -4 13 25 55 15 14 22 21 53 50 49 32 23 35 -3 37 -16 44 -20 -18 40 60 -31 -32 -17 61 -15 -7 -10 -5 46 -30 -6 -42 -27 -40 -11 -25 -2 -23 -35 -19 -9 -12 -29 -13 -41 -1 -45 -21 -38 -48 -8 -22
right_child=2 5 8 6 7 12 29 17 36 10 51 16 -14 34 24 19 27 18 26 57 33 47 -24 45 -26 42 -28 52 39 30 31 -33 -34 48 -36 -37 58 -39 43 54 41 -43 -44 56 -46 -47 59 -49 -50 -51 -52 -53 -54 -55 -56 -57 -58 -59 -60 -61 -62 -63
leaf_value=0.019720301347570475 -0.074601271376147443 0.025797030561750853 -0.076544977698130637 -0.0056214889387884871 -0.020329133736106023 0.041580569806428096 0.039332020734152179 -0.051536545557782358 -0.061665001334555915 -0.06331396869589917 0.01718477589685985 -0.050926029446699245 0.059046347020765957 0.011598004307132764 -0.041943258296890218 -0.045684180803375017 -0.025147871534603045 0.04456419176680064 -0.0078465460462906495 0.054194114591390667 0.012325882810297681 0.0083556058043569668 0.084221913162903131 -0.018228446890028054 0.039288353396952497 0.011293115728351477 0.018389922088511545 -0.030412980710289358 -0.050697602106979246 0.053851781602648301 -0.015913328282431034 0.028599376135061874 0.01865911533988434 0.024065765875970136 0.080677791589325296 0.060744364872673484 -0.041867669085961207 0.020872547338072624 -0.063811347955183215 -0.027679000547870609 0.025828754419818842 -0.011258287205747902 -0.012719000743975459 -0.06504165757095913 -0.0036144884602160193 -0.0015124195642296195 -0.002520553822847005 0.038249333737265974 0.0076192331125360061 0.0082152548399345333 -0.012774243312384512 0.042682561776466142 0.00076656729417721894 -0.029473960917910422 -0.0081504449711569255 -0.022045091768623504 -0.039475437982492909 0.030011174223227074 0.0075516924630208565 -0.031822708949351845 -0.0077760866837401424 -0.010785701460654079
leaf_weight=322.2085833158344 44.853945437818766 581.21451026014984 1033.9668397428468 338.67500058561563 700.57522643171251 1218.8300676606596 35.477706953883171 73.26473637111485 614.85574137419462 95.115702655166388 347.52002984285355 338.10660927090794 980.24593840539455 46.058098798617721 128.36512399464846 44.065292717888951 878.61952291242778 266.35131518542767 999.54923134297132 340.69877376407385 201.38487307354808 247.77960021793842 88.412392742931843 620.00476203858852 48.794632688164711 436.03196665644646 489.39518827199936 100.67459540441632 215.11101849190891 382.22029506415129 108.17447897046804 974.62952251732349 1117.2664567232132 1378.330981887877 181.73257988505065 766.56772129237652 877.13817750476301 697.19474379718304 435.34340769797564 886.99868720863014 202.49329232797027 592.74372300133109 431.94672534614801 141.61860221158713 47.454398885369301 1034.0560512635857 113.71872053667903 224.34230501204729 536.10595869645476 110.29626352712512 678.71306676417589 233.19219387695193 793.52884109131992 435.51086644548923 276.80663797818124 51.351951260119677 713.68742726184428 211.30401933193207 30.452777128666639 291.5231898445636 185.41078298166394 305.96436759456992
leaf_count=1149 615 1835 12885 1200 3942 2416 115 454 7842 743 1245 3834 2042 161 652 141 5647 587 3422 649 576 598 154 2631 149 1912 1396 534 1721 762 297 1982 2472 3682 325 1485 6817 1871 6539 5399 627 3353 2255 1599 199 3345 664 440 1559 303 2986 581 3727 4323 1462 358 7506 449 163 2044 588 951
internal_value=9.5779e-05 0.016353 -0.0290218 0.00344722 -0.018026 0.0323937 0.0122137 -0.00946963 -0.060112 0.0163253 0.00574552 -0.0169562 0.0407038 0.0319675 0.0225118 0.0363786 -0.0214917 0.000565548 0.00750089 0.0254919 0.00708898 0.0439531 0.0336325 -8.42711e-05 -0.0194468 -0.00675875 0.000780213 -0.0138705 -0.0186059 0.0277355 0.0319245 0.0241373 0.0161762 0.0150553 0.0668438 0.0490091 -0.0489054 0.0122085 -0.0449987 -0.0273998 -0.0104829 -0.00178786 -0.000651566 -0.0505883 -0.0436414 -0.00778847 -0.0288825 0.0226219 0.0194692 0.0339831 -0.0166209 0.0274881 -0.00276827 -0.0389096 -0.0230495 0.0139221 -0.0437855 0.0450171 -0.0401975 -0.0236387 -4.41865e-05 -0.00159586
internal_weight=27324 17534.6 9789.46 9717.63 7233.04 7816.94 6797.63 5492.3 2556.41 2665.84 1591.26 2920 5151.1 1074.58 846.787 4170.85 2546.44 2617.57 1865.59 1713.33 5111.72 2457.52 669.627 2689.93 177.16 1010.55 1488.94 1772.82 2874.73 1685.91 1465.02 1082.8 1161.33 2421.79 227.791 1985.4 1522.45 1035.87 1740.75 1378.92 1495.81 795.237 867.979 1290.65 142.57 1654.06 450.096 472.122 1914.44 376.648 751.978 580.712 894.203 773.617 1163.81 373.561 855.306 552.003 907.591 405.242 220.888 507.349
internal_count=132360 60034 72326 39131 44619 20903 19559 25652 27707 10211 6935 19572 10692 3276 2790 8650 18065 9148 5708 3711 15815 4939 1989 9047 801 5109 4818 9908 16504 3744 3041 2279 2613 6768 486 3901 14822 3071 18967 8582 7922 3980 4167 15644 942 5976 3323 1038 5241 890 3440 1826 4261 8157 6861 1507 9105 1098 6980 2708 703 1527
is_linear=0
shrinkage=0.05


Tree=6
num_leaves=63
num_cat=0
split_feature=32 0 32 0 28 28 90 0 0 32 32 28 90 0 10 2 32 24 6 29 24 2 90 24 10 28 3 12 0 24 97 3 2 28 100 0 90 2 28 58 2 24 24 2 10 28 28 82 32 0 24 10 6 3 0 58 24 3 28 28 24 82
split_gain=4386.38 1291.84 1008.32 466.478 452.078 437.48 347.194 326.389 216.821 131.703 126.751 124.763 120.86 115.508 111.945 111.256 73.4583 69.9688 66.079 63.8627 80.6445 61.5058 54.5919 48.7698 48.3923 48 46.754 45.8589 44.3069 44.2252 42.8472 42.1534 41.0181 39.8201 39.6308 38.3932 37.5637 37.2732 36.9704 36.8133 36.6407 35.4901 35.0484 34.2682 34.1281 31.7673 31.4506 29.8364 27.0744 26.619 26.0957 25.8787 24.3263 24.1006 23.6801 43.6636 23.329 31.442 27.4105 22.9233 21.4953 19.4661
threshold=9.5834360979963851 0.16807909604519775 21.162517060808305 0.060060601688189892 0.28570714285714288 0.31429285714285721 1.5000000000000002 0.073261056247316464 0.36038961038961043 4.0953430116403489 14.275857154337883 -0.0039166666666666508 1.5000000000000002 0.1438923395445135 0.13172353961827649 0.077900000000000011 5.0474476581458729 0.3539705882352942 0.22902097902097904 23042.597402597406 0.25125000000000008 0.31850000000000006 1.5000000000000002 0.42029411764705893 0.17274535809018571 0.088936363636363688 9.5000000000000018 0.30384615384615393 0.038535788535788547 0.3658333333333334 2.58163000580875 5.5000000000000009 0.072300000000000017 0.077286363636363639 0.44166666666666671 0.035650737163192683 1.5000000000000002 0.49740000000000001 -0.077749999999999986 0.38548951048951058 0.43260000000000004 0.22029411764705883 0.26625000000000004 0.41615000000000008 0.47493734335839605 0.62566538461538468 0.42859285714285722 0.11805555555555557 6.666709402257295 0.021528550241008533 0.4512500000000001 0.19836065573770495 0.28801843317972359 11.500000000000002 0.33908045977011497 0.71320346320346328 0.12546296296296297 20.500000000000004 0.39408636363636373 -0.16669285714285711 0.16583333333333336 0.10555555555555557
decision_type=8 2 10 2 10 10 2 2 2 10 10 10 2 2 10 10 10 10 10 8 8 10 2 10 8 10 2 8 2 8 8 2 10 10 8 2 2 10 10 8 10 10 8 10 8 10 10 8 10 2 10 8 10 2 2 10 8 2 10 10 8 8
left_child=1 5 3 22 8 6 17 21 12 46 13 59 60 30 25 -4 44 27 -16 20 -15 -8 32 33 -13 -14 29 34 -23 -11 42 -25 -2 36 -1 -17 -10 -21 -24 61 -32 -34 -5 47 52 -31 54 -41 -35 -40 -18 -33 -7 -45 55 -6 -37 58 -58 -9 -3 -12
right_child=2 4 15 10 9 16 7 11 23 26 39 24 14 19 18 35 50 -19 -20 37 -22 28 38 31 -26 -27 -28 -29 -30 45 40 51 41 48 -36 56 -38 -39 49 43 -42 -43 -44 53 -46 -47 -48 -49 -50 -51 -52 -53 -54 -55 -56 -57 57 -59 -60 -61 -62 -63
leaf_value=0.027817546894954821 -0.072875932059217899 0.042785114159590194 -0.074418116300190087 0.0070000593589105986 0.044491833183457563 0.036599818201846442 -0.049521360589328087 -0.060655172070513685 0.046372923783084309 0.042046718419231667 -0.0072574841265784151 -0.0062705521139159769 -0.0067834524079895438 0.011504247926732479 0.022404484906838832 -0.062659589929650567 0.024546795365015712 -0.013414171144169679 0.0061233094367637367 0.0058744952906969496 -0.013050551876826053 -0.041596360377592567 -0.066560182463240733 -0.032596540493419611 0.0060950381085595785 0.0085904804456943176 0.03854223269117045 0.043309092542858738 -0.019200705415847334 0.0098141216202169822 -0.028709339884820686 0.012738026657960623 -0.012819028659550672 0.050362687647706662 -0.001493956775769612 -0.028120950297566196 0.017482678138620308 0.039219769856899893 -0.060281035720628262 -0.031670245967840481 -0.0082475313707068634 -0.042945249957506926 -0.019871362688782129 -0.032600007254163343 0.053925450896714688 0.039288594801723559 0.057390674239095343 -0.057875051248386301 0.027236748063007334 -0.039491204195791288 0.0040299174590861849 0.036014389582835725 0.0061787350481411537 -0.00087769422111794659 0.052761865912282636 0.0054305612027741234 -0.061092785886972416 -0.028723235677595629 -0.00793638381106271 -0.023110984537165112 0.025213631914595653 -0.030065538095462214
leaf_weight=332.57079945132136 47.488618089817464 269.75313150137663 901.47054045461118 278.27677486091852 258.48376081138849 246.30978462472558 403.65722762793303 43.646375242620707 170.78102453052998 207.01913271844387 304.02636832464486 1894.0382006550208 969.33976593799889 573.40447173826396 1790.8535732235759 415.94327350798994 292.43754723668098 126.29213103279471 958.51584797725081 180.44796857796609 799.02275447547436 326.38324379734695 254.63385994359851 34.503695413470268 1357.1210089661181 1063.6655810698867 938.32906804606318 268.51028422266245 696.00810955092311 498.3768860027194 732.85129730217159 252.40621638298035 265.28429675847292 612.05820634588599 175.61795411817729 193.88361925631762 335.56078792363405 156.83620896935463 209.60475885961205 363.87313488870859 314.29318054020405 155.72705974429846 213.47580305114388 119.24992403388023 222.58799388818443 111.56758351624012 865.64594586566091 159.56662812456489 166.03986571356654 657.86155386455357 330.94322504661977 230.23109037429094 90.698856707662344 120.02646322548389 317.69781495630741 99.619789600372314 322.35277277138084 141.8817645534873 26.803701089695096 553.21929505933076 520.47855710610747 135.33025768958032
leaf_count=1054 703 649 12272 1216 528 749 4853 338 425 497 1691 9038 3341 1983 4394 5892 1110 605 2432 599 3227 4096 3607 105 5330 2888 2031 766 5592 1380 5078 569 1754 1337 779 1500 774 391 3525 2291 1765 1364 1233 757 514 327 1853 1218 390 7669 1406 466 312 618 710 228 3081 1221 172 3429 1369 869
internal_value=0.000112738 0.01381 -0.0305891 -0.02039 0.0249241 -0.00230417 -0.00764024 -0.0125462 0.0180376 0.0403163 -0.0120774 -0.00496924 0.0131571 -0.00693843 0.010158 -0.0613328 0.0255375 0.0209902 0.0167345 0.00200418 -0.00278693 -0.0329703 -0.0436244 0.0331154 -0.001107 0.00125798 0.0309111 0.0266009 -0.0263887 0.0221038 -0.0168717 0.0200684 -0.0291541 0.0383447 0.0176953 -0.0505552 0.027309 0.0214648 -0.0496303 -0.0259439 -0.0225864 -0.0240496 -0.00467166 -0.0325904 0.0386823 0.0152691 0.0509961 -0.0397632 0.0454755 -0.044584 0.0136866 0.0239033 0.0284699 -0.0167781 0.0427251 0.0336848 -0.0431165 -0.048958 -0.0570607 -0.0259617 0.0312646 -0.0143465
internal_weight=26074.6 18031 8043.62 6041.28 10670.9 7360.04 6177.06 5274.07 7374.19 3296.74 4450.68 3848.02 5572.61 3248.61 4782.37 2002.34 1182.98 902.991 2749.37 1709.71 1372.43 1426.05 1590.6 1801.58 3251.16 2033.01 1755.29 776.699 1022.39 816.964 1538.9 517.141 468.5 1284.44 508.189 1100.87 506.342 337.284 1122.1 1202.07 1047.14 421.011 491.753 762.716 559.597 609.944 1541.45 523.44 778.098 867.466 623.381 482.637 337.009 239.276 675.801 358.104 684.922 491.038 349.156 596.866 790.232 439.357
internal_count=132360 66664 65696 41558 26693 39971 35880 32676 19139 7554 22936 18135 15073 15492 13055 24138 4091 3204 6826 6200 5210 14541 18622 4066 14368 6229 4235 2599 9688 2204 9292 1140 3821 2926 1833 11866 1199 990 14801 7444 6843 3118 2449 4884 1575 1707 3319 3509 1727 11194 2516 1035 1061 1375 1466 756 5974 4474 3253 3767 2018 2560
is_linear=0
shrinkage=0.05


Tree=7
num_leaves=63
num_cat=0
split_feature=32 1 32 0 0 0 1 90 1 32 28 0 24 1 24 0 0 6 2 31 2 64 0 6 90 90 1 0 28 90 1 90 24 11 97 28 97 1 8 34 0 24 2 2 28 8 2 26 80 28 31 32 24 1 31 0 26 28 82 2 100 28
split_gain=3797.37 1144.3 1031.7 532.973 450.106 356.43 196.353 158.642 161.813 131.492 131.294 121.294 102.913 102.397 101.783 98.1806 90.4681 88.5658 85.0991 84.0428 77.1908 75.39 73.9179 69.4972 64.4229 61.9772 69.4539 56.084 49.6044 48.7283 48.4197 49.1738 45.7988 43.2443 42.7154 42.3055 39.3999 38.9712 38.9177 35.7763 35.4148 34.4481 34.3527 34.1387 32.892 32.7063 32.386 37.2171 39.8725 30.4347 42.6271 29.4044 45.0888 28.7783 28.0549 27.464 25.1712 29.4663 24.5633 22.372 21.0037 20.7104
threshold=8.7617417531600719 0.1812 22.382310916198357 0.078432578740157494 0.1438923395445135 0.29857397504456334 0.29865000000000003 1.5000000000000002 0.17555000000000001 13.97904106927251 0.1249761904761905 0.071685508735868458 0.44782407407407415 0.11160000000000002 0.31808278867102402 0.21054964539007096 0.025094142391153769 0.17752100840336138 0.73430000000000006 1.4100000000000004 0.072300000000000017 1.0000000180025095e-35 0.04773296878560037 0.39565217391304358 1.5000000000000002 1.5000000000000002 0.13355000000000003 0.43961352657004837 0.16665000000000005 1.5000000000000002 0.029650000000000006 1.5000000000000002 0.51625000000000021 9.5000000000000018 3.1335812887528336 -0.072713636363636328 2.3762040024478339 0.070000000000000021 0.22967032967032971 1.2236111111111114 0.071175278622087154 0.19442724458204338 0.23570000000000005 0.13840000000000002 0.113048717948718 0.22086720867208673 1.0000000180025095e-35 1.0000000180025095e-35 3.5000000000000004 0.18838333333333343 2.5100000000000002 5.1387624464832813 0.052786377708978337 0.070000000000000021 2.4450000000000007 0.32795698924731187 1.0000000180025095e-35 0.29174285714285725 1.0000000180025095e-35 0.27610000000000007 0.49166666666666675 0.23807619047619055
decision_type=8 10 10 2 2 2 10 2 8 10 10 2 10 10 8 2 2 8 10 10 10 2 2 10 2 2 8 2 10 2 10 2 10 2 8 10 8 10 10 8 2 8 10 10 10 10 10 8 10 10 10 10 10 10 8 2 10 10 8 10 8 10
left_child=1 4 3 16 10 6 11 8 60 15 22 36 51 33 38 21 -2 39 19 -14 -4 41 -1 -16 53 26 -18 32 -10 -23 59 -32 45 44 -12 -27 58 -35 -13 -15 -36 -5 -26 -28 -9 -7 -11 -48 -49 50 -34 -8 -53 -24 -42 -19 -22 -58 -3 -17 -6 -37
right_child=2 5 20 9 7 27 12 13 28 46 34 14 18 17 23 30 25 55 -20 -21 56 29 24 -25 42 35 43 -29 -30 -31 31 -33 49 37 40 61 -38 -39 -40 -41 54 -43 -44 -45 -46 -47 47 48 -50 -51 -52 52 -54 -55 -56 -57 57 -59 -60 -61 -62 -63
leaf_value=-0.045981061306080317 -0.054028130835412191 0.042641489565347669 -0.072408090317580359 0.026595267759873965 0.042929423979046213 0.049329303978978209 0.051051412947449776 -0.031262634881629114 -0.034107881047613309 -0.072144077974632639 0.011646541549200324 0.034545659971812435 -0.031593324384061733 0.023360980009353716 0.015244264993147228 -0.034123468408839196 0.013586999180233926 -0.0023909976435327199 0.042126943482327289 0.019269807496953856 -0.040311330759764064 -0.0024775031935367112 -0.025670746827621972 -0.0082747261988840182 -0.046262693945646499 -0.057758549992981259 -0.066053973316425568 0.053633146787087319 0.0097223941395522279 -0.020695548026316721 0.034676521114271906 0.0071737488316780161 -0.059471448339458 -0.014426630998445442 -0.025508058447105943 -0.036355063005550643 -0.017321513197970397 0.0072830697675418943 0.012450633641252793 -0.0054659349615360951 -0.020690743989539975 -0.0013924739079814738 -0.019329817873660116 -0.022204351952904058 -0.0057667817350349308 0.029306431465105771 -0.0081586221634518102 -0.04040078688460523 -0.01688264954601806 0.03111825898026719 0.019800916314846071 -0.051050151593181659 0.035844569013731134 0.023949256671009046 0.0030559910781627719 0.014200127949712272 -0.062025479790762339 -0.026319650760781899 -0.011737556045837124 -0.0024505869910829339 0.014777553363520123 -0.016419193949656977
leaf_weight=296.35504569206387 589.78753740713 49.63217755407095 802.50176739320159 149.58229628950357 674.0004977658391 781.63116008415818 699.82176780700684 206.87320729158819 87.002713397145271 31.974780452437699 390.29450967069715 870.05281986109912 95.571644203737378 1229.4044496715069 1628.1545051094145 68.601749025285244 134.75618919543922 883.85891207121313 351.96856918185949 509.91885953769088 358.56718653300777 534.53505982086062 37.767373904585838 388.14577921666205 133.00006465427577 217.73397053591907 49.862236874178052 898.2685663625598 241.13081564567983 1177.1136598214507 203.85801105201244 794.62836877256632 22.173137620091438 277.4787898696959 220.3429616773501 877.92672240268439 366.87173994444311 800.7396055161953 261.43732535839081 117.27568597719073 161.4464421980083 405.96757000498474 1093.7598948022351 383.40069704316556 326.23238339275122 285.76967176049948 350.25671476684511 344.2866041995585 384.51891774311662 468.58609225600958 62.204415667802095 15.375359352678059 177.47347567602992 117.8001199811697 529.12469533644617 346.21965738758445 487.74538274481893 68.489033398218453 34.411376820877194 283.35778317414224 75.595066778361797 156.977524086833
leaf_count=3880 9157 145 11910 548 1549 1651 1684 879 380 433 1728 2238 376 3297 5110 343 692 2795 782 1657 3786 2356 180 1363 1230 2751 605 2152 921 6679 501 2314 64 1086 2199 9686 3207 2587 768 340 869 1892 7519 2774 1024 612 1776 2358 2250 1025 139 74 494 396 2411 803 6184 688 195 1217 225 1426
internal_value=0.000104059 0.0144865 -0.0262235 -0.0178477 0.00142799 0.0279986 0.0208003 0.0102158 0.0273162 -0.00808914 -0.0140976 0.0139859 0.0340376 0.0058086 0.0174603 -0.00346426 -0.0369781 0.0119898 0.0226027 0.0111944 -0.0610097 -0.00982075 -0.0233338 0.0107124 -0.0184452 -0.0314255 -0.0176629 0.043555 -0.00195208 -0.0150139 0.00720303 0.012823 0.0379353 -0.00407432 -0.0021693 -0.0376433 -0.0102424 0.00168327 0.0294604 0.0208447 -0.00810066 0.00616851 -0.0222891 -0.0274028 -0.0157099 0.0440058 -0.0231271 -0.0216045 -0.0280396 0.0261499 -0.00142467 0.0462579 0.0286633 0.011784 -0.00251034 0.00228244 -0.050937 -0.0576931 0.0204412 -0.00871742 0.0401205 -0.0333547
internal_weight=25069.6 16213.2 8856.43 7139.13 8245.7 7967.47 5448.84 5265.81 1077.73 4728.68 2979.89 3598.71 1850.13 4188.08 3147.79 3617.64 2410.44 2576.76 957.459 605.491 1717.3 2267.2 1678.68 2016.3 1382.33 1820.66 568.019 2518.63 328.134 1711.65 1350.45 998.486 1620.36 1611.32 1301.21 1252.64 450.915 1078.22 1131.49 1346.68 910.914 555.55 1226.76 433.263 533.106 1067.4 1111.04 1079.06 728.806 552.964 84.3776 892.671 192.849 155.567 690.571 1230.08 914.802 556.234 84.0436 351.96 749.596 1034.9
internal_count=132360 60034 72326 49758 36298 23736 18093 15886 3075 22667 20412 13026 5067 12811 9479 15850 27091 7235 2815 2033 22568 11475 13205 6473 9325 17934 4071 5643 1301 9035 4375 2815 3491 5576 7207 13863 3547 3673 3006 3637 5479 2440 8749 3379 1903 2263 6817 6384 4608 1228 203 2252 568 576 3280 3598 10658 6872 340 1560 1774 11112
is_linear=0
shrinkage=0.05


Tree=8
num_leaves=63
num_cat=0
split_feature=32 1 32 0 0 32 90 1 3 1 90 1 24 28 28 29 24 0 28 3 0 0 0 28 28 1 82 32 28 3 82 3 0 0 26 28 24 0 20 20 33 22 26 1 0 24 80 3 0 24 90 28 24 24 0 25 23 28 26 28 32 28
split_gain=3323.92 1082.73 794.251 558.375 369.792 295.856 187.628 175.488 173.071 177.633 173.019 143.14 130.969 118.474 105.556 96.5549 103.646 87.0151 86.7244 74.7485 73.1849 67.7515 60.3652 57.7418 57.4894 56.8064 54.5283 51.7842 48.1609 47.5879 45.5872 55.7172 53.8536 44.7618 44.3309 44.0498 43.9909 43.9504 42.7596 41.6692 46.7999 55.627 39.708 37.5303 36.282 33.9268 33.008 30.7736 29.4782 23.2838 22.895 22.4033 22.3269 22.1749 21.2248 20.269 16.3066 15.5835 15.4825 14.9879 13.6772 13.597
threshold=9.6514536637706563 0.20170000000000002 23.259373153664914 0.12579113924050636 0.058997563522450412 5.5341901095830064 1.5000000000000002 0.026500000000000003 9.5000000000000018 0.10730000000000002 1.5000000000000002 0.54860000000000009 0.50816176470588248 0.066683333333333358 inf 11404.583333333334 0.25397058823529417 0.24099883855981422 0.19443333333333337 13.500000000000002 0.33908045977011497 0.08368347338935575 0.040080321285140573 0.75961538461538469 0.41700714285714291 0.32915000000000005 0.18333333333333338 15.132526369966881 0.16665000000000005 18.500000000000004 0.15476190476190479 9.5000000000000018 0.24695121951219515 0.05221967713787086 1.0000000180025095e-35 0.34616538461538465 0.77970588235294136 0.021528550241008533 0.19090909090909094 0.27922077922077926 76.500000000000014 0.29285714285714287 2.5000000000000004 0.12780000000000002 0.14185110663983905 0.30544117647058827 2.5000000000000004 9.5000000000000018 0.33908045977011497 0.39254629629629639 1.5000000000000002 -0.083316666666666636 0.22029411764705883 0.35544117647058832 0.02442006082652514 2.5000000000000004 4.5000000000000009 0.50000714285714298 1.5000000000000002 -0.15894999999999998 12.196722977913145 0.16665000000000005
decision_type=8 10 10 2 2 10 2 10 2 10 2 10 8 10 8 8 8 2 10 2 2 2 2 8 10 10 8 10 10 2 8 2 2 2 8 10 10 2 10 10 10 8 10 8 2 8 8 2 2 8 2 10 8 10 2 10 2 10 10 10 8 10
left_child=1 3 4 10 37 11 7 35 28 29 39 12 20 33 15 16 27 -11 46 -18 25 49 -15 54 44 -3 38 -6 34 -10 -23 45 -33 -12 -8 53 -20 -2 -9 40 41 -1 -30 -24 -17 -32 -14 -35 -28 56 52 -52 59 -5 -4 -13 -7 -56 -37 -39 -54 -51
right_child=2 5 23 6 14 21 8 26 9 17 13 55 18 22 -16 24 19 -19 36 -21 -22 30 43 -25 -26 -27 48 -29 42 -31 31 32 -34 47 -36 58 -38 50 -40 -41 -42 -43 -44 -45 -46 -47 -48 -49 -50 61 51 -53 60 -55 57 -57 -58 -59 -60 -61 -62 -63
leaf_value=0.0067468222669912915 -0.054995307232385077 0.028425271156408794 -0.062696484528589627 -0.0047896602390907882 0.00038825381184761791 0.013196935673928193 0.013938625393833002 0.037910685633647988 -0.01810762081104025 0.0071241041635009819 -0.049185801552224649 0.067647689739550973 -0.026639684346171828 -0.036355421512636425 -0.074626287934307714 -0.014115929848220224 -0.035999660993832248 0.022440824808412006 0.030490752386665237 -0.014866048970783237 0.05449455838535603 0.032957760889378032 -0.016543445414903064 -0.071171596646057864 0.039373057728165885 0.047445927336793182 -0.0050717350883707352 -0.019055638513529951 0.0063867047803798762 0.00059821033035838351 0.026175642758355905 0.0084304393141260443 0.034973194536756833 -0.059216063468619018 -0.052269899976256057 0.031218527036581602 0.0018416981214677672 -0.040340303173078441 0.074687031187057565 0.06114165902274759 -0.030713763091646258 0.059238349865148088 -0.030231094361753388 -0.00050675515269368106 0.0092910546214526463 -0.013161266540949419 0.0087511967083007819 -0.023233973605833395 0.039049685839975645 -0.045432544976351324 -0.059759778195825189 -0.036557817060047619 -0.013594141715858052 -0.037386240377156328 -0.0466980763736555 0.037516964104210952 -0.031370323709762164 0.0051697972852540047 0.0015565462051188011 -0.0061158452956691645 -0.047213167997258533 -0.013428414905411593
leaf_weight=367.51557167991996 408.91686780937016 1200.0250823367387 280.93351471051574 183.56297256797552 1113.5914643052965 111.79916283860803 29.42675743997097 825.42878924310207 480.50561988539994 1837.2293128129095 277.76456827297807 367.05230596289039 97.638810181990266 202.92373707145452 65.524019728414714 285.19340048730373 689.1727865608409 1876.5406929366291 1121.0501173883677 1072.7011728417128 642.6027959510684 309.31669421494007 634.48237460572273 693.42039712704718 102.86875718459487 591.65499815903604 108.3977468572557 493.15023782476783 167.99275771528482 1155.1335438527167 67.157599460333586 507.20412227511406 307.18737831711769 64.065400803461671 159.82930018007755 99.161551430821419 152.74090875126421 39.797372587025166 88.334661588072777 38.758555995300412 66.831074573099613 57.644485216587782 130.74800248071551 858.34215983003378 391.69132621213794 278.5352528989315 197.24786516651511 794.07821044418961 56.891306161880493 46.669642191380262 129.38213889673352 623.27901522256434 42.271195625886321 72.359193667769432 527.1290831216611 71.892702929675579 24.070883272215724 14.517283357679842 79.303782731294632 153.04712679982185 120.47870529443026 116.53433085419238
leaf_count=1566 6921 3427 4539 780 5308 676 109 2058 1973 6316 4036 838 439 2843 861 1913 4511 4360 3024 6363 1535 802 4179 11171 337 1390 342 3165 551 4244 167 1647 642 630 830 394 474 359 192 108 401 185 474 5056 1338 976 707 6285 133 500 1968 7981 281 321 5725 166 231 82 308 1082 1280 860
internal_value=6.82552e-05 0.0122019 -0.0282638 0.00257165 -0.0197427 0.0288108 0.0102919 0.0259757 0.00622104 0.00882306 -0.0143029 0.0356966 0.0327061 -0.0192132 -0.0121148 -0.0111084 -0.014778 0.0148688 0.0214104 -0.0231512 0.0399713 0.0115024 -0.0108279 -0.0604394 0.00473678 0.0347321 0.0367699 -0.00558461 -0.0222517 -0.0049017 0.0159175 0.0113452 0.0184791 -0.0317062 -0.0419299 -0.000849188 0.0270635 -0.0409037 0.0415491 0.0118719 0.00786417 0.0139978 -0.00967029 -0.00733255 -0.000569963 -0.00545142 -0.00300048 -0.0259919 0.010228 -0.0101539 -0.0356549 -0.0406269 -0.0250327 -0.0141351 -0.0513109 0.0628206 0.00509331 -0.0452917 0.0181478 -0.0133762 -0.0386481 -0.0228317
internal_weight=24170.7 16923.6 7247.07 10713.3 5731.07 6210.38 7350.85 1513.44 5837.41 5349.41 3362.41 4441.91 4002.96 2831.66 4213.89 4148.37 3368.62 3713.77 1568.68 1761.87 2434.28 1768.48 1695.75 1516 779.753 1791.68 1079.05 1606.74 487.997 1635.64 1469.4 1160.08 814.392 1135.91 189.256 434.388 1273.79 1517.17 913.763 530.75 491.991 425.16 298.741 1492.82 676.885 345.693 294.887 858.144 165.289 299.074 1108.26 752.661 355.594 255.922 822.58 438.945 135.87 541.646 178.465 192.844 162.75 163.204
internal_count=132360 67175 65185 48674 43668 18501 23385 4528 18857 16893 25289 12000 10996 23029 23796 22935 19347 10676 4644 10874 6352 6501 12078 21517 3588 4817 2725 8473 1964 6217 4234 3432 2289 10951 939 1803 3498 19872 2250 2260 2152 1751 1025 9235 3251 1143 1146 6915 475 2267 12951 9949 3002 1101 10346 1004 907 5807 702 1441 1561 1360
is_linear=0
shrinkage=0.05


Tree=9
num_leaves=63
num_cat=0
split_feature=32 1 32 0 0 32 0 1 25 3 1 1 81 0 32 2 81 81 90 1 0 22 80 0 0 64 25 90 3 6 90 1 3 81 1 1 3 2 2 81 29 90 2 90 50 29 0 90 101 2 2 2 32 3 23 6 6 90 49 33 2 0
split_gain=2947.63 850.261 829.085 464.305 396.707 179.685 136.92 136.106 174.167 152.114 107.161 106.445 110.76 91.0817 87.8815 86.5764 80.0594 76.4429 66.2626 80.6334 65.1105 61.8004 109.455 59.748 58.855 65.2376 57.4962 55.5782 54.5961 50.2714 45.7627 48.3972 45.6934 45.3632 41.8459 40.0591 46.1134 39.1039 37.4481 37.0061 36.7997 36.5559 36.4648 35.1354 34.2473 31.528 30.2693 29.5312 29.4424 28.506 28.408 28.0079 27.9947 26.5707 26.566 25.0528 24.2636 23.8876 23.8749 23.3598 23.3304 26.767
threshold=8.7617417531600719 0.23565000000000005 21.162517060808305 0.16530054644808748 0.091326105087572981 5.1387624464832813 0.051151229722658294 0.12025000000000001 1.0000000180025095e-35 8.5000000000000018 0.1328 0.55905000000000016 0.38750000000000007 0.036166483545231005 14.767682477822225 0.077900000000000011 0.35416666666666669 0.2678571428571429 1.5000000000000002 0.11160000000000002 0.36038961038961043 0.5277777777777779 1.5000000000000002 0.2817460317460318 0.22991543340380552 1.0000000180025095e-35 1.0000000180025095e-35 1.5000000000000002 8.5000000000000018 0.41421568627450983 1.5000000000000002 0.13355000000000003 8.5000000000000018 0.13392857142857145 0.08585000000000001 0.057300000000000011 16.500000000000004 0.27610000000000007 0.42915000000000003 0.13392857142857145 12428.801282051283 2.5000000000000004 0.38285000000000008 1.5000000000000002 2.6091269841269846 7843.6931818181829 0.035650737163192683 1.5000000000000002 0.22762557077625575 0.66400000000000015 0.112 0.62360000000000004 6.939001356797788 16.500000000000004 1.5000000000000002 0.1676706827309237 0.15075757575757578 1.5000000000000002 55.250000000000007 52.500000000000007 0.52705000000000013 0.24695121951219515
decision_type=8 10 10 2 2 10 2 10 8 2 8 10 8 2 10 10 8 10 2 8 2 8 10 2 2 2 10 2 2 10 2 8 2 10 10 8 2 10 10 10 10 2 10 2 2 10 2 2 10 10 10 10 10 2 2 8 10 2 2 10 10 2
left_child=1 3 4 6 13 11 43 18 20 51 27 12 21 47 24 -4 29 -11 19 -5 33 22 -3 42 25 56 41 -8 40 44 31 -15 -28 -9 57 -20 -37 -29 -27 -36 -18 -12 -14 -1 52 53 -17 -2 58 -21 -33 -10 -7 -32 -25 -22 -6 -26 -30 -23 61 -31
right_child=2 5 15 7 14 16 10 8 9 17 26 -13 23 30 -16 46 28 -19 35 49 55 59 -24 54 34 38 32 37 48 60 45 50 -34 -35 39 36 -38 -39 -40 -41 -42 -43 -44 -45 -46 -47 -48 -49 -50 -51 -52 -53 -54 -55 -56 -57 -58 -59 -60 -61 -62 -63
leaf_value=-0.0020554655448651185 -0.029242891323360144 0.011760558442559283 -0.068931420324843617 0.035301254866948038 0.013189316657824343 0.040176871018437206 0.017546631332327953 0.030912319658483036 -0.042001267617588309 0.018015124176314658 0.020814754449991674 0.061940694449393277 -0.032586165147287446 0.011645305384031352 -0.022300621823289981 -0.057379873779093628 -0.039234175548482644 -0.0082879376242573875 -0.025618286377701097 -0.016442406188047171 0.055015600969297029 0.066820736377458209 0.04428367511998399 0.018253689062500886 0.0040234701885769617 -0.018302670643371821 -0.035960887984889632 -0.038312885916197054 0.043269739287567471 -0.048444879697496203 -0.047300728700229541 -0.064820860163487218 -0.0017086230685070905 0.013653841457068445 0.02727586603629157 -0.013822773569961486 0.0062021318647181422 -0.014125695483088355 -0.0018805755103249886 0.0019512245786282561 0.0057306930204935975 0.0021986815674223145 0.013767232756950727 -0.035045887239633741 -0.0049175699065684107 -0.015724879639646638 -0.038558253341462574 -0.052225060932553982 -0.04665037005087231 0.014754056631960539 -0.018044518374865901 -0.0028140541901574474 0.016492325989806537 -0.029355062544240196 0.04258376625093982 0.033047319090237635 -0.010831886262000543 -0.017896805292077801 0.0085820634886459475 0.035657972169919762 0.015177991013495987 0.016948033506012861
leaf_weight=96.398495400324464 196.34823623485863 337.70521846227348 713.24743326287717 315.01114404201508 414.61232842318714 466.8632338065654 119.96865486353636 936.65493998676538 155.35074627771974 1537.8828160520643 513.11877821199596 387.21328826993704 45.148675631731749 141.52450160495937 691.03512227255851 351.75590897770599 115.14831726998091 335.7489883005619 154.98183787614107 148.55459949374199 267.25002082064748 282.60563521832228 1123.9039496537298 179.13033593446016 369.5106916250661 1041.5689232908189 107.69213876314461 198.12841807212681 64.720846503973007 40.227328676730394 301.90813576523215 34.616541880182922 939.87120410427451 647.79080921784043 318.79240425676107 387.10361561365426 1107.6561242286116 1072.065864010714 521.88058352656662 263.91948974132538 74.14737244695425 543.33076898194849 525.25290857814252 509.600007773377 62.232145640999079 279.97809842601418 589.1025364017114 541.10888348706067 18.492163814604282 142.43476281315088 409.88836818747222 64.978360295295715 174.06541622895747 695.58878299035132 314.73489297553897 269.59306589141488 139.65478978864849 185.91562726721168 207.75535305030644 82.384039759635925 91.592147078365088 24.418908320367336
leaf_count=547 2122 1040 12272 819 1660 1355 460 2338 712 4132 1968 954 216 698 4382 5892 572 991 653 668 660 666 2888 517 1583 5774 786 1858 174 255 3454 465 5049 1737 857 1572 3586 6896 2547 766 261 2683 1601 6916 227 2496 5974 9755 92 591 2910 220 645 7400 767 676 670 649 688 238 304 56
internal_value=4.25693e-05 0.0130856 -0.0241094 0.00526519 -0.0161135 0.0309825 -0.00789706 0.0136058 0.0189098 0.00867062 -0.00408637 0.0372888 0.0339648 -0.0312708 -0.0061184 -0.0557297 0.0155312 0.0132971 0.00368814 0.0178135 0.0290059 0.0414409 0.0367858 0.0211022 -0.00267649 -0.00760462 0.00302934 -0.014854 -0.000811151 0.02466 -0.0253541 -0.0137357 -0.00526555 0.0238725 0.00648743 -0.00150516 0.00100709 -0.0179296 -0.0128289 0.0158375 -0.0216575 0.0112564 0.0100389 -0.0298182 0.0303532 -0.0306651 -0.0456538 -0.0461607 0.0127615 -0.00115687 -0.0218358 -0.0305319 0.033788 -0.0348335 0.0338238 0.0440748 0.00711925 -0.00332381 0.0169677 0.0599171 -0.000960896 -0.0237859
internal_weight=23390.9 15188.9 8201.96 10571.2 6547.85 4617.74 4100.17 6470.99 4215.25 2093.96 3494.18 3278.08 2890.87 2600.96 3946.89 1654.11 1339.66 1873.63 2255.74 606.001 2121.29 1826.6 1461.61 1064.27 3255.85 2117.72 2104.01 1390.16 480.264 859.399 1863.5 586.029 1047.56 1584.45 1138.14 1649.74 1494.76 1270.19 1563.45 582.712 189.296 1056.45 570.402 605.999 703.161 1277.48 940.858 737.457 290.968 290.989 444.505 220.329 640.929 997.497 493.865 536.843 554.267 555.426 272.476 364.99 156.238 64.6462
internal_count=132360 60034 72326 46518 48188 13516 27163 19355 11466 6055 19700 8887 7933 29300 18888 24138 4629 5123 7889 2078 5411 4832 3928 3101 14506 10651 10486 9214 1787 2842 17423 4073 5835 4075 3855 5811 5158 8754 8321 1623 833 4651 1817 7463 2227 13350 11866 11877 954 1259 3375 932 2000 10854 1284 1336 2330 2232 862 904 615 311
is_linear=0
shrinkage=0.05


Tree=10
num_leaves=63
num_cat=0
split_feature=32 2 32 32 90 2 2 2 32 101 20 33 22 24 90 20 101 64 24 64 2 2 90 26 2 94 101 24 24 10 2 33 32 2 13 20 11 22 10 20 59 13 24 92 24 24 58 24 2 2 81 68 27 80 26 11 2 33 50 2 2 57
split_gain=2643.76 864.127 480.545 341.565 261.418 252.28 152.307 123.872 106.449 108.308 103.272 256.449 159.387 92.0203 89.9963 87.3893 101.985 70.3825 68.252 67.1597 61.3307 61.0804 99.1226 66.7029 65.5271 63.0731 56.5761 56.0681 55.5744 46.276 45.4018 43.8766 41.3529 40.9976 44.919 40.5803 36.0552 38.6449 33.965 33.7273 33.4028 32.0587 30.5646 29.8154 28.5188 28.0631 27.6397 26.4831 25.9767 25.2116 23.414 22.5753 22.203 20.7121 20.2626 19.3203 20.2968 18.7993 18.7799 17.8953 17.7498 17.4546
threshold=10.931768227205358 0.44760000000000005 24.222492460371537 5.1387624464832813 1.5000000000000002 0.26705000000000007 0.06745000000000001 0.70710000000000017 7.0827465358715367 0.020776255707762561 0.30384615384615393 84.500000000000014 0.31666666666666671 0.63078947368421068 1.0000000180025095e-35 0.61250000000000016 0.1440639269406393 1.0000000180025095e-35 0.51808278867102409 1.0000000180025095e-35 0.14380000000000001 0.40560000000000002 1.5000000000000002 1.0000000180025095e-35 0.40110000000000007 0.0051143629388514305 0.12808219178082195 0.32952069716775606 0.47573529411764715 0.17425810904071776 0.050650000000000008 37.500000000000007 8.0946641729010196 0.67055000000000009 2.5000000000000004 0.27922077922077926 2.5000000000000004 0.69047619047619058 0.5634920634920636 0.16025641025641027 7.5000000000000009 3.5000000000000004 0.14782407407407408 0.66247156703577514 0.77970588235294136 0.25904139433551204 0.7543103448275863 0.36088235294117649 0.27325000000000005 0.17685000000000003 0.23611111111111113 0.79453463203463215 0.099999999999999992 3.5000000000000004 1.0000000180025095e-35 4.5000000000000009 0.67055000000000009 119.50000000000001 0.78571428571428836 0.67055000000000009 0.58410000000000006 0.50531914893617025
decision_type=10 10 10 10 2 10 10 10 8 10 10 8 10 10 2 10 8 2 10 2 10 10 2 8 8 10 10 8 10 10 10 8 10 10 2 10 2 8 8 10 2 2 8 10 10 8 8 8 10 10 8 8 10 10 10 2 10 10 2 10 10 10
left_child=1 4 17 7 6 20 -1 13 9 29 11 12 -8 15 -12 16 -3 42 26 58 -6 22 23 24 -19 -25 32 43 -11 -7 -4 -17 40 34 46 -28 37 -15 44 -13 -5 -21 -2 -22 -9 -34 -20 60 -44 -24 -29 -35 -38 -50 -32 -49 -57 -55 -10 -56 61 -23
right_child=2 3 30 18 5 8 10 38 19 28 14 39 -14 36 -16 31 -18 21 33 41 27 47 49 25 -26 -27 35 50 -30 -31 54 -33 45 51 -36 -37 52 -39 -40 -41 -42 -43 48 -45 -46 -47 -48 55 53 -51 -52 -53 -54 57 59 56 -58 -59 -60 -61 -62 -63
leaf_value=-0.072563009308431334 0.0041387823394406636 0.029039087255183949 -0.068129108499646304 0.0059978515246867127 -0.067933976819233965 0.0060762058377305779 0.01593549085698449 0.039187803205808648 0.01660702618864987 -0.00093798569348385998 -0.01890811293686297 -0.051374669280016452 0.07086241388492763 -0.059433798419830909 0.077971296457665665 0.029096537044296267 0.0011356697043503868 -0.0025414197465367925 -0.0018140250026761344 -0.026056172063739294 -0.02832956668139712 -0.002407178578882316 -0.061024715947254782 -0.039023939962152691 -0.0693323145233503 0.010924901889224348 -0.025085315116078949 -0.037071430465700668 -0.022590826043265344 0.023305062197354617 -0.038188596104598474 0.076218417281278983 0.02138279614448254 0.051466587111353546 0.0012545599451117559 0.0204962205975153 0.024153435163559292 0.0084843334691904141 0.053289318779914309 0.043473413588814035 0.021897060758653174 -0.01089725228587211 -0.029769421689661901 -0.0061909414462692491 0.0059961649230150767 0.00056985614783908037 -0.037254210281450997 -0.038391548408781485 -0.021778260318251957 -0.03923499542788085 -0.075650370907052955 0.010496114043448272 -0.0015871032315661832 0.0017389072744947818 -0.058489738428603777 -0.020780402270554652 0.017832814629334486 -0.048634595577784101 -0.0044345904663854741 -0.003551391745419602 0.021499083023360677 -0.028820575679926547
leaf_weight=45.031112122349441 243.53251157142222 2292.0712721701711 604.19767942698672 403.29308989271522 94.294630808755755 1114.5525079835206 957.336774405092 756.11474498733878 242.20734835322946 1433.4666461804882 29.333168974146247 143.47692659124732 152.5395448282361 42.699849376454949 120.61177739500999 82.485693860799074 382.55075242929161 471.65777164883912 87.853183329105377 451.77616022527218 296.48114308156073 229.32655761949718 165.53851648140699 496.02290020789951 38.851585634518415 71.799953483976424 151.1327733527869 236.1572845261544 372.77667330065742 600.17077436763793 276.32072759326547 131.28705774620175 219.06112597603351 37.783260643482208 655.55878307577223 70.914101507514715 148.26379685476422 39.584253042936325 476.96126176789403 9.2257788479328138 1872.7975660413504 1546.6738256905228 240.06652598362416 314.08683613315225 71.59391064196825 615.66652125306427 148.05395228415728 143.49294352252036 213.20750471856445 789.59617976099253 48.442878369241953 265.96462234854698 189.92285331524909 287.37650054320693 378.01410378376022 288.45928062498569 37.654607847332954 18.787112942896783 186.885946768336 15.767355550080536 52.417739631608129 85.37474527861923
leaf_count=719 1499 6908 11297 1419 1344 4978 3440 2065 1248 7119 131 815 389 178 271 224 1439 2869 395 3051 2445 1524 2481 4266 634 438 901 2195 2136 2065 3518 286 970 107 3017 269 455 151 1298 41 6564 10405 2176 2238 207 2972 753 1147 1581 9066 477 913 595 1801 5658 2473 193 168 989 112 296 676
internal_value=5.52475e-05 0.00930337 -0.0314473 0.0199389 -0.0022777 -0.00632257 0.0169636 0.0295134 -0.00243096 0.00312161 0.0198706 0.0151782 0.0235461 0.0243516 0.0589863 0.0275321 0.0250519 -0.0226721 0.0101782 -0.0104846 -0.0296872 -0.026658 -0.0313407 -0.0209108 -0.00775983 -0.0326911 0.0138533 -0.0255815 -0.00541954 0.0121195 -0.0580766 0.0582795 0.0155946 -6.87533e-05 -0.00547962 -0.0104791 0.00247776 -0.026991 0.0425722 -0.0453662 0.019086 -0.0143379 -0.0112456 -0.016978 0.0363336 0.00605692 -0.0241406 -0.0152478 -0.0161846 -0.0430766 -0.0438975 0.015761 0.00972096 -0.00985056 -0.0489172 -0.0231044 -0.0162658 -0.00148415 0.007442 -0.0563172 -0.00514881 -0.00965725
internal_weight=22684.6 17537.1 5147.46 9141.61 8395.53 6937.97 1457.56 4613.54 5948.51 3520.97 1412.52 1262.58 1109.88 3308.87 149.945 2888.39 2674.62 3873.16 4528.08 2427.54 989.463 2870.19 2033.47 1078.33 510.509 567.823 3332.87 895.168 1806.24 1714.72 1274.3 213.773 3110.82 1195.21 891.466 222.047 420.471 82.2841 1304.67 152.703 2276.09 1998.45 1002.97 610.568 827.709 834.728 235.907 836.726 759.438 955.135 284.6 303.748 338.187 519.371 670.102 469.607 326.114 306.164 429.093 393.781 367.119 314.701
internal_count=132455 78582 53873 32086 46496 40690 5806 13806 31991 16298 5087 4685 3829 10236 402 8857 8347 33288 18280 15693 8699 26063 19754 8207 3503 4704 13095 7355 9255 7043 20585 510 11925 5185 4165 1170 1379 329 3570 856 7983 13456 7225 4683 2272 3942 1148 6309 5726 11547 2672 1020 1050 3550 9288 3813 2666 1969 2237 5770 2496 2200
is_linear=0
shrinkage=0.05


Tree=11
num_leaves=63
num_cat=0
split_feature=32 0 1 32 28 0 0 32 81 1 25 90 1 1 1 1 81 25 6 0 31 28 26 2 28 25 57 23 28 81 32 2 2 101 1 90 11 28 81 22 28 6 21 81 28 25 100 28 50 29 22 81 101 0 32 8 54 22 28 68 28 1
split_gain=2342.89 923.178 473.872 393.753 317.737 196.84 134.532 128.712 126.328 156.522 105.66 102.107 86.5259 80.6459 79.1547 78.4534 105.479 77.2656 74.4654 57.3031 66.0151 54.6276 49.87 69.5163 51.2859 49.235 49.2006 49.0749 46.279 41.5635 41.5081 39.7174 39.5045 36.7451 35.4619 97.1269 35.0147 34.7826 34.0228 47.9587 32.1601 31.8741 31.7082 31.2927 31.0444 28.5918 27.081 26.4258 25.7709 25.0604 24.3737 23.8683 23.1502 22.1671 20.7188 20.0002 19.7829 19.6511 19.3384 19.1407 18.3011 17.2536
threshold=11.481409344203417 0.16001024065540195 0.17045000000000002 24.755157391623246 0.16665000000000005 0.055096836864792671 0.04773296878560037 5.6733120710715843 0.13392857142857145 0.069200000000000025 1.0000000180025095e-35 1.5000000000000002 0.36940000000000012 0.038750000000000007 0.14375000000000002 0.33810000000000001 0.2678571428571429 1.5000000000000002 0.21352583586626142 0.038535788535788547 2.4900000000000007 0.084642857142857172 1.0000000180025095e-35 0.27325000000000005 0.33336969696969704 1.0000000180025095e-35 0.57321428571428579 1.5000000000000002 -0.020816666666666647 0.41428571428571431 4.3369132073386982 0.27325000000000005 0.050650000000000008 0.0093607305936073085 0.091300000000000006 1.5000000000000002 8.5000000000000018 0.27728636363636366 0.5634920634920636 1.0000000180025095e-35 0.023636363636363626 0.11215932914046123 3.5000000000000004 0.23611111111111113 0.39408636363636373 1.5000000000000002 0.4250000000000001 0.24113333333333337 1.092329545454547 8253.4523809523835 0.47222222222222227 0.5277777777777779 0.011187214611872148 0.021528550241008533 14.125578543511102 0.36939571150097467 0.13397435897435903 0.31666666666666671 -0.016434615384615405 0.75003496503496514 0.38916666666666672 0.36940000000000012
decision_type=10 2 10 10 10 2 2 10 10 10 10 2 10 10 10 10 8 10 10 2 8 10 8 10 8 8 8 2 10 10 8 10 10 8 8 2 2 10 10 8 10 10 2 8 10 8 8 10 2 8 10 10 8 2 10 10 8 10 10 10 10 8
left_child=1 4 8 6 5 33 61 15 9 21 18 13 19 -7 40 16 17 -4 -11 -6 48 52 24 34 41 59 60 -18 -10 -16 51 -12 -5 50 35 -24 43 -22 45 -40 -13 54 44 -27 -30 -17 -15 -28 -21 -32 -1 -14 -3 -35 -8 -38 -44 -53 -55 -9 -25 -2
right_child=3 2 7 32 12 11 22 25 28 10 31 14 30 46 29 38 27 -19 -20 20 37 -23 23 26 -26 36 47 -29 42 -31 49 -33 -34 53 -36 -37 55 -39 39 -41 -42 -43 56 -45 -46 -47 -48 -49 -50 -51 -52 57 -54 58 -56 -57 -58 -59 -60 -61 -62 -63
leaf_value=-0.015517085372999576 -0.046344522217357895 -0.0060564626809966292 0.040593646701891986 -0.066810117997132032 -0.02057303394768778 -0.026159674878491357 0.0098490401654691903 0.031376162482520197 -0.029667498375734788 0.027501794445178637 -0.028942094370174327 -0.027631169766841573 0.049612410146359059 0.032669223265031064 0.0011548209126825946 0.061169816165511905 -0.0084029570913752502 0.012986437755813318 -0.0046456734596109659 0.00018735945741369601 0.0058388250500668835 0.0041258488543106913 0.040471396655374227 -0.0081265203893944472 -0.067378467235729614 0.014100333869544266 -0.033034489442390846 0.020673149741208142 -0.014192124869358759 -0.031607600357344313 -0.055159691968455632 0.0074022725830969766 -0.048015997851889126 -0.053751622785172509 -0.051101334328133144 -0.041220780826910428 0.025065486369514525 0.020879566073587905 -0.0054256623220475426 0.041118638433698396 -0.01343651087621581 -0.034877468111546045 -0.0015009245494850452 -0.011434244699528778 0.029777856564311846 0.041151614855857332 0.0046498451283115165 -0.01172780961075078 -0.019641767049613696 0.014477898565097925 0.063171240971819684 -0.028798089484148096 -0.030316515535309948 -0.048399834778076231 -0.00809388805386951 -0.00032800702425211475 0.017705453968818383 0.035590992473999106 -0.028271330364012345 -0.009722036739463414 0.040948404905631501 -0.029798235359621891
leaf_weight=102.97057903371751 550.24763618875295 176.23535213619471 1479.9477592296898 559.88373558921739 221.66780907195061 105.47053669765592 267.22525697480887 436.99147456139326 180.08037477359176 1763.8422085233033 80.409908641129732 685.2135157212615 192.38300704583526 250.43826499953866 994.97674333117902 355.53826157748699 180.26067003235221 307.91528457403183 200.02590749785304 479.40510163269937 1022.352344667539 595.68005880713463 45.733231335878372 633.84736060444266 32.856027725152671 210.10418691299856 444.02285611350089 729.01304323971272 519.54199365153909 106.20916769094765 13.381974969059227 976.5710386801511 601.40669552097097 190.53370676375926 262.3135275086388 164.2563694678247 330.53612742573023 617.42422653734684 69.824036624282598 258.73094386979938 968.69818440731615 76.059694802388549 343.67461430467665 276.94697370007634 42.50286478549242 388.17114984244108 132.50165288150311 219.81511778011918 247.54156038723886 125.65137294214219 9.8668561540544015 18.936263106763363 224.96749705448747 169.36961897369474 400.87032947130501 100.67363587766886 218.24922430515289 28.20612695068121 441.37542694341391 29.653475508093834 18.573801770806313 235.15127009991556
leaf_count=913 9563 783 3781 11229 2510 695 1292 1102 746 5032 405 6071 550 796 5627 916 602 874 628 2492 5084 2512 172 4266 553 607 3228 1984 1883 747 78 3292 8844 3631 2605 1526 929 2575 219 687 6616 564 1095 961 131 1061 610 1422 1276 512 42 80 1171 2549 2553 310 685 75 5781 86 78 2768
internal_value=9.4169e-05 0.00833523 0.0177781 -0.0320448 -0.00554953 -0.0144683 -0.0233351 0.0285826 0.00730925 0.0116978 0.017366 -0.0086851 0.00694747 0.0123614 -0.0124211 0.0333737 0.0287985 0.0358517 0.0242242 0.00367456 0.00595543 -0.00547374 -0.0177764 -0.0223712 -0.00717823 0.015524 -0.0164382 0.0149005 -0.00620651 -0.00202638 0.0292442 0.0046079 -0.057131 -0.0349513 -0.0388257 -0.023298 0.00877911 0.0115144 0.0448398 0.0312255 -0.0193335 -0.0044267 -0.00242015 -0.000402569 -0.0108112 0.0507975 0.0230246 -0.026015 -0.00657574 0.00739353 -0.00809793 0.0418232 -0.0197138 -0.0387118 -0.000905599 0.0191383 0.00596808 0.00956223 -0.0339315 0.0287386 -0.00666122 -0.0414411
internal_weight=22112.9 17600.7 10476.1 4512.26 7124.57 4157.62 3350.97 5154.31 5321.78 4017.73 3020.85 3243.51 2966.95 488.41 2755.1 3769.4 2697.14 1787.86 1963.87 2588.39 2366.72 996.883 2565.57 1788.56 777.011 1384.91 1316.26 909.274 1304.05 1101.19 378.559 1056.98 1161.29 914.116 472.303 209.99 918.261 1639.78 1072.26 328.555 1653.91 744.155 1123.97 487.051 562.045 743.709 382.94 663.838 726.947 139.033 112.837 239.525 401.203 801.279 668.096 431.21 561.924 47.1424 610.745 466.645 652.421 785.399
internal_count=132455 81792 32482 50663 49310 34078 30590 14119 18363 13823 9357 21162 15232 2101 19061 10124 7241 4655 5660 13937 11427 4466 18259 13297 4962 3995 8994 2586 4540 6374 1295 3697 20073 12916 4303 1698 2807 7659 2883 906 12687 4409 3794 1568 2014 1977 1406 4650 3768 590 955 705 1954 11961 3845 1239 1780 155 8330 1188 4344 12331
is_linear=0
shrinkage=0.05


Tree=12
num_leaves=63
num_cat=0
split_feature=32 1 0 32 0 25 90 0 0 20 33 28 20 33 3 0 28 0 1 6 0 25 1 25 1 2 26 3 2 28 6 2 2 28 1 24 3 2 82 0 10 6 3 24 1 59 59 24 2 20 28 47 1 32 1 3 24 90 2 24 2 26
split_gain=2078.32 816.295 417.352 363.112 281.578 124.156 122.476 120.239 118.592 115.718 175.027 115.564 114.876 108.285 96.4424 76.3384 73.4568 63.0296 62.9247 72.2324 59.5656 57.5226 83.1425 51.4044 47.277 43.201 48.2689 55.1775 44.6508 43.0288 42.7771 42.7383 42.6829 42.6823 40.5035 45.6018 39.4137 37.295 36.2237 30.6285 28.5523 27.8307 27.8189 24.1924 31.1129 23.7045 22.9833 22.4896 22.3877 20.5879 19.8828 19.0883 19.045 18.5089 18.2893 17.6245 16.8695 21.4004 16.8612 16.7765 16.1115 20.0099
threshold=11.481409344203417 0.17045000000000002 0.10050505050505053 24.222492460371537 0.24099883855981422 1.0000000180025095e-35 1.5000000000000002 0.04773296878560037 0.24099883855981422 0.41428571428571431 90.500000000000014 0.29168333333333346 0.17424242424242428 74.500000000000014 5.5000000000000009 0.05571073867163253 -0.25941666666666657 0.44949494949494956 0.08585000000000001 0.21132376395534294 0.037105879113314068 1.0000000180025095e-35 0.087200000000000014 1.0000000180025095e-35 0.32915000000000005 0.077900000000000011 1.0000000180025095e-35 10.500000000000002 0.28485000000000005 0.12116969696969702 0.1856158484065461 0.38730000000000003 0.050650000000000008 0.049901748251748264 0.54860000000000009 0.66485294117647065 11.500000000000002 0.5031500000000001 0.10555555555555557 0.26671408250355622 0.083920187793427234 0.11215932914046123 16.500000000000004 0.60332244008714608 0.60770000000000002 8.5000000000000018 11.500000000000002 0.51808278867102409 0.24265 0.23611111111111113 0.12501666666666669 2.5000000000000004 0.21245000000000006 35.466773858420048 0.10050000000000002 24.500000000000004 0.11360294117647061 1.5000000000000002 0.64785000000000004 0.25904139433551204 0.36190000000000005 1.0000000180025095e-35
decision_type=10 10 2 10 2 10 2 2 2 10 8 10 8 8 2 2 10 2 10 10 2 10 10 10 10 10 8 2 10 10 10 10 10 10 10 10 2 10 8 2 10 10 2 10 10 2 2 10 10 10 10 2 10 10 8 2 10 2 10 8 10 10
left_child=1 2 6 7 5 9 16 56 18 10 24 14 -12 51 31 -16 -1 34 33 23 58 22 40 -20 -3 -9 41 28 -28 48 -24 -7 -5 59 35 38 50 -37 -6 -29 -10 46 49 52 -45 -38 -27 -35 -22 -18 -23 -11 -13 -34 -31 -21 57 -2 -8 -4 61 -19
right_child=3 4 8 32 17 11 20 25 21 13 12 43 -14 -15 15 -17 42 60 19 55 29 36 30 -25 -26 26 27 39 -30 54 -32 -33 53 47 -36 37 45 -39 -40 -41 -42 -43 -44 44 -46 -47 -48 -49 -50 -51 -52 -53 -54 -55 -56 -57 -58 -59 -60 -61 -62 -63
leaf_value=-0.068422812794317847 -0.01185984663975985 0.02054680218313315 -0.014836364511910494 -0.065681665278713816 0.041045429262390021 -0.07586112674269907 -0.046178016292413651 -0.057672179636498101 -0.001286377166219758 -0.046680210766269215 -0.048653134811765621 0.0049761560742438617 0.024098979686331762 0.071733224716061847 -0.030277099877153924 0.0054190077207023069 0.011495684211904505 0.045184870598047842 0.0126666590023638 -0.021350386833500577 -0.043845742044267402 -0.044237138656175151 0.028260386047093994 -0.0030022409975948572 0.050543263327793575 -0.0076458396866367325 -0.063745797625615205 -0.017108203461358867 -0.026604744487184879 -0.024062125772791959 0.0058030584864580646 -0.0215088657207217 -0.039330665314507934 -0.000267513686466491 0.053267070027199631 -0.033704670745349573 -0.0027068327744843371 0.015043606573459156 0.024938842501022573 0.0090058155569342473 0.022217961947314721 -0.034226246359240348 -0.022923951399179313 0.0035137549505889587 0.047222052816835933 0.015428001111234569 0.013068853842983364 -0.027708548892944013 -0.024153754471169409 0.067248331935962039 -0.0080878217693085494 0.015734215717053312 0.028436267109499092 -0.058144190291182757 -0.0054026423537127848 -0.0035987384636852887 -0.044193634813352062 -0.047264684522101981 0.040222676282857167 -0.034527250601399093 0.046186158270993427 -0.030549716940119011
leaf_weight=31.899759263731539 107.61756585258991 1028.8439689483494 256.51217524707317 524.23152965679765 445.86847950518131 49.219145839102566 319.86036672443151 62.443064153194427 642.76540633104742 13.461929783225058 151.24857161939144 104.11079163849354 83.437003985978663 199.90815084427595 166.15215369407088 1438.739727281034 351.26835061237216 17.631256848573685 1370.4242930412292 308.67559645324945 176.68274833541363 57.697406867519021 1068.6116506680846 845.30019961856306 150.78756121918559 449.70491049438715 100.72575160302222 1050.7494443841279 421.78321576677263 186.544214094989 265.96488270536065 135.80245890282094 398.68443168327212 620.28931255452335 144.15240877866745 47.15610808506608 369.26935236901045 210.49381751567125 1685.486816380173 124.81780150905252 160.58719227649271 71.321610104292631 57.507514491677284 339.4615412959829 45.356399167329073 349.75098740309477 189.44335156306624 83.947719603776932 850.45447655860335 16.496414352208376 111.05612998828292 78.835145056247711 541.89715920109302 209.70775320893154 444.47412721253932 257.21319941803813 559.40614619897678 71.373011248186231 4.9628744684159747 191.54947474878281 668.42237431928515 15.39640638232231
leaf_count=617 1074 3921 1510 11297 1092 628 6098 967 2701 69 939 456 347 533 2206 6231 1747 62 5289 1629 2391 305 2886 4147 426 2613 1112 7982 3257 1492 739 855 5831 2886 407 160 1092 581 4355 495 481 549 467 1350 107 995 1050 428 8661 46 391 317 1811 3457 3292 1220 9591 1388 29 1341 2014 45
internal_value=0.00011978 0.00793904 -0.00196983 -0.0307791 0.0199382 0.0118826 -0.0197587 -0.0221748 0.00426844 0.0225251 0.0165788 0.00543647 -0.0227741 0.0511343 -0.00224247 0.00170377 0.00355511 0.0312044 -0.0014547 0.00261432 -0.0251352 0.0117091 0.0161501 0.00668805 0.0244249 -0.0168688 -0.0157853 -0.0203629 -0.0338822 -0.0212704 0.0237964 -0.0363245 -0.0551147 -0.0112752 0.0275047 0.0259265 0.00100277 0.00600636 0.0283283 -0.014326 0.00342762 -0.00482443 0.00911377 0.0187642 0.00878742 0.00611667 -0.00148738 -0.00358033 -0.0275853 0.0141857 -0.0206646 0.00617444 0.0246767 -0.0459085 -0.0109561 -0.0133111 -0.0398775 -0.0261896 -0.0447232 -0.0233236 0.0445 0.00987271
internal_weight=21503.6 17161.6 9399.77 4342.01 7761.87 4527.26 2440.15 3209.39 6959.61 1706.52 1414.32 2820.74 234.686 292.205 1789.91 1604.89 457.172 3234.61 3933.91 2781.61 1982.98 3025.7 2137.93 2215.72 1179.63 2470.99 2408.55 1698.08 522.509 1658.16 1334.58 185.022 1132.62 1152.3 2533.16 2389.01 887.774 257.65 2131.36 1175.57 803.353 710.47 425.272 1030.83 384.818 719.02 639.148 704.237 1027.14 367.765 168.754 92.2971 646.008 608.392 631.018 565.889 738.397 178.991 324.823 448.062 701.45 33.0277
internal_count=132455 81792 52880 50663 28912 20196 24840 30078 28040 6552 5633 13644 1286 919 9920 8437 2877 8716 18450 12285 21963 9590 6807 9436 4347 18025 17058 12846 4369 15836 3625 1483 20585 6165 6595 6188 2783 741 5447 8477 3182 4212 2260 3724 1457 2087 3663 3314 11052 1793 696 386 2267 9288 4784 2849 12053 2462 6127 2851 2121 107
is_linear=0
shrinkage=0.05


Tree=13
num_leaves=63
num_cat=0
split_feature=32 32 1 0 0 28 32 2 1 81 1 81 25 90 0 0 1 90 1 20 33 24 90 1 101 101 90 1 0 23 81 2 24 0 28 10 81 1 1 97 2 101 24 4 2 81 32 38 10 99 2 28 28 66 20 101 24 26 3 28 20 28
split_gain=1886.43 572.205 570.694 273.488 258.723 146.903 125.626 104.42 88.9693 87.3667 80.831 99.5985 73.3324 71.8716 65.4727 62.0475 64.7415 87.7271 54.2118 50.1952 105.861 98.9305 44.0946 44.0008 42.7594 41.7171 41.6511 62.8161 40.4048 37.5985 36.1476 35.0617 37.1826 34.2938 33.2072 33.1534 32.9464 45.6101 32.0554 32.0365 31.2628 30.1858 30.1242 29.6244 29.2096 29.0573 28.6773 26.6017 25.0166 24.5482 23.8368 23.7622 23.2773 22.7848 28.5127 22.4514 22.2451 22.0474 31.1203 22.4637 20.5851 23.1066
threshold=8.7617417531600719 18.818424684586336 0.21475000000000002 0.21980676328502419 0.060060601688189892 0.12501666666666669 5.6733120710715843 0.072300000000000017 0.12025000000000001 0.21111111111111114 0.57515000000000016 0.38750000000000007 1.5000000000000002 1.5000000000000002 0.063898415809243853 0.14599317988064794 0.026500000000000003 1.5000000000000002 0.26395000000000007 0.11805555555555557 87.500000000000014 0.17970588235294119 1.5000000000000002 0.08585000000000001 0.022602739726027398 0.027625570776255711 1.5000000000000002 0.14595000000000005 0.071685508735868458 1.5000000000000002 0.13392857142857145 0.27810000000000007 0.42029411764705893 0.043573191570153796 -0.025000000000000005 0.14017543859649126 0.21111111111111114 0.11785000000000002 0.070000000000000021 2.3065654962126669 0.41970000000000002 0.038127853881278546 0.38074074074074077 0.46410256410256417 0.24265 0.31666666666666671 15.698477108326633 0.69823868719936455 0.083920187793427234 14.865235504291503 0.29200000000000009 -0.10634285714285711 -0.035707142857142847 1.0000000180025095e-35 0.47222222222222227 0.0084474885844748864 0.29875000000000007 1.0000000180025095e-35 21.500000000000004 0.42859285714285722 0.27922077922077926 0.31175000000000003
decision_type=8 10 10 2 2 10 10 10 10 10 10 8 10 2 2 2 10 2 10 10 8 10 2 10 8 8 2 8 2 2 10 10 10 2 10 10 10 10 10 8 10 8 8 10 10 8 8 8 10 10 10 10 10 2 10 8 10 8 2 10 10 10
left_child=2 4 3 5 22 13 10 -3 30 24 11 12 18 38 -15 26 31 35 -4 20 -13 -21 46 -19 43 -16 27 51 39 -11 48 -17 -33 -9 -28 -18 37 -30 -1 -7 -14 49 -40 -10 -29 53 56 -26 -5 60 -24 -6 -31 54 -43 -50 -2 -35 59 -59 -8 -62
right_child=1 7 6 8 15 28 41 33 9 29 -12 19 40 14 25 16 17 23 -20 21 -22 -23 50 -25 47 -27 34 44 36 52 -32 32 -34 57 -36 -37 -38 -39 42 -41 -42 45 -44 -45 -46 -47 -48 -49 55 -51 -52 -53 -54 -55 -56 -57 -58 58 -60 -61 61 -63
leaf_value=-0.021275601528115057 0.00065489898501229493 -0.064143575746669165 0.028843335852903624 0.001527270925491377 0.054491768475227645 0.018986219344284468 0.027761543207955649 -0.048589596040277461 0.034411737414147582 -0.039383234751511453 0.054704012002701891 0.018316862520013633 -0.018369151988679663 -0.033832748117342264 -0.0059421813214796289 -0.034295111618636041 0.037183161266228455 -0.016854724048034144 0.046798158491938045 0.064503877617285307 -0.041157526642087966 0.014290164211143586 -0.048547199385606879 0.0038318194262026446 -0.032161973319225858 -0.021268765989011607 -0.031961046788048141 -0.036899888789399309 -0.00012043759405655388 -0.03016248399531174 -0.012742512258331451 -0.0017024411605965557 -0.042264698442598905 -0.018740813752009262 -0.013838821405766678 -0.00077491979507052678 -0.0052374860312708856 0.017265535071046455 0.022227258969937339 -0.015472663329596828 0.021151921880287701 -0.0072688215274528791 -0.044553774526662503 0.0016003987318098875 -0.0059522182809318668 -0.01383976887106303 -0.038013352929652466 0.017984197727261189 0.036737715793738711 -0.0072186092218459175 -0.031794967236225546 0.011893239062143504 0.0097168760076912601 0.04583410435990963 0.036660007838959001 0.010729137553790473 -0.037128756991445293 -0.050127708080499038 -0.01594975909494464 0.0030783148879052137 -0.0023689293655905176 0.027734365514040946
