tree
version=v4
num_class=1
num_tree_per_iteration=1
label_index=0
max_feature_idx=18
objective=binary sigmoid:1
feature_names=seq_type_code num_legs leg1_top_wp leg2_top_wp leg3_top_wp leg4_top_wp leg5_top_wp leg6_top_wp avg_leg_wp min_leg_wp avg_field_size max_field_size min_field_size field_variance track_cond_bucket venue_type total_combos estimated_return_pct hit_probability
feature_infos=[1:4] [3:6] [0.15749551213340046:0.99762866938419026] [0.14262820586307889:0.99762866938419026] [0.14703371981932972:0.99748006537361344] [0:0.99693883477551781] [0:0.99186555967438561] [0:0.9936060973353793] [0.23049619499853397:0.98820534992920628] [0.13670328527747108:0.98318506271726713] [3.6666666666666665:15.5] [4:20] [3:14] [0:13] [0:5] [1:3] [1:729] none none
tree_sizes=2642 3380 3154 3164

Tree=0
num_leaves=25
num_cat=0
split_feature=1 1 8 8 3 10 10 8 9 8 10 2 9 3 2 2 3 3 9 2 15 4 2 4
split_gain=8435.05 11010.5 7699.06 805.655 791.9 536.598 513.668 230.894 148.699 111.989 87.4685 78.6973 45.3358 30.9577 45.6884 28.8078 25.715 12.6104 7.95004 7.86632 20.6633 27.7448 4.20214 0.858304
threshold=5.0000000000000009 3.5000000000000004 0.76219554856127492 0.47455031203226344 0.42926159456241159 13.29166666666667 12.208333333333334 0.63288741583291408 0.25182192084848287 0.88094784457576525 11.41666666666667 0.61141178458297729 0.19419817789571112 0.28266549355700049 0.33861190990168349 0.41729726115972721 0.89499088242744873 0.32142909127024449 0.43192273780928664 0.65164606393041991 2.0000000000000004 0.27695856288321546 0.23592654180601313 0.80167562143426585
decision_type=2 2 2 2 2 2 2 2 2 2 2 2 2 2 2 2 2 2 2 2 2 2 2 2
left_child=1 2 4 6 -1 -6 11 8 -5 16 12 -3 -2 14 -14 -8 -4 -15 -9 20 21 -12 -22 -11
right_child=10 3 9 7 5 -7 15 18 -10 23 19 -13 13 17 -16 -17 -18 -19 -20 -21 22 -23 -24 -25
leaf_value=9.4453098549778645 9.9012001458536378 9.242303776607347 9.3289291817544999 9.4191710550634529 5.2080752919790028 9.7804670866940935 9.727324217146494 9.9356580764253408 9.7777303887863205 9.9518325666652139 10.022203129389194 9.6996493683065914 10.021617417800813 10.022908254514252 9.8562004221601942 9.9313554631010259 9.9599091254324517 10.001170034268847 10.007145126684055 10.032339411489604 10.033074974324201 9.9413006203799501 10.017395707726601 10.006121243561063
leaf_weight=0.43474629081902039 10.235076444547301 15.219215643242938 1.2613350035499027 3.0562896524679699 1.6926003434891752 0.16234771686504235 3.8706418053225198 7.0622757646888186 22.369106174806802 0.15247641825771985 24.28490376298214 2.8701101778024158 7.3016688045354368 83.085601090140699 7.6766034837564803 3.8100369083294936 0.27765750309117709 357.2034778867237 6.5589068846857117 468.80305460955788 129.16871329476271 17.232666400308517 85.247678605766851 0.95428180429735221
leaf_count=39 45 846 401 123 884 20 91 278 1097 38 11 114 7 61 55 60 92 1028 458 84 5 69 98 167
internal_value=9.98597 9.45555 7.38998 9.64994 5.76487 5.39495 9.43677 9.80091 9.71469 9.56934 10.0175 9.29589 10.0005 10.0029 9.93444 9.8102 9.38637 10.0054 9.96963 10.0283 10.0208 9.98828 10.027 9.98443
internal_weight=1259.99 69.752 4.93545 64.8166 2.28969 1.85495 25.77 39.0466 25.4254 2.64575 1190.24 18.0893 465.502 455.267 14.9783 7.68068 1.53899 440.289 13.6212 724.737 255.934 41.5176 214.416 1.10676
internal_count=6171 4708 1641 3067 943 904 1111 1956 1220 698 1463 960 1196 1151 62 151 493 1089 736 267 183 80 103 205
is_linear=0
shrinkage=1


Tree=1
num_leaves=31
num_cat=0
split_feature=0 8 7 8 10 4 10 3 10 10 10 8 8 3 9 11 7 8 3 2 7 9 12 4 3 10 8 2 3 4
split_gain=2116.82 282.135 259.084 149.422 114.765 127.549 111.635 123.031 105.135 86.1825 82.9996 65.5436 63.5695 55.077 29.4108 56.3212 26.1212 22.5346 22.3467 7.5419 24.6858 7.0189 9.51044 6.77342 4.70679 3.86582 2.97602 2.20736 1.51711 0.556685
threshold=2.5000000000000004 0.63288741583291408 0.19171100737146426 0.76219554856127492 8.2083333333333339 0.44361780731525552 6.5833333333333348 0.60960676078396225 8.7083333333333339 11.208333333333334 11.41666666666667 0.57235743831189734 0.82661573439458669 0.39474447358797921 0.22811921273399588 12.500000000000002 0.30216394684959219 0.76514753719807338 0.43125221012000003 0.65164606393041991 0.28256310227716491 0.43192273780928664 7.5000000000000009 0.83529301755952878 0.31050102357827214 9.7083333333333339 0.67179016947633186 0.61468929570608555 0.85755859806070334 0.58587535349593545
decision_type=2 2 2 2 2 2 2 2 2 2 2 2 2 2 2 2 2 2 2 2 2 2 2 2 2 2 2 2 2 2
left_child=1 4 3 6 5 24 7 -2 18 -10 14 -8 17 -7 15 -4 -16 -5 -6 20 -12 22 25 -14 -1 -3 -24 28 -23 -29
right_child=2 21 10 12 8 13 11 -9 9 -11 19 -13 23 -15 16 -17 -18 -19 -20 -21 -22 27 26 -25 -26 -27 -28 29 -30 -31
leaf_value=-0.11916550082403297 -0.42502117490420832 -0.1277168940238336 -0.099475155148169167 0.0033627063790384764 -0.0086521438382926707 -0.44246504742482529 -0.073575352479045522 -0.050021974387708272 -0.31560108706985185 -0.18281324383156297 0.045634470983146505 0.001294613272437589 -0.12148360391111249 -0.074164384261371147 -0.019310065488698222 0.014152289825822638 0.025003919839295681 -0.53504488496727287 -0.17367046681478016 0.04809285854614239 0.0086014652110253751 -0.062706701313067922 0.03449286174379642 0.01972721625941401 -0.79748615651141286 -0.00091890094518509496 -0.033464857317065319 0 0.014271925840794798 0.040171324407513205
leaf_weight=0.44827605813043137 2.4615886990868585 2.0666471387012266 14.353503281985466 0.17929664420080316 6.5867321184814482 0.91891047689568939 34.509149961551884 6.9292981182225049 33.586516180868784 29.045090545128915 183.30636140538627 164.48744129448096 1.5949651328155598 3.3892396707633452 35.717886351314519 36.796408848866122 365.22436596155239 1.2134964260403647 2.1072167402417108 446.79998287314083 60.713828573494538 0.28651938033726754 2.5463563571684062 0.81675133290991642 1.5900052285287527 0.86567077159634198 1.9353110469382953 0.98983724703066389 0.53937161440262571 4.5948172737116693
leaf_count=19 59 150 78 15 66 78 209 72 1103 545 42 628 288 216 143 67 891 250 102 83 134 54 43 145 202 26 59 95 30 279
internal_value=0.0079665 -0.223466 0.0237498 -0.0268819 -0.260081 -0.466574 -0.0203988 -0.180243 -0.235442 -0.257941 0.0331696 -0.011967 -0.302791 -0.22222 0.016444 -0.0189336 0.0210056 -0.491206 -0.062954 0.0440686 0.0365135 -0.0137435 -0.0444834 -0.0804306 -0.738272 -0.101308 0.00348329 0.0223387 -0.0294123 0.0340557
internal_weight=1446.6 91.4965 1355.1 212.192 77.672 6.34643 208.387 9.39089 71.3256 62.6316 1142.91 198.997 3.80451 4.30815 452.092 51.1499 400.942 1.39279 8.69395 690.82 244.02 13.8245 7.41399 2.41172 2.03828 2.93232 4.48167 6.41055 0.825891 5.58465
internal_count=6171 3067 3104 1666 2331 515 968 131 1816 1648 1438 837 698 294 1179 145 1034 265 168 259 176 736 278 433 221 176 102 458 84 374
is_linear=0
shrinkage=0.05


Tree=2
num_leaves=29
num_cat=0
split_feature=0 7 8 8 8 5 9 14 4 0 2 5 12 4 2 12 5 8 9 9 7 5 2 4 4 12 9 2
split_gain=1594.62 242.586 156.173 116.341 83.157 70.1235 75.575 68.3639 66.0635 61.7984 58.6585 61.4559 47.8515 44.6133 32.7253 27.8238 23.0417 23.5741 15.8362 19.8353 13.539 8.4487 7.6927 5.33526 5.14894 4.968 5.37204 0.43797
threshold=2.5000000000000004 0.19171100737146426 0.63288741583291408 0.76514753719807338 0.57235743831189734 0.39515257273371523 0.27173468735751599 2.5000000000000004 0.29211136684746675 1.5000000000000002 0.91873250357543068 0.78685415026366701 8.5000000000000018 0.71096114768753271 0.90646505985753278 5.5000000000000009 0.31299314968698394 0.53058680507757738 0.26760925735846142 0.28082739588179889 0.38087673263291766 0.38622171088079366 0.90038433719572153 0.83529301755952878 0.80597719648829191 7.5000000000000009 0.43192273780928664 0.61141178458297729
decision_type=2 2 2 2 2 2 2 2 2 2 2 2 2 2 2 2 2 2 2 2 2 2 2 2 2 2 2 2
left_child=2 3 5 4 8 6 7 -1 -2 -8 11 -7 16 14 -5 -6 20 -18 22 -20 -3 24 -14 -15 -4 26 -23 -27
right_child=1 12 21 13 15 10 9 -9 -10 -11 -12 -13 18 23 -16 -17 17 -19 19 -21 -22 25 -24 -25 -26 27 -28 -29
leaf_value=-0.29287743453875276 0.038393207054122143 0.00092373476336223611 0 -0.034189763136179843 -0.052822395299415861 -0.29726080673008026 -0.0087080262913191049 -0.13493759005050618 -0.1179587398581507 -0.15173200580477228 2.2453697297012242e-05 -0.0759876563212213 0.036923420385407565 -0.10276210167849409 -0.48405577491782747 0.0039451299218010811 -0.0065569961877710477 0.024491553440461972 -0.043012646742220564 0.028644956281021657 0.040311561187950463 -0.076145107208556176 0.048615643787593497 0.019458995969205011 -0.14267240237941947 0 0.012317739358245521 0.034805455579065149
leaf_weight=14.442622310685691 8.0416872553105332 26.608861142984097 0.98925545532256254 0.72223518509417672 24.169272031751461 28.069959785119863 12.540678883877264 18.708795465288858 30.177660300782009 18.803054400123074 2.1012035595340413 4.5162655616441034 301.39992358134259 1.9129600389933332 1.2375801344969657 150.21263747734702 121.79162771557094 120.71387253002104 10.234783974083255 69.467947768953309 128.5068306048197 2.131269708828766 327.17693305838839 0.80079840424878046 0.7905935346861952 0.98259954296008789 3.1131590945296921 5.9094805550630554
leaf_count=269 8 66 48 54 177 1105 201 228 229 399 39 90 174 295 189 569 435 438 42 154 103 124 26 145 43 44 301 176
internal_value=0.00766598 0.0231183 -0.171689 -0.0250821 -0.0190003 -0.193501 -0.157568 -0.210453 -0.0847933 -0.096701 -0.253884 -0.269918 0.0326067 -0.248749 -0.387523 -0.00415064 0.0186316 0.00891486 0.0404079 0.0189624 0.0336361 -0.0133511 0.0430848 -0.0698215 -0.0920924 0.00394731 -0.0292687 0.0303621
internal_weight=1436.27 1323.18 113.099 217.275 212.601 99.1826 64.4952 33.1514 38.2193 31.3437 34.6874 32.5862 1105.9 4.67357 1.95982 174.382 397.621 242.506 708.28 79.7027 155.116 13.9164 628.577 2.71376 1.77985 12.1365 5.24443 6.89208
internal_count=6171 3104 3067 1666 983 2331 1097 497 237 600 1234 1195 1438 683 243 746 1042 873 396 196 169 736 200 440 91 645 425 220
is_linear=0
shrinkage=0.05


Tree=3
num_leaves=29
num_cat=0
split_feature=0 7 8 8 8 4 9 3 3 2 3 3 3 8 9 3 8 11 4 5 11 2 4 3 4 6 11 2
split_gain=1249.32 226.701 93.9685 89.8984 67.0514 51.3448 46.4038 80.6269 78.5306 74.3886 48.7997 43.1379 42.9454 55.8369 36.0506 33.0238 32.9093 23.6376 10.9097 7.651 5.7261 4.41788 5.07067 4.88377 4.4011 3.73216 2.59118 1.07514
threshold=2.5000000000000004 0.19171100737146426 0.63288741583291408 0.76514753719807338 0.57235743831189734 0.29211136684746675 0.25182192084848287 0.37703448151160651 0.9191854106204298 0.70644280218747424 0.48117781987639485 0.27500784777013043 0.87887442022431994 0.36999996110871919 0.22932678223396855 0.87221701041975519 0.57235743831189734 7.5000000000000009 0.71096114768753271 0.38622171088079366 11.500000000000002 0.65164606393041991 0.60765707201682473 0.72331252760871656 0.80597719648829191 0.21126678381587219 13.500000000000002 0.72760902945420558
decision_type=2 2 2 2 2 2 2 2 2 2 2 2 2 2 2 2 2 2 2 2 2 2 2 2 2 2 2 2
left_child=2 3 6 4 5 -2 7 11 -9 10 -8 -1 13 25 -15 18 -11 -6 -5 24 -17 23 -23 -21 -4 -3 27 -14
right_child=1 12 19 15 17 -7 9 8 -10 16 -12 -13 26 14 -16 20 -18 -19 -20 21 -22 22 -24 -25 -26 -27 -28 -29
leaf_value=-0.21276220369683579 0.037990552871721768 0.048958651904120069 0 -0.35906863933372546 -0.076198250888547037 -0.099943818424640729 -0.19766851673619418 -0.33165961243720082 0.012180276528302109 -0.0050339287889605506 -0.10117242429865098 -0.073151439559980602 0.02289671458717317 -0.022571554660213648 0.019670775653613002 -0.093094348727233878 -0.16270938477995939 0.00068013290356549842 -0.096366586968591322 -0.096426507061189437 0.027560530232275216 -0.028857970020718712 0.042777826826367722 0.011055553972562009 -0.13045507500391026 0.035702555642728534 0.048764008025619872 0.040473428678882442
leaf_weight=9.82703579679219 7.7388721373863509 147.56184085513814 0.98925545532256254 1.7989966102759347 9.6328590004122798 33.908615744541748 31.280171816608345 12.873374916634928 1.7760149997920951 16.170008606583 29.725379735988099 15.198809285378955 19.475604823237518 56.803300058636523 401.38869429387705 0.71212928447130286 3.207550704933964 165.45900311666992 1.6986285588500321 1.0146452745575509 1.4507577581534858 2.7408172205032297 6.6133736420451896 1.6960432428859347 0.91181813853836502 118.23460907929984 285.75204275415672 41.503287280269433
leaf_count=139 8 6 48 152 93 229 750 252 8 209 699 112 67 162 1030 215 162 653 194 62 122 176 298 109 43 74 39 60
internal_value=0.00739727 0.0224959 -0.137331 -0.0233475 -0.0176766 -0.073906 -0.151508 -0.198179 -0.29154 -0.126259 -0.153121 -0.134234 0.0320356 0.0250293 0.0143852 -0.204479 -0.0380831 -0.00392972 -0.282391 -0.0131411 -0.0274576 0.00369481 0.0205454 -0.0429729 -0.0861547 0.0432366 0.0465367 0.0354004
internal_weight=1427.14 1293.12 134.024 222.4 216.739 41.6475 120.058 39.6752 14.6494 80.3831 61.0056 25.0258 1070.72 723.988 458.192 5.66051 19.3776 175.092 3.49763 13.966 2.16289 12.0649 9.35419 2.71069 1.90107 265.796 346.731 60.9789
internal_count=6171 3104 3067 1666 983 237 2331 511 260 1820 1449 251 1438 1272 1192 683 371 746 346 736 337 645 474 171 91 80 166 127
is_linear=0
shrinkage=0.05


end of trees

feature_importances:
avg_leg_wp=19
leg2_top_wp=16
leg1_top_wp=14
leg3_top_wp=13
min_leg_wp=11
avg_field_size=9
leg6_top_wp=6
leg4_top_wp=5
seq_type_code=4
max_field_size=4
min_field_size=4
num_legs=2
leg5_top_wp=1
track_cond_bucket=1
venue_type=1

parameters:
[boosting: gbdt]
[objective: binary]
[metric: binary_logloss,auc]
[tree_learner: serial]
[device_type: cpu]
[data_sample_strategy: bagging]
[data: ]
[valid: ]
[num_iterations: 500]
[learning_rate: 0.05]
[num_leaves: 31]
[num_threads: 0]
[seed: 42]
[deterministic: 0]
[force_col_wise: 0]
[force_row_wise: 0]
[histogram_pool_size: -1]
[max_depth: 5]
[min_data_in_leaf: 30]
[min_sum_hessian_in_leaf: 0.001]
[bagging_fraction: 0.8]
[pos_bagging_fraction: 1]
[neg_bagging_fraction: 1]
[bagging_freq: 5]
[bagging_seed: 400]
[bagging_by_query: 0]
[feature_fraction: 0.8]
[feature_fraction_bynode: 1]
[feature_fraction_seed: 30056]
[extra_trees: 0]
[extra_seed: 12879]
[early_stopping_round: 0]
[early_stopping_min_delta: 0]
[first_metric_only: 0]
[max_delta_step: 0]
[lambda_l1: 0.1]
[lambda_l2: 1]
[linear_lambda: 0]
[min_gain_to_split: 0]
[drop_rate: 0.1]
[max_drop: 50]
[skip_drop: 0.5]
[xgboost_dart_mode: 0]
[uniform_drop: 0]
[drop_seed: 17869]
[top_rate: 0.2]
[other_rate: 0.1]
[min_data_per_group: 100]
[max_cat_threshold: 32]
[cat_l2: 10]
[cat_smooth: 10]
[max_cat_to_onehot: 4]
[top_k: 20]
[monotone_constraints: ]
[monotone_constraints_method: basic]
[monotone_penalty: 0]
[feature_contri: ]
[forcedsplits_filename: ]
[refit_decay_rate: 0.9]
[cegb_tradeoff: 1]
[cegb_penalty_split: 0]
[cegb_penalty_feature_lazy: ]
[cegb_penalty_feature_coupled: ]
[path_smooth: 0]
[interaction_constraints: ]
[verbosity: -1]
[saved_feature_importance_type: 0]
[use_quantized_grad: 0]
[num_grad_quant_bins: 4]
[quant_train_renew_leaf: 0]
[stochastic_rounding: 1]
[linear_tree: 0]
[max_bin: 255]
[max_bin_by_feature: ]
[min_data_in_bin: 3]
[bin_construct_sample_cnt: 200000]
[data_random_seed: 175]
[is_enable_sparse: 1]
[enable_bundle: 1]
[use_missing: 1]
[zero_as_missing: 0]
[feature_pre_filter: 1]
[pre_partition: 0]
[two_round: 0]
[header: 0]
[label_column: ]
[weight_column: ]
[group_column: ]
[ignore_column: ]
[categorical_feature: ]
[forcedbins_filename: ]
[precise_float_parser: 0]
[parser_config_file: ]
[objective_seed: 16083]
[num_class: 1]
[is_unbalance: 0]
[scale_pos_weight: 1]
[sigmoid: 1]
[boost_from_average: 1]
[reg_sqrt: 0]
[alpha: 0.9]
[fair_c: 1]
[poisson_max_delta_step: 0.7]
[tweedie_variance_power: 1.5]
[lambdarank_truncation_level: 30]
[lambdarank_norm: 1]
[label_gain: ]
[lambdarank_position_bias_regularization: 0]
[eval_at: ]
[multi_error_top_k: 1]
[auc_mu_weights: ]
[num_machines: 1]
[local_listen_port: 12400]
[time_out: 120]
[machine_list_filename: ]
[machines: ]
[gpu_platform_id: -1]
[gpu_device_id: -1]
[gpu_use_dp: 0]
[num_gpu: 1]

end of parameters

pandas_categorical:null
