tree
version=v4
num_class=1
num_tree_per_iteration=1
label_index=0
max_feature_idx=23
objective=binary sigmoid:1
feature_names=seq_type_code num_legs leg1_top_wp leg2_top_wp leg3_top_wp leg4_top_wp leg5_top_wp leg6_top_wp avg_leg_wp min_leg_wp avg_field_size max_field_size min_field_size field_variance track_cond_bucket venue_type total_combos estimated_return_pct hit_probability avg_class_bucket avg_distance_bucket prize_money_bucket has_chaos_leg wp_product
feature_infos=[1:4] [3:6] [0.15749551213340046:0.99762866938419026] [0.14262820586307889:0.99762866938419026] [0.14703371981932972:0.99748006537361344] [0:0.99693883477551781] [0:0.99186555967438561] [0:0.9936060973353793] [0.23049619499853397:0.98820534992920628] [0.13670328527747108:0.98318506271726713] [3.6666666666666665:15.5] [4:20] [3:14] [0:13] [0:5] [1:3] [1:729] none none [1:5] [1:5] [1:4] none [0.00038347141061145144:0.96498735157733118]
tree_sizes=2603 2988 2889 2675 2890 2890 2892 3103 2776 2885 3002 2567 2997 2778 2548 2775 2678 3001 2887 2885 2651 2761 2648 2664 2688 2765 3004 2686 2692 2898 3110 3001 2453 2575 3107 2474 2549 2564 2681 2468 2741 2470 2559 2440 1730 1951 1955 1954 2358 1950 2153 2991 2767 2476 1927 2688 2477 1938 2362 2030 2031 1953 1621 2340 2461 1626 1412 1515 3108 2572 2472 2787 1934 2564 2661 2248 2145 2047 2059 1939 2142 1836 1823 2145 1296 1943 2148 2325 1920 1617 2871 2575 2984 2585

Tree=0
num_leaves=24
num_cat=0
split_feature=0 23 10 23 5 2 9 9 9 19 23 23 5 9 19 13 2 10 23 19 12 4 4
split_gain=276.456 141.293 112.801 67.2784 35.9685 27.6382 21.0966 16.1051 14.3893 16.106 10.8936 10.0229 7.14608 9.23226 7.10119 6.72537 6.13013 5.13577 5.09289 4.68039 1.97078 1.54138 0.519027
threshold=2.5000000000000004 0.38164282828339374 7.2083333333333348 0.005232771058458833 0.27356558801073189 0.67894353637451099 0.27945436425924186 0.53360741277627033 0.23634135410778476 2.7083333333333335 0.27411439895416917 0.031423945128169567 0.31712083659402884 0.23140684216164831 2.9166666666666674 4.5000000000000009 0.97690305877781891 10.708333333333334 0.45944050636297545 2.2083333333333335 8.5000000000000018 0.60964654827226028 0.71096114768753271
decision_type=2 2 2 2 2 2 2 2 2 2 2 2 2 2 2 2 2 2 2 2 2 2 2
left_child=2 3 10 12 5 -5 -6 8 14 -10 11 -1 13 -2 -4 -14 17 -9 20 -13 -3 -22 -20
right_child=1 18 7 4 6 -7 -8 16 9 -11 -12 19 15 -15 -16 -17 -18 -19 22 -21 21 -23 -24
leaf_value=0.68858245460022449 0.67526649377595105 0.76572919382736682 0.66862350068485954 0.68752460980021857 0.71849578104231793 0.72799953028239328 0.75386526097138717 0.65685322058157625 0.71287914007491349 0.69394008049162104 0.69966260956488779 0.65625367330632256 0.65075681236160754 0.72613712171068578 0.69969428065207784 0.68983714707097032 0.71500883765248757 0.70586602520135522 0.76902591944495002 0.61627455867561887 0.71943101280327304 0.75297035281065461 0.78398200659800299
leaf_weight=8.1632125973701459 16.767679929733276 30.446576714515686 42.801709294319153 59.348761856555939 56.921860814094543 138.995241522789 168.11805403232574 33.976614594459534 283.94742196798325 185.54761606454849 7.0600757598876944 16.105797827243805 23.386500954627991 16.988307297229767 35.079751431941986 24.930892527103424 6.8394483923912039 7.0600757598876944 38.168534576892853 50.082412421703339 6.6188210248947135 8.1632125973701459 95.972904860973358
leaf_count=37 76 138 194 269 258 630 762 154 1287 841 32 73 106 77 159 113 31 32 173 227 30 37 435
internal_value=0.714519 0.736902 0.691873 0.723315 0.731362 0.715789 0.744998 0.699502 0.701998 0.705356 0.637012 0.631405 0.68216 0.700611 0.682191 0.669912 0.671907 0.664762 0.774903 0.624917 0.758005 0.739537 0.780199
internal_weight=1361.49 684.827 676.664 505.457 423.384 198.344 225.04 595.253 547.376 469.495 81.4115 74.3514 82.0734 33.756 77.8815 48.3174 47.8761 41.0367 179.37 66.1882 45.2286 14.782 134.141
internal_count=6171 3104 3067 2291 1919 899 1020 2698 2481 2128 369 337 372 153 353 219 217 186 813 300 205 67 608
is_linear=0
shrinkage=1


Tree=1
num_leaves=27
num_cat=0
split_feature=0 8 11 23 5 2 9 23 19 3 9 9 4 4 5 9 13 2 13 8 19 3 3 4 3 11
split_gain=250.095 136.853 79.8883 56.8469 34.9979 20.8883 18.592 18.3134 22.7 13.1399 19.996 11.6904 9.03379 7.25491 6.27703 8.2724 5.81943 5.62657 6.5617 4.87669 4.3977 2.99695 2.55367 1.55374 0.734324 0.0850091
threshold=2.5000000000000004 0.71888115009231079 9.5000000000000018 0.005232771058458833 0.27356558801073189 0.67894353637451099 0.24027965065893178 0.028262236879195549 2.2083333333333335 0.93519242432110128 0.53360741277627033 0.23634135410778476 0.71096114768753271 0.81504812768232959 0.31712083659402884 0.23140684216164831 4.5000000000000009 0.64298838778269218 4.5000000000000009 0.78739789880681699 3.2083333333333335 0.39955404086646351 0.73876493336733096 0.59228683533614601 0.87221701041975519 11.500000000000002
decision_type=2 2 2 2 2 2 2 2 2 2 2 2 2 2 2 2 2 2 2 2 2 2 2 2 2 2
left_child=2 3 7 14 5 -5 -6 21 13 10 11 -4 22 -9 15 -2 -16 25 -19 -12 -10 -1 23 -3 -24 -11
right_child=1 12 9 4 6 -7 -8 8 20 17 19 -13 -14 -15 16 -17 -18 18 -20 -21 -22 -23 24 -25 -26 -27
leaf_value=0.018757439672513337 -0.03686711447061785 0.0062303059195934884 -0.029821188298370788 -0.025371302044753408 -0.015012342399714051 0.010578776622233669 0.033143268311973027 -0.018696823557855791 -0.066734083334543906 0.025575693763122655 -0.072568295187154755 -0.0084786211757278095 0.067183410450260342 -0.063423454415418357 -0.05940470765789984 0.011175592764849798 -0.023241657978417762 0.023669698319475279 -0.030670340911002687 -0.029394227956174482 -0.099114342631135333 -0.023334562405244619 0.043639179180408855 0.035664056820101313 0.061047950981509475 0.047131466013568199
leaf_weight=7.5463473498821241 16.988641977310181 6.7993298619985607 76.266014754772186 59.889496684074402 21.591466724872589 119.02127349376678 195.83203740417957 33.840446844696999 56.542672261595726 7.7460295110940915 15.674098402261736 398.26269054412842 100.56916330754757 12.485027402639387 23.88117915391922 16.919899940490723 25.138771593570709 11.307302936911585 9.1185593605041486 15.413655713200567 22.786388158798218 7.3363623172044754 50.220134243369102 20.884831190109253 21.686243399977684 7.3105794936418533
leaf_count=34 76 31 342 269 98 542 898 152 251 35 70 1799 467 56 106 77 113 51 41 69 101 33 231 96 100 33
internal_value=6.5962e-05 0.0215217 -0.021313 0.0069667 0.0148599 -0.00150168 0.0282914 -0.0547808 -0.0609477 -0.0125263 -0.0146005 -0.0119748 0.0561395 -0.0319421 -0.0304246 -0.0131178 -0.0417947 0.0164832 -0.000654794 -0.0529011 -0.0772153 -0.0018396 0.0443804 0.0290786 0.0497234 0.0386368
internal_weight=1361.06 679.422 681.636 479.263 396.334 178.911 217.424 140.537 125.655 541.099 505.616 474.529 200.16 46.3255 82.9285 33.9085 49.02 35.4825 20.4259 31.0878 79.3291 14.8827 99.5905 27.6842 71.9064 15.0566
internal_count=6171 3104 3067 2179 1807 811 996 627 560 2440 2280 2141 925 208 372 153 219 160 92 139 352 67 458 127 331 68
is_linear=0
shrinkage=0.05


Tree=2
num_leaves=26
num_cat=0
split_feature=0 8 10 9 6 2 5 21 10 9 8 10 21 9 4 8 8 20 12 5 7 12 20 8 2
split_gain=226.37 127.939 89.7323 45.2286 39.2096 17.4387 14.0193 14.0912 17.416 15.3196 12.3914 12.187 11.4816 9.46093 8.73555 8.67427 10.5016 8.51229 7.28478 7.07592 4.19773 3.71582 1.68969 1.32846 0.946065
threshold=2.5000000000000004 0.71888115009231079 7.2083333333333348 0.27375883890159924 0.27840276611659448 0.67894353637451099 0.56972631998425893 1.5000000000000002 8.2083333333333339 0.25182192084848287 0.42425861972847034 8.9166666666666696 3.5000000000000004 0.20167254962422679 0.71096114768753271 0.73823853817010188 0.5104920110077017 2.7083333333333335 10.500000000000002 0.65618556862285393 0.26497796730444956 10.500000000000002 1.9166666666666667 0.7401569299401094 0.83340693493989548
decision_type=2 2 2 2 2 2 2 2 2 2 2 2 2 2 2 2 2 2 2 2 2 2 2 2 2
left_child=2 3 15 10 5 -5 7 8 -4 -9 20 19 -6 -12 21 16 22 -18 -13 -8 -2 23 -1 -3 -16
right_child=1 14 6 4 12 -7 11 9 -10 -11 13 18 -14 -15 24 -17 17 -19 -20 -21 -22 -23 -24 -25 -26
leaf_value=-0.067678457696191546 -0.014073538938087002 0.031341117575875842 -0.058497270285186878 -0.024947714764595171 0.036759635342730211 0.0097828229295596064 -0.070453955138200727 -0.023245709861812163 -0.012460532924243938 0.0031515531288958199 -0.048091202208432791 -0.010093033728035525 -0.0060031469058282267 0.00054710842377424706 0.03500441071365816 -0.017785125785257882 -0.099009658551831081 -0.041911968229448496 -0.054189621882532957 -0.03134337189012875 -0.046763469649672887 0.010298481207247771 -0.033929569045269045 0.050049617957244677 0.067293654523140081
leaf_weight=7.0801840275526073 15.816284283995627 21.195957377552986 25.985208511352539 51.834124088287354 159.80894222855568 113.32626496255398 16.58621309697628 69.950883105397224 91.695915594696999 242.34320724010468 10.497868642210959 96.487474635243416 16.889258593320847 75.04943086206913 6.5414365231990805 8.7977401018142682 38.311546981334686 10.839108034968374 9.5853865444660169 48.667845636606216 34.611021488904953 9.0377655923366529 19.757423341274261 67.770933300256729 91.449223890900612
leaf_count=31 70 98 116 231 741 518 74 312 412 1091 47 433 78 340 31 39 166 47 43 217 154 42 86 318 436
internal_value=6.53842e-05 0.020638 -0.020133 0.00663264 0.016331 -0.0011715 -0.013273 -0.00840187 -0.0230753 -0.00280055 -0.0176551 -0.0253491 0.0326333 -0.00585043 0.0545506 -0.0680044 -0.0734471 -0.0876045 -0.0145935 -0.0422733 -0.0370807 0.0429372 -0.045124 0.0460459 0.0655641
internal_weight=1359.92 673.829 686.088 477.833 341.859 165.16 601.302 429.975 117.681 312.294 135.975 171.327 176.698 85.5473 195.995 84.786 75.9883 49.1507 106.073 65.2541 50.4273 98.0047 26.8376 88.9669 97.9907
internal_count=6171 3104 3067 2179 1568 749 2698 1931 528 1403 611 767 819 387 925 369 330 213 476 291 224 458 117 416 467
is_linear=0
shrinkage=0.05


Tree=3
num_leaves=24
num_cat=0
split_feature=23 6 5 10 23 23 9 5 9 7 23 13 8 9 21 5 5 7 9 9 9 5 8
split_gain=180.398 79.0927 66.3997 61.2906 58.8788 37.6683 21.5821 22.3964 13.0117 13.1202 10.0999 7.52045 6.00072 5.75177 6.0425 5.66089 3.297 3.25066 3.00505 0.78498 1.96342 0.638845 0.405559
threshold=0.37657789045781237 0.2805608158913776 0.63689659626420603 7.291666666666667 0.012493893803557346 0.22032671561686762 0.23140684216164831 0.3500004359566144 0.27375883890159924 0.55400169276710698 0.031423945128169567 4.5000000000000009 0.82661573439458669 0.27375883890159924 3.5000000000000004 0.57217972458827571 0.44986662465532234 0.26497796730444956 0.69033500676292192 0.58789016842544239 0.53772449363935138 0.87638946199381917 0.81836638366256098
decision_type=2 2 2 2 2 2 2 2 2 2 2 2 2 2 2 2 2 2 2 2 2 2 2
left_child=1 3 12 5 8 10 15 -8 9 -3 -1 -10 19 17 -15 -5 -7 -6 -4 20 -2 -20 -21
right_child=2 4 18 6 13 16 7 -9 11 -11 -12 -13 -14 14 -16 -17 -18 -19 21 22 -22 -23 -24
leaf_value=-0.010599505320654 0.050257945773105342 -0.027760033270336576 -0.0031913859739655551 -0.026298304023866743 0.034291040518669831 0.012520062801925436 0.0049949437359608322 -0.013747503648186785 0.028959912959824047 0.040273368744582816 -0.063447381557273461 -0.0068168044355722233 0.064887118387668974 0.045437948580437017 0.00079782250481647823 -0.065483154045417491 -0.024159009464538736 -0.0069894568850307663 -0.047090114728508173 0.049465992988423475 0.015513776495636487 -0.021339430656440311 0.025391131777999176
leaf_weight=10.679594263434408 7.3435293883085277 69.694191589951515 9.9464062899351138 83.221457034349442 7.2493396103382137 23.987380236387256 276.69362932443619 372.76249076426029 26.896725222468376 6.9377226382493964 99.448308080434799 30.029851540923119 89.419164508581161 113.33759374916553 8.402253180742262 10.414954915642737 7.0870299488306037 10.322746396064757 10.463396891951563 57.838293522596359 11.865787684917448 7.9128351211547843 6.1991897821426383
leaf_count=47 35 311 44 367 33 110 1250 1670 125 31 429 140 437 535 39 46 31 47 46 277 56 35 30
internal_value=5.61156e-05 -0.00754473 0.0436624 -0.0148065 0.0159385 -0.0448974 -0.00902926 -0.0057594 -0.00773962 -0.0210969 -0.058509 0.0102088 0.0552742 0.0385677 0.0424293 -0.0313555 0.0035065 0.0107009 -0.0264281 0.0442416 0.0308732 -0.0379335 0.0476385
internal_weight=1358.15 1157.17 200.989 884.295 272.87 141.202 743.093 649.456 133.558 76.6319 110.128 56.9266 172.666 139.312 121.74 93.6364 31.0744 17.5721 28.3226 83.2468 19.2093 18.3762 64.0375
internal_count=6171 5211 960 3950 1261 617 3333 2920 607 342 476 265 835 654 574 413 141 80 125 398 91 81 307
is_linear=0
shrinkage=0.05


Tree=4
num_leaves=26
num_cat=0
split_feature=0 8 10 23 5 2 3 5 10 21 23 4 2 13 21 8 4 5 3 5 12 5 8 21 2
split_gain=186.92 112.278 71.9769 44.3509 27.5072 16.5608 13.5943 14.5352 14.7619 13.5292 13.4502 8.34567 8.28289 7.94299 7.73937 10.4669 7.07437 5.78706 5.34864 5.19976 3.53282 2.23713 4.69048 1.32156 0.980008
threshold=2.5000000000000004 0.71888115009231079 7.2083333333333348 0.005232771058458833 0.27356558801073189 0.67894353637451099 0.95234107282251301 0.5762224902100983 9.4166666666666696 1.5000000000000002 0.012493893803557346 0.71096114768753271 0.64298838778269218 4.5000000000000009 1.5000000000000002 0.5049392495380649 0.46043740971880515 0.31712083659402884 0.47146338145150407 0.22085050547920745 10.500000000000002 0.40943525797770969 0.71649131437888203 3.5000000000000004 0.83340693493989548
decision_type=2 2 2 2 2 2 2 2 2 2 2 2 2 2 2 2 2 2 2 2 2 2 2 2 2
left_child=2 3 14 17 5 -5 7 9 -9 -4 -6 20 -8 -14 15 16 -1 19 -19 -2 23 -16 -23 -3 -13
right_child=1 11 6 4 10 -7 12 8 -10 -11 -12 24 13 -15 21 -17 -18 18 -20 -21 -22 22 -24 -25 -26
leaf_value=-0.061964613695200711 -0.04343083220151342 0.045311391574412767 -0.023210206875636987 -0.02220133639843434 0.0080859019911216391 0.0096639147130602506 0.049781526008241671 -0.042616521598951185 -0.011480337459676006 -0.0031793083418871562 0.034662582688108894 0.0324012362480511 0.021718471742279331 -0.041497310098128334 -0.0093261820125999356 -0.087631259979707748 -0.0039220478597968974 -0.026252099098716283 -0.064797961020403097 0.00063900553158409033 0.0083904217963598638 -0.061996934468321607 -0.011826925719349414 0.017633824237083959 0.06451416554389848
leaf_weight=13.587761640548708 7.8298270851373664 78.931385070085526 116.35362973809242 60.954928413033485 74.820635288953781 118.1772927492857 12.346930220723154 74.733648926019669 79.724850818514824 303.49595692753792 136.48603019118309 6.3206045925617209 12.673226684331896 6.7994775027036658 7.0599518567323711 36.639794930815697 8.7242426574230176 37.279045015573502 12.838349193334578 26.670358180999756 8.8786313086748105 13.073151871562006 8.2217128723859769 7.028071552515029 86.542976170778275
leaf_count=58 34 382 516 269 347 542 56 328 354 1357 649 31 57 30 30 153 37 163 56 119 42 55 36 34 436
internal_value=6.49298e-05 0.0190412 -0.018066 0.00605501 0.013182 -0.00121446 -0.0118894 -0.0136642 -0.0267547 -0.00878435 0.0253581 0.0516753 0.0194315 -0.00105974 -0.0602697 -0.0708984 -0.0406256 -0.0265414 -0.0372985 -0.0101635 0.0402372 -0.036339 -0.0442504 0.0433348 0.0627502
internal_weight=1356.19 662.758 693.434 475.056 390.439 179.132 606.128 574.308 154.458 419.85 211.307 187.702 31.8196 19.4727 87.3066 58.9518 22.312 84.6176 50.1174 34.5002 94.8381 28.3548 21.2949 85.9595 92.8636
internal_count=6171 3104 3067 2179 1807 811 2698 2555 682 1873 996 925 143 87 369 248 95 372 219 153 458 121 91 416 467
is_linear=0
shrinkage=0.05


Tree=5
num_leaves=26
num_cat=0
split_feature=0 8 10 8 5 9 8 12 8 4 4 5 0 8 9 2 3 8 8 19 20 3 10 3 4
split_gain=176.309 103.864 56.8534 38.417 27.6596 17.1142 14.4854 12.5104 12.43 11.4285 11.0172 9.45115 15.0463 7.36562 6.65912 6.65492 5.10277 4.10297 5.48631 5.04686 4.53581 4.17689 4.08182 3.44542 0.515162
threshold=2.5000000000000004 0.71284813922667667 7.2083333333333348 0.48362296590577064 0.27569757289041918 0.24027965065893178 0.39106006591042797 8.5000000000000018 0.61561514226858172 0.2235511632027479 0.65795127949883159 0.60613330106527574 1.5000000000000002 0.41865427631836949 0.24027965065893178 0.61141178458297729 0.34395916020615958 0.5104920110077017 0.71649131437888203 3.2083333333333335 2.7083333333333335 0.48368743134100994 11.29166666666667 0.76319748372149043 0.73823449134674257
decision_type=2 2 2 2 2 2 2 2 2 2 2 2 2 2 2 2 2 2 2 2 2 2 2 2 2
left_child=2 3 17 6 8 -6 16 11 -5 -9 22 12 -4 -11 -8 -13 -2 19 20 21 -19 -1 23 -3 -12
right_child=1 10 7 4 5 -7 14 9 -10 13 24 15 -14 -15 -16 -17 -18 18 -20 -21 -22 -23 -24 -25 -26
leaf_value=-0.0011423176161302205 -0.014989058337056002 0.020996854648739884 -0.0010122881198734415 -0.016392633619700354 -0.016893903086856742 0.03410002240673108 -0.025265114961931297 -0.053419552347526628 0.012250199457923612 -0.014004269157298211 0.049496306443826896 -0.017113238662718227 -0.024184604076507642 0.0060950248037275993 0.00095886517241229564 -0.041578937066904374 -0.056109586806186246 -0.080299440226336324 -0.028877258965848099 -0.069406642843637081 -0.034540907823117382 -0.047033560287103642 0.003789058941608118 0.047755041939123777 0.063272196225433952
leaf_weight=11.520221993327146 12.659618794918059 23.502618551254272 131.28364676237106 69.203521311283112 17.737331375479698 148.98181787133217 33.566870152950287 9.8554950356483442 81.210799694061279 68.022686138749123 43.82200513780117 55.010678604245186 150.58396397531033 133.06985214352608 79.437725022435188 62.83716444671154 24.131376102566719 37.948058784008026 11.315672695636747 8.0823474824428541 9.3788872361183149 8.0977688580751401 11.262993678450583 34.386237934231758 71.98599448800087
leaf_count=49 55 113 585 309 80 717 146 43 374 302 220 242 668 594 361 274 105 156 49 34 39 34 54 170 373
internal_value=-0.00130448 0.0173695 -0.0187767 0.00476152 0.0146137 0.0285766 -0.0160221 -0.013344 -0.000916174 -0.00344117 0.0489747 -0.0185361 -0.0134512 -0.000714787 -0.00694013 -0.0304406 -0.0428635 -0.0565498 -0.0645788 -0.03772 -0.0722372 -0.0216899 0.0322274 0.0375173 0.0585705
internal_weight=1348.9 651.889 697.006 466.929 317.133 166.719 149.796 610.663 150.414 210.948 184.96 399.715 281.868 201.093 113.005 117.848 36.791 86.343 58.6426 27.7003 47.3269 19.618 69.1519 57.8889 115.808
internal_count=6146 3077 3069 2147 1480 797 667 2708 683 939 930 1769 1253 896 507 516 160 361 244 117 195 83 337 283 593
is_linear=0
shrinkage=0.05


Tree=6
num_leaves=26
num_cat=0
split_feature=0 8 10 8 5 8 23 0 5 23 8 4 10 12 11 3 12 10 10 8 10 8 19 3 4
split_gain=159.787 97.2076 51.0053 34.8457 25.4306 12.9099 11.7169 11.6015 20.2971 13.9952 11.2183 10.7026 10.6233 9.52676 6.10478 4.46465 4.45943 4.41325 3.711 3.4792 6.4565 4.87096 3.21949 2.60912 0.564623
threshold=2.5000000000000004 0.71284813922667667 7.2083333333333348 0.48362296590577064 0.27569757289041918 0.39106006591042797 0.0090467604346331967 1.5000000000000002 0.6915932585583966 0.11927778233881632 0.61561514226858172 0.65795127949883159 8.2083333333333339 7.5000000000000009 15.500000000000002 0.34395916020615958 10.500000000000002 7.916666666666667 5.416666666666667 0.5104920110077017 6.2083333333333348 0.71649131437888203 2.5833333333333335 0.60078695188738929 0.73823449134674257
decision_type=2 2 2 2 2 2 2 2 2 2 2 2 2 2 2 2 2 2 2 2 2 2 2 2 2
left_child=2 3 18 5 10 15 -6 8 13 12 -5 16 -9 -4 -7 -2 22 -10 -1 20 -20 -21 -3 -11 -13
right_child=1 11 7 4 6 14 -8 9 17 23 -12 24 -14 -15 -16 -17 -18 -19 19 21 -22 -23 -24 -25 -26
leaf_value=-0.087028612040432968 -0.014238378417085008 0.041654316912331568 -0.0070047311246448519 -0.015503015680162361 -0.024850781636253406 -0.0097459454070528521 0.030776200152964228 -0.044573205619007135 -0.05082257612309754 -0.033589795098080182 0.011698024460644324 0.048162684457732384 -0.013092610159220731 0.014514536708032209 0.035132202942723699 -0.052628719720874018 -0.0078464847012355184 -0.020048977305114672 0.0071420519209357937 -0.064511692148784397 -0.046113092123316685 -0.02320757176868039 0.013617193137732193 -0.076403198917271875 0.062065870833540294
leaf_weight=8.5829778015613538 12.712047442793844 46.652944967150688 107.18097224831581 69.563759982585907 9.2510887384414655 106.07094545662403 155.46447212994099 29.179325088858604 14.495258659124373 10.026483982801439 80.848602846264839 42.836586833000183 277.34578755497932 96.872885212302208 7.1419659703969947 24.497309267520905 6.1203663647174826 67.402040436863899 7.3979731798172024 41.164818674325943 19.040684655308723 10.934735298156737 15.434296190738676 10.509678795933722 69.791075676679611
leaf_count=35 55 232 475 309 42 475 755 126 62 44 374 220 1227 433 32 105 29 295 31 168 80 47 76 46 373
internal_value=-0.00124536 0.0166631 -0.0177863 0.00453233 0.013979 -0.0151866 0.0274907 -0.0126387 -0.0052312 -0.0190642 -0.000868384 0.0476688 -0.0162408 0.00320794 -0.00658824 -0.04036 0.0311074 -0.0261034 -0.0533952 -0.0486088 -0.031312 -0.0565372 0.0350901 -0.0582626 0.0572924
internal_weight=1346.52 646.385 700.134 465.55 315.128 150.422 164.716 613.012 285.951 327.061 150.412 180.835 306.525 204.054 113.213 37.2094 68.2076 81.8973 87.1212 78.5382 26.4387 52.0996 62.0872 20.5362 112.628
internal_count=6146 3077 3069 2147 1480 667 797 2708 1265 1443 683 930 1353 908 507 160 337 357 361 326 111 215 308 90 593
is_linear=0
shrinkage=0.05


Tree=7
num_leaves=28
num_cat=0
split_feature=0 4 10 9 23 7 23 12 4 21 0 5 10 23 13 11 21 20 23 10 23 0 23 21 4 5 4
split_gain=144.901 89.5218 45.8017 28.5087 24.2113 12.5679 12.2538 10.5018 10.1821 8.26903 10.3149 9.08437 6.41901 7.61312 6.16221 6.02179 5.93629 5.5283 4.11376 3.68656 3.5862 3.16507 2.50445 2.07625 1.64875 1.35589 0.56912
threshold=2.5000000000000004 0.61246214466402349 7.2083333333333348 0.27758014913938567 0.005232771058458833 0.54931611743690223 0.35071612973492178 8.5000000000000018 0.2235511632027479 3.5000000000000004 1.5000000000000002 0.61285373681918964 8.9166666666666696 0.011863109978145782 5.5000000000000009 11.500000000000002 3.5000000000000004 2.5833333333333335 0.55665705037283442 6.416666666666667 0.24306641097370504 1.5000000000000002 0.068812384480552449 2.5000000000000004 0.68301149536518813 0.33065814770235574 0.44361780731525552
decision_type=2 2 2 2 2 2 2 2 2 2 2 2 2 2 2 2 2 2 2 2 2 2 2 2 2 2 2
left_child=2 4 19 12 15 6 -6 9 -9 11 -11 -4 -3 -14 -10 25 18 -17 -5 22 21 -21 26 -7 -18 -2 -1
right_child=1 3 7 16 5 23 -8 8 14 10 -12 -13 13 -15 -16 17 24 -19 -20 20 -22 -23 -24 -25 -26 -27 -28
leaf_value=-0.05217432248492531 0.021515083318368211 0.028397513456725761 -0.0097474104943937982 0.04322118674063756 0.0006081721699337713 0.039679848776887086 0.031974651029667511 -0.049695137000014045 -0.0024167283471718017 -0.011852587194849915 -0.07929979565041867 -0.026742455184044767 -0.046486430713669237 0.011396519369451475 0.036258784527852091 -0.040700562656647184 -0.0038455362362690214 -0.011733411869175028 0.060527279828627822 -0.029163238761617707 -0.0045472017229385413 -0.060294188915945984 -0.074435149376097201 0.0079838009250687344 0.029846662999448759 -0.0065527735748512981 -0.024561225629738299
leaf_weight=8.9696117639541644 6.788816198706626 9.4099444299936312 267.95860858261585 115.24218910932541 253.31318239867687 32.230848595499992 34.56673675775528 10.029264092445372 191.67857377231121 12.231763020157814 10.670167088508606 112.67585742473602 10.903198644518854 10.05269695818424 9.8783835619688016 37.569671303033829 6.5924588590860349 31.746089994907379 70.693566307425499 21.971499294042587 7.0072754025459281 18.790815725922585 23.551327481865883 7.3003287762403479 6.0695381611585617 8.4647389203309995 7.4666936844587317
leaf_count=37 30 43 1182 583 1174 157 173 43 852 54 47 486 48 47 44 162 32 137 389 90 30 77 96 35 31 36 31
internal_value=-0.00119088 0.0159856 -0.0168614 0.0409786 0.00201775 0.00819632 0.00448941 -0.0119833 -0.00291324 -0.0167078 -0.0454889 -0.0148483 -0.00388188 -0.0192374 -0.000326895 -0.0216605 0.047848 -0.0278605 0.0501164 -0.050477 -0.0391557 -0.044734 -0.0625943 0.0342912 0.0129414 0.00618675 -0.042045
internal_weight=1343.82 640.944 702.88 228.964 411.98 327.411 287.88 615.123 211.586 403.536 22.9019 380.634 30.3658 20.9559 201.557 84.5693 198.598 69.3158 185.936 87.7572 47.7696 40.7623 39.9876 39.5312 12.662 15.2536 16.4363
internal_count=6146 3077 3069 1173 1904 1539 1347 2708 939 1769 101 1668 138 95 896 365 1035 299 972 361 197 167 164 192 63 66 68
is_linear=0
shrinkage=0.05


Tree=8
num_leaves=25
num_cat=0
split_feature=9 5 6 9 10 5 9 5 4 3 21 3 21 9 8 3 21 2 13 13 8 5 10 4
split_gain=89.6409 68.07 51.1214 35.4541 34.0267 19.3557 17.1418 14.5432 10.8351 10.1826 9.62381 8.21004 7.01674 6.41697 5.95368 5.30642 4.88286 4.17455 3.52582 4.4868 3.04757 2.0965 1.96649 0.528214
threshold=0.59729542258950941 0.60613330106527574 0.31240920591933025 0.27509407033261196 7.291666666666667 0.29144207549147083 0.27375883890159924 0.3500004359566144 0.65795127949883159 0.56227250362465264 3.5000000000000004 0.41407187920042726 2.5000000000000004 0.19419817789571112 0.52502807653450401 0.39955404086646351 3.5000000000000004 0.80134557959540698 3.5000000000000004 4.5000000000000009 0.56003209673988552 0.80631769671161824 11.583333333333334 0.73823449134674257
decision_type=2 2 2 2 2 2 2 2 2 2 2 2 2 2 2 2 2 2 2 2 2 2 2 2
left_child=2 8 4 14 5 9 13 -8 16 -1 11 -5 -7 -6 15 -4 17 -2 21 -20 -16 -3 -12 -10
right_child=1 18 3 10 6 12 7 -9 23 -11 22 -13 -14 -15 20 -17 -18 -19 19 -21 -22 -23 -24 -25
leaf_value=-0.032054666104583823 0.0043538680456384352 -0.06483545122324709 -0.00068260423952689578 0.0090063170290585869 -0.041198044793586047 -0.050199884222797579 0.0075428766922387095 -0.009302939800288821 0.045808644113836713 0.015737941214364566 -0.027965273956491184 0.039106986790828538 -0.0027980137417379309 -0.015588957998827932 0.035433588496475703 -0.028796145494683369 -0.011572109793013397 0.040804441495336012 0.010865953667576582 -0.03465124646470169 -0.0029240264620399165 -0.023826756920373213 0.0073727663631464038 0.059640070769011337
leaf_weight=19.215226709842682 11.216035455465315 8.0462407320737857 28.445133358240128 30.09220664203167 27.757241442799568 91.048027619719505 211.62143732607365 320.9422814399004 40.993395730853081 23.785821959376335 6.7095832079648954 107.80843466520309 8.9094481617212278 208.2197922617197 7.7285161167383221 41.477150917053223 7.0573029220104209 30.666820868849754 8.9869312047958392 10.960249751806257 11.876827299594877 8.392311215400694 7.0476150512695312 62.096453309059143
leaf_count=84 53 34 124 146 119 375 966 1418 220 111 32 540 37 913 36 182 34 157 39 47 56 36 33 354
internal_value=-0.00113557 0.0307398 -0.00637232 0.0140482 -0.0117906 -0.0341171 -0.00759218 -0.00259806 0.0454083 -0.00574792 0.0287174 0.0326866 -0.0460939 -0.0187835 -0.0107884 -0.0176006 0.0250719 0.0314889 -0.0299907 -0.0143657 0.0129399 -0.046753 -0.0102504 0.054681
internal_weight=1341.1 188.416 1152.68 241.185 911.499 142.959 768.541 532.564 152.03 43.001 151.658 137.901 99.9575 235.977 89.5276 69.9223 48.9402 41.8829 36.3857 19.9472 19.6053 16.4386 13.7572 103.09
internal_count=6146 974 5172 1149 4023 607 3416 2384 818 195 751 686 412 1032 398 306 244 210 156 86 92 70 65 574
is_linear=0
shrinkage=0.05


Tree=9
num_leaves=26
num_cat=0
split_feature=0 8 11 8 5 5 9 0 23 5 8 19 4 8 5 5 2 3 11 3 3 9 4 8 4
split_gain=119.118 80.6439 34.8396 27.247 21.3597 17.2025 13.028 11.7646 14.0585 10.6386 10.5747 9.90924 9.8925 9.46136 9.07515 6.85783 6.16062 5.77926 5.61125 3.90958 3.7625 4.75697 3.52154 0.742504 0.615755
threshold=2.5000000000000004 0.71284813922667667 9.5000000000000018 0.48362296590577064 0.27843719350622714 0.31712083659402884 0.24027965065893178 1.5000000000000002 0.13450832076141009 0.66928825840130346 0.39106006591042797 3.2083333333333335 0.66204732281935452 0.61561514226858172 0.2693479937192455 0.84901189263908949 0.85881801474331732 0.7885189637837885 15.500000000000002 0.34395916020615958 0.76319748372149043 0.56054280165071935 0.47003464892332181 0.75118269215592892 0.73823449134674257
decision_type=2 2 2 2 2 2 2 2 2 2 2 2 2 2 2 2 2 2 2 2 2 2 2 2 2
left_child=2 3 5 10 13 22 -6 9 17 14 19 15 20 -5 -4 -7 -11 -9 -12 -2 21 -3 -1 -22 -14
right_child=1 12 7 4 6 11 -8 8 -10 16 18 -13 24 -15 -16 -17 -18 -19 -20 -21 23 -23 -24 -25 -26
leaf_value=0.038441906366194392 -0.011839603415061323 -0.022059594813972856 -0.025634366600038622 -0.014379920768204222 -0.014686650997664927 -0.029483125546714447 0.030098012111981067 -0.011758218304768345 -0.0667020004372227 -0.0066750063150738566 -0.0086625944578422754 -0.068864035646583291 0.044660381344387497 0.010546366034683811 0.0095399150340652605 -0.07038681077585271 -0.037382521209877333 -0.043439046764226621 0.034499511548625454 -0.0473207240594231 0.052996639576482998 0.024391019699764673 -0.0086212266231597869 0.031692788811996102 0.058980903223011076
leaf_weight=7.0019704103469831 12.871582657098768 6.183273762464526 19.722360715270042 70.710183754563332 17.566127732396126 102.15580652654171 141.49706228077412 275.26666881144047 12.133403256535528 50.831425383687019 106.60714492201805 26.876485377550125 37.95423586666584 80.077488750219345 156.84642796218395 11.494465887546538 23.87805050611496 14.537840008735655 7.0813060551881781 25.004908353090286 10.350779443979262 23.154905945062637 7.0391165167093277 27.943869039416313 63.495912700891495
leaf_count=30 55 30 87 313 79 425 714 1204 52 220 475 110 209 374 697 48 102 64 32 105 53 117 30 148 373
internal_value=-0.0010772 0.0147114 -0.0151498 0.00384271 0.0123374 -0.0360755 0.0250601 -0.00923957 -0.0158758 -0.0012143 -0.0134576 -0.0413384 0.044145 -0.00112732 0.00546063 -0.0342415 -0.0169197 -0.0135086 -0.00565319 -0.0360065 0.0284786 0.0140319 0.0155111 0.0387805 0.0541604
internal_weight=1338.28 630.499 707.784 461.416 309.851 154.568 159.063 553.216 301.938 251.278 151.565 140.527 169.083 150.788 176.569 113.65 74.7095 289.805 113.688 37.8765 67.6328 29.3382 14.0411 38.2946 101.45
internal_count=6146 3077 3069 2147 1480 643 793 2426 1320 1106 667 583 930 687 784 473 322 1268 507 160 348 147 60 201 582
is_linear=0
shrinkage=0.05


Tree=10
num_leaves=27
num_cat=0
split_feature=0 8 11 23 5 3 2 5 19 23 13 5 3 8 3 5 2 21 3 9 23 3 9 23 23 3
split_gain=117.864 69.9811 40.0632 31.7049 17.2767 17.0415 16.4356 12.5882 12.5946 11.6824 11.05 10.9323 10.5543 9.58452 9.32453 9.22934 8.16078 6.52135 5.59882 5.07531 4.80071 7.70063 4.26693 3.6675 3.00476 0.0878017
threshold=2.5000000000000004 0.7401569299401094 9.5000000000000018 0.005232771058458833 0.27356558801073189 0.28740119957605109 0.67894353637451099 0.31712083659402884 2.2083333333333335 0.016165931972285167 1.5000000000000002 0.29332244415706793 0.58943688143821571 0.4763895274761481 0.90326055162429875 0.38178790515850186 0.39744909191364014 1.5000000000000002 0.34395916020615958 0.67418262589467426 0.42479437508508305 0.76319748372149043 0.23140684216164831 0.035110687201670245 0.0020299610816591949 0.85755859806070334
decision_type=2 2 2 2 2 2 2 2 2 2 2 2 2 2 2 2 2 2 2 2 2 2 2 2 2 2
left_child=2 3 7 11 6 -6 -5 23 14 15 13 24 -12 -11 -9 16 -4 -10 -13 20 -3 -22 -17 -1 -2 -21
right_child=1 19 9 4 5 -7 -8 8 17 10 12 18 -14 -15 -16 22 -18 -19 -20 25 21 -23 -24 -25 -26 -27
leaf_value=0.031772921299964736 -0.013324323585469528 0.052707485623217802 -0.048376880928136592 -0.0184500139194992 -0.043232922261782984 0.026767027216518614 0.012414082110631551 -0.029233912191802831 -0.059770685819297759 -0.0068912025119441849 -2.0881645191387782e-06 -0.0097663574629765024 -0.015302253938309439 0.047718497522575197 0.024317564439512822 -0.016301385338599841 -0.007436964172026498 -0.02890727260610115 -0.041835757513431118 0.046575467666224113 -0.028056451361056823 0.031549668552262489 0.035469954797372298 -0.015320677977332454 0.019735501301878795 0.059144716038876034
leaf_weight=7.1521228551864606 10.237344622612001 17.942723512649536 36.981821477413177 61.28925533592701 8.1763733178377134 192.28315900266171 139.03343982994556 40.335915684700012 64.651676520705223 13.606717988848688 279.24521009624004 22.161572232842445 188.74919350445271 17.414244055747986 9.2075789719820005 7.0349193811416608 18.981782779097557 28.43680801987648 40.110585331916809 39.918513715267181 5.9832152873277691 24.141229152679443 6.878926545381546 7.358496367931366 16.567002862691879 53.098143547773361
leaf_count=31 43 95 160 266 38 961 656 168 263 60 1223 95 826 77 39 30 82 118 170 233 32 131 30 31 72 322
internal_value=0.000530288 0.0163275 -0.0131946 0.00733798 0.0133432 0.0236866 0.00290156 -0.0354693 -0.0399644 -0.00698148 -0.00426214 -0.0194738 -0.00620301 0.0241418 -0.0188983 -0.0259964 -0.0349529 -0.0508031 -0.0308366 0.0472335 0.0325207 0.0190292 0.00962092 0.00812082 0.00690409 0.0543565
internal_weight=1356.98 630.943 726.035 489.859 400.782 200.46 200.323 157.143 142.632 568.893 499.015 89.0765 467.994 31.021 49.5435 69.8775 55.9636 93.0885 62.2722 141.084 48.0672 30.1244 13.9138 14.5106 26.8043 93.0167
internal_count=6252 3114 3138 2301 1921 999 922 650 588 2488 2186 380 2049 137 207 302 242 381 265 813 258 163 60 62 115 555
is_linear=0
shrinkage=0.05


Tree=11
num_leaves=23
num_cat=0
split_feature=23 6 5 10 23 23 19 9 10 5 8 8 23 21 14 10 9 19 9 2 2 19
split_gain=96.1096 47.5313 39.0893 31.0777 30.6633 23.2094 14.4825 10.62 8.72771 8.61594 8.23951 7.7091 8.54264 5.27434 4.23787 3.82068 3.20685 2.5572 5.99289 1.62985 1.58113 0.125033
threshold=0.35071612973492178 0.31240920591933025 0.68270107096774779 7.291666666666667 0.012493893803557346 0.25118058341841537 1.1250000000000002 0.26284586531861087 6.416666666666667 0.28998938300414462 0.82661573439458669 0.5104920110077017 0.005232771058458833 3.5000000000000004 2.5000000000000004 11.583333333333334 0.25581499078818509 1.1250000000000002 0.75515692955594049 0.93085639851158042 0.90646505985753278 1.4166666666666667
decision_type=2 2 2 2 2 2 2 2 2 2 2 2 2 2 2 2 2 2 2 2 2 2
left_child=1 3 10 5 11 9 14 -8 -7 -1 15 12 -3 16 -5 20 -6 18 -4 -17 -2 -12
right_child=2 4 17 6 13 8 7 -9 -10 -11 21 -13 -14 -15 -16 19 -18 -19 -20 -21 -22 -23
leaf_value=-0.014235573016554657 0.043202581236783957 -0.013873722319292264 0.021089751611816657 0.0066004678667557042 0.0064313466457805654 -0.013464541547207326 -0.01713644888594203 -0.0037075926365335225 0.047133000569496764 -0.046739347685831212 0.059523662343729092 -0.04662281915746485 0.013873803036277603 -0.0035282618309119616 0.049681399021173779 0.021643966981116914 0.038566124921884402 -0.03349162299191296 -0.033815262684480867 -0.012444676205966773 0.026472980572950028 0.044144169412132825
leaf_weight=27.883663102984428 40.999066710472107 51.698471784591675 9.637040659785276 10.698462456464769 9.3054999858140928 11.698905110359194 200.82835574448109 552.90112589299679 10.243703141808508 95.558014720678329 50.347165897488594 8.3288448452949506 57.526912212371826 8.732367664575575 13.06411190330982 5.9526061415672284 99.717903420329094 13.362767502665518 8.2996417135000211 5.987977460026741 36.830728650093079 23.173300340771675
leaf_count=122 225 221 41 47 44 54 866 2453 46 388 313 39 272 43 58 31 527 56 35 31 199 141
internal_value=0.000511436 -0.00495556 0.0329351 -0.0100734 0.015053 -0.031221 -0.00607755 -0.00731025 0.0154283 -0.0396108 0.0427167 -0.00298657 0.000688289 0.0329773 0.0315371 0.0317778 0.0359521 -0.0176836 -0.00449589 0.00452212 0.0357855 0.0554006
internal_weight=1352.78 1158.19 194.59 922.876 235.31 145.384 777.492 753.729 21.9426 123.442 163.291 117.554 109.225 117.756 23.7626 89.7704 109.023 31.2994 17.9367 11.9406 77.8298 73.5205
internal_count=6252 5180 1072 4034 1146 610 3424 3319 100 510 940 532 493 614 105 486 571 132 76 62 424 454
is_linear=0
shrinkage=0.05


Tree=12
num_leaves=27
num_cat=0
split_feature=0 8 11 23 5 3 2 5 19 23 13 5 3 8 3 5 2 21 9 3 23 3 9 23 7 3
split_gain=98.1236 62.3219 33.3316 26.5688 14.8031 15.7128 14.511 11.0729 10.6939 9.97041 10.0614 9.77913 9.62019 8.81917 8.27684 8.23445 7.20491 5.51554 5.00448 4.98466 4.71638 7.05794 3.8877 3.3261 2.76325 0.173494
threshold=2.5000000000000004 0.7401569299401094 9.5000000000000018 0.005232771058458833 0.27356558801073189 0.32723866140130869 0.68211987897864412 0.31712083659402884 2.2083333333333335 0.016165931972285167 1.5000000000000002 0.29332244415706793 0.58943688143821571 0.4763895274761481 0.90326055162429875 0.38178790515850186 0.39744909191364014 1.5000000000000002 0.67418262589467426 0.34395916020615958 0.42479437508508305 0.76319748372149043 0.23140684216164831 0.035110687201670245 0.38087673263291766 0.85755859806070334
decision_type=2 2 2 2 2 2 2 2 2 2 2 2 2 2 2 2 2 2 2 2 2 2 2 2 2 2
left_child=2 3 7 11 6 -6 -5 23 14 15 13 24 -12 -11 -9 16 -4 -10 20 -13 -3 -22 -17 -1 -2 -20
right_child=1 18 9 4 5 -7 -8 8 17 10 12 19 -14 -15 -16 22 -18 -19 25 -21 21 -23 -24 -25 -26 -27
leaf_value=0.031210897556478129 -0.0070582662382870824 0.050874590857652779 -0.044579333454232005 -0.016856109168628019 -0.028224132106964846 0.025906661227202907 0.011880098337240665 -0.026700544746939989 -0.054571638718002302 -0.0061698375205829648 0.00029309587403048877 -0.0085372937702907093 -0.014251418438266165 0.046305712491039104 0.023763694220227297 -0.014727789790359269 -0.0063195805037380773 -0.026276563558901789 0.044545102183271922 -0.038640131625899785 -0.027699055261425118 0.029456371400746029 0.034681914996293403 -0.013634564516285986 0.023955095741000503 0.057472579564627896
leaf_weight=7.1175914853811246 14.597324535250666 17.202351048588753 37.584202706813812 63.598074212670326 13.56510743498802 182.86762860417366 136.08789873123169 40.59843835234642 65.013103872537613 13.666343525052072 279.74335817992687 22.2965167760849 189.73642797768116 17.17829455435276 9.1684467047452909 7.0915668010711652 19.093616649508476 28.628281489014626 37.9462830722332 40.591399818658829 6.0010847300291088 23.334730133414268 6.8328678905963898 7.4006249606609344 12.240920782089232 49.571386381983757
leaf_count=31 62 95 160 275 64 935 647 168 263 60 1223 95 826 77 39 30 82 118 233 170 32 131 30 31 53 322
internal_value=0.000498571 0.0151126 -0.0119277 0.00673349 0.0123063 0.0220192 0.00266459 -0.0321923 -0.0363901 -0.006267 -0.00374949 -0.0176784 -0.00559212 0.0234347 -0.0170202 -0.023736 -0.0321101 -0.0463431 0.0451684 -0.0283463 0.0304792 0.0170719 0.00988231 0.00862331 0.00725971 0.0524905
internal_weight=1348.75 619.901 728.853 485.845 396.119 196.433 199.686 157.926 143.408 570.927 500.324 89.7262 469.48 30.8446 49.7669 70.6023 56.6778 93.6414 134.056 62.8879 46.5382 29.3358 13.9244 14.5182 26.8382 87.5177
internal_count=6252 3114 3138 2301 1921 999 922 650 588 2488 2186 380 2049 137 207 302 242 381 813 265 258 163 60 62 115 555
is_linear=0
shrinkage=0.05


Tree=13
num_leaves=25
num_cat=0
split_feature=23 6 5 23 10 23 19 4 8 10 5 8 23 3 3 6 14 10 2 10 19 2 2 3
split_gain=81.6884 39.5508 34.9053 26.9382 25.87 19.7682 13.2188 9.36811 8.04411 7.70921 7.32078 7.11447 6.85824 6.65003 6.0336 4.47459 3.95566 3.62984 2.35323 4.01571 1.98889 1.5646 1.52784 1.02198
threshold=0.35071612973492178 0.31240920591933025 0.68270107096774779 0.012493893803557346 7.291666666666667 0.25567474723130057 1.1250000000000002 0.28913698042623415 0.82661573439458669 6.416666666666667 0.62437962863127494 0.5104920110077017 0.005232771058458833 0.44580707708920003 0.82134136892872489 0.43987659309461685 2.5000000000000004 11.583333333333334 0.81551923335971377 8.4166666666666696 2.9166666666666674 0.90646505985753278 0.93085639851158042 0.83047714293626818
decision_type=2 2 2 2 2 2 2 2 2 2 2 2 2 2 2 2 2 2 2 2 2 2 2 2
left_child=1 4 8 11 5 10 16 -8 17 -7 -1 12 -3 15 -4 -5 -6 21 -16 -20 -15 -2 -19 -10
right_child=2 3 14 13 6 9 7 -9 23 -11 -12 -13 -14 20 18 -17 -18 22 19 -21 -22 -23 -24 -25
leaf_value=-0.029294547404695594 0.041285259997173529 -0.012259067516430182 0.018699032208839169 -0.028534662453226358 0.0065317570454466838 -0.011224019984041258 -0.022297106844839931 -0.0046464154877031314 0.026551124146251173 0.048225849393023761 -0.060924141308571191 -0.044542577332629507 0.012627924388828014 0.040183149901940315 -0.0054462116017259411 0.019511436969968789 0.048325483812112505 0.020107257381775094 -0.0099595206325929012 -0.062480545698419501 0.018186500678243761 0.024584461656996542 -0.013116418019473233 0.056023924261064034
leaf_weight=101.86652891337872 39.43215623497963 52.048693016171455 8.0883301645517367 5.9021558165550259 10.689077571034433 10.835780590772631 84.078386440873146 671.86868892610073 6.6436908841133109 9.2190394103527051 23.696035787463188 8.4308517128229123 56.847372427582741 77.705857753753662 7.9733349531888988 15.145051211118696 12.877627119421957 5.8172462135553342 7.2346804291009894 8.1188882589340192 15.722519248723982 35.815780282020569 5.9455866366624832 62.291134476661682
leaf_count=422 225 221 34 31 47 50 360 2959 44 42 96 39 272 420 34 80 58 31 30 34 83 199 31 410
internal_value=0.00048231 -0.00448173 0.0310223 0.0139385 -0.00911261 -0.0283939 -0.0054726 -0.00664304 0.0406771 0.0168596 -0.0357374 -0.00287263 0.000683962 0.0310874 -0.016526 0.0051282 0.0306103 0.0298296 -0.029212 -0.0401604 0.0367662 0.0338284 0.00321049 0.0536752
internal_weight=1344.29 1156.93 187.361 231.803 925.131 145.617 779.514 755.947 155.946 20.0548 125.563 117.327 108.896 114.476 31.4152 21.0472 23.5667 87.0108 23.3269 15.3536 93.4284 75.2479 11.7628 68.9348
internal_count=6252 5180 1072 1146 4034 610 3424 3319 940 92 518 532 493 614 132 111 105 486 98 64 503 424 62 454
is_linear=0
shrinkage=0.05


Tree=14
num_leaves=23
num_cat=0
split_feature=23 6 5 21 19 5 9 9 5 8 23 3 3 3 8 3 9 4 3 11 3 8
split_gain=75.1956 35.8953 32.6716 20.3233 16.5626 13.7611 12.1003 11.6361 11.0066 7.95061 6.42537 5.49054 5.32172 4.96378 3.79411 2.83641 2.08843 5.73662 1.69911 1.67112 1.01375 0.607209
threshold=0.35071612973492178 0.42230578804923397 0.68270107096774779 1.5000000000000002 2.2083333333333335 0.3500004359566144 0.22243361369970577 0.27173468735751599 0.74713946453861724 0.82661573439458669 0.030517470864933706 0.82134136892872489 0.29302949563861569 0.31852675642426692 0.43872603101279611 0.46214746569496801 0.67418262589467426 0.6465092119929613 0.93519242432110128 10.500000000000002 0.83047714293626818 0.8131561534001065
decision_type=2 2 2 2 2 2 2 2 2 2 2 2 2 2 2 2 2 2 2 2 2 2
left_child=1 3 9 4 12 -6 15 14 -9 16 13 -4 -1 -8 -5 -3 17 -2 -13 -12 -11 -18
right_child=2 6 11 7 5 -7 10 8 -10 20 19 18 -14 -15 -16 -17 21 -19 -20 -21 -22 -23
leaf_value=-0.041186868222442025 0.031737992935114083 0 0.017930032747605882 -0.018249465173862341 -0.010913395334982779 -0.03522451858672198 -0.017170204131991128 0.0046992974556878753 -0.02053517983686419 0.025780135667628781 0.023655211329347101 -0.038586508164665523 0.0010047810986001725 0.021271784111206823 -0.004140375693467555 -0.042912036569492898 0.045776406414252513 -0.003100620566755764 -0.0094121592574324016 0.05176180484572062 0.055194668843481211 0.018304681038536896
leaf_weight=6.9920988082885733 44.884164437651634 7.3317081034183484 8.0571647286415118 114.63911736011505 105.96080268919468 133.81311205029488 8.4851612299680692 415.51258055865765 47.181739687919617 6.5330173671245566 11.461428403854368 13.904553055763246 112.32679708302021 79.234866857528687 84.115917950868607 7.0046708881855011 20.354077056050304 15.349781110882757 9.5422854721546155 22.416678041219711 60.135461792349815 5.068675383925437
leaf_count=30 247 31 34 486 464 568 39 1869 206 44 64 58 499 400 368 31 125 82 40 125 410 32
internal_value=0.000468067 -0.00425751 0.0300861 -0.00748006 -0.017041 -0.0245917 0.0197776 -0.00226412 0.00207657 0.0396395 0.0249249 -0.0157502 -0.00174786 0.0173453 -0.012354 -0.0223329 0.02884 0.0228726 -0.0277885 0.0433472 0.0528097 0.0413885
internal_weight=1340.31 1156.48 183.829 1020.54 359.093 239.774 135.935 661.449 462.694 152.325 121.598 31.504 119.319 87.72 198.755 14.3364 85.6567 60.2339 23.4468 33.8781 66.6685 25.4228
internal_count=6252 5180 1072 4490 1561 1032 690 2929 2075 940 628 132 529 439 854 62 486 329 98 189 454 157
is_linear=0
shrinkage=0.05


Tree=15
num_leaves=25
num_cat=0
split_feature=23 0 21 0 10 9 1 10 10 19 12 9 21 9 19 7 13 2 9 13 10 2 2 10
split_gain=65.8256 35.8724 27.7997 21.3497 14.764 13.4164 15.1313 12.8956 10.4249 8.66044 8.37346 8.1214 8.05023 7.73958 7.07416 7.02611 6.63008 6.36442 4.36619 3.85816 3.69134 3.04082 1.71124 1.0521
threshold=0.35071612973492178 3.5000000000000004 1.5000000000000002 2.5000000000000004 8.2083333333333339 0.24027965065893178 5.0000000000000009 7.791666666666667 11.91666666666667 2.4166666666666674 7.5000000000000009 0.27667686472445863 3.5000000000000004 0.71589796476238099 3.4166666666666674 0.43582025848546813 6.5000000000000009 0.61468929570608555 0.69033500676292192 3.5000000000000004 11.583333333333334 0.89536914060198391 0.9388579141199086 6.5833333333333348
decision_type=2 2 2 2 2 2 2 2 2 2 2 2 2 2 2 2 2 2 2 2 2 2 2 2
left_child=2 18 3 4 9 8 10 15 16 -1 -7 -9 -8 20 -10 -5 -4 -6 19 -2 23 -20 -22 -3
right_child=1 13 5 7 17 6 12 11 14 -11 -12 -13 -14 -15 -16 -17 -18 -19 21 -21 22 -23 -24 -25
leaf_value=-0.017765310135075898 -0.01992881526862935 0.052344394053076053 -0.015483227628148896 0.0068670177100618266 -0.020650195637171381 -0.007057244027257329 0.022242080611023639 -0.033151633341902707 0.027277110952203067 -0.049907142879027339 0.0061922896415679968 -0.0020798258183752586 -0.0093639402104195909 0.054153583863346837 -0.023737658853740025 0.045807046520966156 -0.053573246059183011 0.0033547336595699238 -0.048717835475748601 0.025702295621850824 0.020372224424786586 -0.0093450571763550021 -0.014683957566905777 0.030261073324684307
leaf_weight=34.006323650479317 7.7189904600381878 8.6806257069110853 83.754021391272545 54.923214852809906 86.424919679760933 217.8980396091938 139.9703164845705 31.573922410607338 21.554388374090198 64.39080835878849 260.89675039052963 60.841551959514618 22.69342927634716 59.474047020077705 8.7447395175695402 14.017035767436026 12.805068686604498 39.508421272039413 9.6577759683132189 8.8299005031585676 6.0095614939928037 10.892789036035536 5.8488875925540924 61.413812145590782
leaf_count=140 33 50 356 251 371 946 720 138 91 262 1159 292 107 424 37 75 54 172 40 38 33 45 31 360
internal_value=0.000579116 0.0287483 -0.0037955 -0.0147313 -0.024674 0.00169967 0.00464704 -0.000810483 -0.0130844 -0.0391396 0.000149905 -0.0129903 0.0177719 0.0401789 0.0121058 0.0153976 -0.0210831 -0.0131128 -0.0146057 0.00421063 0.0294464 -0.0294824 0.0028955 0.033764
internal_weight=1332.53 178.526 1154 385.686 224.33 768.317 641.459 161.356 126.858 98.3971 478.795 92.4155 162.664 141.427 30.2991 68.9403 96.5591 125.933 37.0995 16.5489 81.9529 20.5506 11.8584 70.0944
internal_count=6225 1054 5171 1701 945 3470 2932 756 538 402 2105 430 827 898 128 326 410 543 156 71 474 85 64 410
is_linear=0
shrinkage=0.05


Tree=16
num_leaves=24
num_cat=0
split_feature=23 0 21 0 10 6 10 9 4 19 23 12 9 10 2 4 9 2 10 13 2 2 3
split_gain=60.6354 33.5965 25.0728 19.2367 13.3956 12.331 11.7142 10.3931 8.37735 7.83613 7.67642 7.45076 7.26104 6.80218 5.70985 4.59257 3.9556 3.94665 3.59753 3.53108 2.7294 1.37826 1.23205
threshold=0.35071612973492178 3.5000000000000004 1.5000000000000002 2.5000000000000004 8.2083333333333339 0.42230578804923397 7.791666666666667 0.22243361369970577 0.71096114768753271 2.4166666666666674 0.0027033476970174369 7.5000000000000009 0.27667686472445863 6.416666666666667 0.61468929570608555 0.28452153937760022 0.69033500676292192 0.42303080078268945 11.583333333333334 3.5000000000000004 0.89536914060198391 0.9388579141199086 0.89499088242744873
decision_type=2 2 2 2 2 2 2 2 2 2 2 2 2 2 2 2 2 2 2 2 2 2 2
left_child=2 16 3 4 9 10 13 -7 18 -1 17 -12 -8 -5 -6 -9 19 -4 22 -2 -18 -20 -3
right_child=1 8 5 6 14 7 12 15 -10 -11 11 -13 -14 -15 -16 -17 20 -19 21 -21 -22 -23 -24
leaf_value=-0.016872461580283448 -0.018963842369080611 0.028315198371801593 -0.046489734722204759 -0.0029637742168968691 -0.019526392652473159 -0.026010167349708083 -0.031278857612431162 -0.012135425223269422 0.053630083069550472 -0.047438455952917222 -0.0059935291943735 0.0048681379299114966 -0.0019759196914778078 0.028396248493535434 0.0031941466570253492 0.027357026652113387 -0.046172027926018003 -0.0063077165970204119 0.017873304986971188 0.024698172804502927 -0.0089040529921739324 -0.013969874755428739 0.050792463463016239
leaf_weight=34.066862314939499 7.756086781620982 58.185046747326851 12.383839011192324 29.947494462132454 86.874585688114166 10.91746464371681 31.843809559941292 7.3529410958290091 59.013975650072098 64.405916005373001 273.36696588993073 370.78722536563873 60.890232026576996 38.549430474638939 39.471237316727638 79.911168023943901 9.7338513284921664 12.51896485686302 5.6545964479446393 8.7716048806905729 10.90975898504257 5.89048732817173 9.2575669735670072
leaf_count=140 33 342 51 142 371 47 138 35 435 262 1207 1656 292 184 172 422 40 52 31 38 45 31 59
internal_value=0.000554791 0.0278801 -0.00361188 -0.0139886 -0.0234083 0.00161427 -0.00075986 0.0180694 0.0391943 -0.0371903 -0.000816348 0.000248755 -0.0123179 0.0147681 -0.0124197 0.0238729 -0.0139203 -0.0275061 0.0278108 0.00401032 -0.028029 0.00140935 0.0321707
internal_weight=1328.46 175.173 1153.29 386.05 224.819 767.239 161.231 98.1816 138.002 98.4728 669.057 644.154 92.734 68.4969 126.346 87.2641 37.1713 24.9028 78.9877 16.5277 20.6436 11.5451 67.4426
internal_count=6225 1054 5171 1701 945 3470 756 504 898 402 2966 2863 430 326 543 457 156 103 463 71 85 62 401
is_linear=0
shrinkage=0.05


Tree=17
num_leaves=27
num_cat=0
split_feature=0 8 12 8 5 11 8 4 14 8 20 8 0 2 20 5 2 2 9 6 2 3 9 5 19 12
split_gain=48.4286 52.7921 22.4637 16.4005 12.4141 9.70612 9.60907 9.6061 8.16479 7.83066 7.57296 8.39499 8.21681 6.30869 5.88735 7.27058 5.74999 5.46019 4.5048 3.30736 2.69258 5.16059 2.11355 5.12607 1.94457 0.183896
threshold=2.5000000000000004 0.71888115009231079 7.5000000000000009 0.42068153965388405 0.27569757289041918 7.5000000000000009 0.56486483145437283 0.71096114768753271 3.5000000000000004 0.61348414557296727 2.9166666666666674 0.35845207906804505 1.5000000000000002 0.29328564061209811 1.9166666666666667 0.58635966140326345 0.52553077381919355 0.72408253501503539 0.26086933785448696 0.33391317202809995 0.93344437736852204 0.91237743204702293 0.44863751481464892 0.44747249170895503 2.5833333333333335 6.5000000000000009
decision_type=2 2 2 2 2 2 2 2 2 2 2 2 2 2 2 2 2 2 2 2 2 2 2 2 2 2
left_child=2 3 5 16 9 22 -6 20 10 -5 12 -12 -4 -10 17 -16 19 -7 -15 -2 25 -22 23 -1 -18 -3
right_child=1 7 8 4 6 14 -8 -9 13 -11 11 -13 -14 18 15 -17 24 -19 -20 -21 21 -23 -24 -25 -26 -27
leaf_value=-0.052082552302823507 -0.040657903261576082 0.024633271671705335 0.005678565430076379 -0.012747882089406895 0.0077269029018252932 -0.036270931766518993 0.030900630405002561 0.053368357322296389 -0.019584170315694146 0.0077015321007129246 -0.031139633496896343 0.02256041285250622 -0.01287332144689593 -0.00055930397395057517 -0.0040871684320092352 -0.021660849508571202 -0.0099197206635453124 -0.0078845926563245166 0.036676869544999394 -0.013528529345386821 0.0058342620294114514 0.052788185087929512 -0.064308031725695658 -0.0094672700458500111 0.023103795614822648 0.039096259641353721
leaf_weight=14.578498214483263 25.927576646208763 13.686777666211126 95.092065900564194 93.517895594239235 143.26659661531448 47.737700432538986 65.32652060687542 59.87611711025238 7.7412715405225745 91.573663502931595 7.6119614988565436 46.935212403535843 156.04187048971653 10.500193297863005 171.83074156939983 89.782517850399017 8.5086639821529371 27.785197779536247 30.94251860678196 23.02635470032692 30.654043406248093 6.43747954070568 8.1060373187065107 14.512810260057448 7.3119794130325309 26.199173837900162
leaf_count=59 107 83 419 409 710 200 363 454 33 435 32 206 675 45 733 375 36 118 137 97 177 42 33 59 31 157
internal_value=0.00052911 0.0111041 -0.00810074 0.00292774 0.00678344 -0.0166288 0.015121 0.0382385 0.000902613 -0.00261669 -0.00214464 0.014551 -0.00583414 0.0196064 -0.0138481 -0.0101968 -0.0201772 -0.0261323 0.0273338 -0.0285235 0.0258723 0.0152866 -0.0406788 -0.0320103 0.00551198 0.0349795
internal_weight=1324.51 595.313 729.199 458.459 393.685 374.334 208.593 136.854 354.865 185.092 305.681 54.5472 251.134 49.184 337.136 261.613 64.7746 75.5229 41.4427 48.9539 76.9775 37.0915 37.1973 29.0913 15.8206 39.886
internal_count=6225 3101 3124 2188 1917 1577 1073 913 1547 844 1332 238 1094 215 1426 1108 271 318 182 204 459 219 151 118 67 240
is_linear=0
shrinkage=0.05


Tree=18
num_leaves=26
num_cat=0
split_feature=23 0 21 7 9 23 0 20 10 7 9 9 2 8 13 3 12 13 10 13 20 2 10 23 8
split_gain=51.5068 29.6536 21.6482 17.1585 11.2232 12.9818 9.46129 11.4567 9.33977 8.99525 7.5635 7.49312 6.52696 6.47381 5.76606 5.17151 4.20421 5.39669 3.27172 3.22028 2.64331 1.37364 1.19757 0.598426 0.362937
threshold=0.35071612973492178 3.5000000000000004 1.5000000000000002 0.41540770285778067 0.24027965065893178 0.046778468555759595 3.5000000000000004 1.7916666666666667 11.91666666666667 0.40801299111688077 0.32671111285421733 0.71589796476238099 0.59028355072783489 0.35845207906804505 6.5000000000000009 0.48612134655079126 8.5000000000000018 3.5000000000000004 11.583333333333334 4.5000000000000009 2.5833333333333335 0.9388579141199086 6.5833333333333348 0.030044028551632605 0.7957323501471929
decision_type=2 2 2 2 2 2 2 2 2 2 2 2 2 2 2 2 2 2 2 2 2 2 2 2 2
left_child=2 16 3 6 8 13 7 -1 14 -7 15 18 -8 -6 -4 -5 17 -2 22 -19 -10 -20 -3 -12 -13
right_child=1 11 4 10 5 9 12 -9 20 -11 23 24 -14 -15 -16 -17 -18 19 21 -21 -22 -23 -24 -25 -26
leaf_value=-0.037403070071685342 -0.043434178662642417 0.050460765441306656 -0.014200259826864892 -0.025375030745256322 -0.018744168825286355 -0.0037275224126300239 -0.031278752486414735 -0.014245914700105368 -0.0037024299764581805 0.035806661911329848 0.028317355625355246 0.021346226643092631 0.0052162489258552516 0.014076953368331533 -0.049522525659903942 0.025938152214869184 0.019501476898250467 0.022252526703821746 0.017906908138721107 -0.019532628176452418 0.025053497423715262 -0.013705888165100995 0.027367184443508216 0.055127004019481091 0.053432895882614732
leaf_weight=74.898167923092842 13.383836790919306 8.1928490698337537 84.124628737568855 10.560299113392832 14.940810039639471 340.93838456273079 13.918227940797804 193.6327887326479 13.916328281164171 14.008861362934111 11.457158863544466 3.2852874696254721 67.266889676451683 268.28718811273575 12.978963181376455 7.5093626230955115 7.124113827943801 7.1047772020101574 5.781614810228346 9.6594348996877653 16.338887482881546 5.9044391214847565 58.360585391521454 6.9336609840393058 49.986883461475372
leaf_count=315 55 50 356 49 64 1507 59 828 59 84 63 24 308 1277 54 38 31 30 33 40 69 31 360 41 400
internal_value=0.000507151 0.026221 -0.00327636 -0.0129129 0.00158882 0.00430208 -0.0163297 -0.0208382 -0.0118955 -0.00205695 0.0192866 0.0373255 -0.00128401 0.0122681 -0.0194291 -0.00354625 -0.0127814 -0.0209517 0.0267571 -0.00128658 0.0119715 0.00171892 0.030989 0.0410046 0.051976
internal_weight=1320.49 168.784 1151.71 386.177 765.534 638.175 349.716 268.531 127.359 354.947 36.4605 131.512 81.1851 283.228 97.1036 18.0697 37.2722 30.148 78.2395 16.7642 30.2552 11.6861 66.5534 18.3908 53.2722
internal_count=6225 1054 5171 1701 3470 2932 1510 1143 538 1591 191 898 367 1341 410 87 156 125 474 70 128 64 410 104 424
is_linear=0
shrinkage=0.05


Tree=19
num_leaves=26
num_cat=0
split_feature=23 5 21 7 9 23 2 7 9 9 10 19 3 14 6 19 3 10 9 2 2 3 19 23 23
split_gain=47.4823 29.3544 19.4982 15.6202 10.2026 13.594 8.76746 8.0354 7.45403 7.09163 7.04837 6.96757 6.88936 6.68581 5.07755 4.88882 4.71931 3.47091 2.51505 2.46977 2.0348 1.74477 1.02528 0.607203 0.162394
threshold=0.35071612973492178 0.62437962863127494 1.5000000000000002 0.41540770285778067 0.25182192084848287 0.046778468555759595 0.74721209549944889 0.40801299111688077 0.71589796476238099 0.32671111285421733 11.91666666666667 3.2083333333333335 0.40785710963812105 3.5000000000000004 0.59706021937972953 3.9166666666666674 0.48612134655079126 11.583333333333334 0.69033500676292192 0.89536914060198391 0.87103437218688706 0.89499088242744873 1.5833333333333337 0.030044028551632605 0.50632120637547506
decision_type=2 2 2 2 2 2 2 2 2 2 2 2 2 2 2 2 2 2 2 2 2 2 2 2 2
left_child=2 8 3 6 10 12 13 -7 17 16 14 -8 -6 -1 -4 -12 -5 21 20 -20 -3 -2 -19 -11 -10
right_child=1 18 4 9 5 7 11 -9 24 23 15 -13 -14 -15 -16 -17 -18 22 19 -21 -22 -23 -24 -25 -26
leaf_value=-0.02309937849208879 0.026074642948518113 0.019376532873481997 -0.01780939000924792 -0.024028550549043848 0.0030218489136894342 -0.0034870959113960059 0.0017038232311909582 0.034453800743960081 0.024007608077443707 0.027392856273198474 0.019746383145135982 -0.047692118071727303 0.019882154264162216 0.0022341871686297385 0.023368044983671246 -0.022880225993136896 0.025051672090960722 0.01610669088364591 -0.04260813439280417 -0.0073959693293650895 -0.015869565972728247 0.051005440730595333 -0.010776885356162901 0.054239643856987485 0.052747043683301832
leaf_weight=228.23052068054676 57.371967345476151 6.9901920855045301 117.33408890664577 10.648167669773104 101.51120938360691 336.16962188482285 86.728720247745514 13.545900166034697 3.629838451743125 11.289715841412546 27.383987709879875 6.7628388851881018 153.76255576312542 28.791928082704544 7.0456019788980475 7.8128301799297324 7.4239283502101889 5.4120315015315992 9.8068510293960589 10.949959173798559 7.3628858029842377 9.5939848870038968 6.8654763698577881 6.7166157364845267 47.726452574133873
leaf_count=968 353 30 497 49 463 1485 389 83 27 63 117 30 760 123 32 33 38 30 40 45 31 64 37 41 397
internal_value=0.000492576 0.0254363 -0.00311271 -0.0122498 0.00151078 0.00448392 -0.0154881 -0.00190919 0.0363011 0.0186454 -0.00968763 -0.00228329 0.013235 -0.0202444 -0.0152692 0.00977549 -0.00334809 0.0259945 -0.0147255 -0.025456 0.00111423 0.0304179 0.00101761 0.039997 0.0513086
internal_weight=1316.87 165.71 1151.16 386.592 764.566 604.989 350.514 349.716 130.6 36.0784 159.577 93.4916 255.274 257.022 124.38 35.1968 18.0721 79.2435 35.1099 20.7568 14.3531 66.966 12.2775 18.0063 51.3563
internal_count=6225 1054 5171 1701 3470 2791 1510 1568 908 191 679 419 1223 1091 529 150 87 484 146 85 61 417 67 104 424
is_linear=0
shrinkage=0.05


Tree=20
num_leaves=24
num_cat=0
split_feature=23 5 7 10 5 23 9 3 2 21 10 14 8 2 4 3 3 4 8 3 3 3 3
split_gain=52.8073 25.8245 23.0669 16.4483 12.8127 11.8264 11.3993 8.99427 8.24057 7.46091 7.11443 5.35093 4.98589 4.81008 4.56253 4.1969 3.0589 2.90384 1.58967 1.62651 0.865064 0.0775549 0.0756554
threshold=0.37657789045781237 0.62059417890574264 0.3820075953962313 6.916666666666667 0.32046223979012445 0.027298057504713064 0.26284586531861087 0.93769580482592829 0.87342380004858755 3.5000000000000004 12.208333333333334 3.5000000000000004 0.44033175976275757 0.94036864966612022 0.65532055721714932 0.83334064162217503 0.93519242432110128 0.4253886865239796 0.75118269215592892 0.86818955945860354 0.84144504302742218 0.76692162584565338 0.77280611826206436
decision_type=2 2 2 2 2 2 2 2 2 2 2 2 2 2 2 2 2 2 2 2 2 2 2
left_child=2 14 3 4 8 9 10 -8 -1 12 -5 -6 -4 17 18 -3 -17 -7 21 -20 22 -2 -16
right_child=1 15 5 6 11 13 7 -9 -10 -11 -12 -13 -14 -15 20 16 -18 -19 19 -21 -22 -23 -24
leaf_value=-0.013534767799248544 0.026480758564488522 0.019640021824877812 -0.0084975487216350769 -0.016674403045366257 -0.043326995949465291 0.010393387092890682 -0.0017429792151707922 0.023860027051293364 0.041371519054694744 -0.029242477195083001 0.0080513233654598611 0.00094987601417730939 0.01713947724913522 0 0.044435762070293428 -0.035182513124838555 0.00049742278760026828 0.052449436147570742 0.0055405622558394093 0.031572224261433676 0.053481606401733266 0.050494240885833888 0.029476369739873384
leaf_weight=30.588176310062408 7.5395877659320814 7.372471675276759 24.062086224555969 201.49733008444309 56.841007485985756 5.8336319625377646 643.84227481484413 35.223404034972191 7.7127898782491675 11.978457137942312 33.065236330032349 7.4387353360652915 77.2188560962677 7.0536669939756385 14.754914261400698 14.263305231928827 9.4106647968292219 27.242307990789413 16.472001835703853 9.603361174464224 42.4580098092556 4.8098861277103424 17.834109053015709
leaf_count=136 45 31 103 856 234 34 2880 161 37 55 141 31 401 42 100 59 39 164 99 64 357 31 136
internal_value=0.000440215 0.0288495 -0.00308748 -0.00582186 -0.0247164 0.0149158 -0.00367024 -0.000374457 -0.00157954 0.00646023 -0.0131483 -0.0381904 0.0109763 0.0379216 0.0398397 -0.0111522 -0.0213514 0.0457014 0.0245043 0.0161245 0.0472004 0.03929 0.0375195
internal_weight=1314.12 144.518 1169.6 1016.21 102.581 153.389 913.628 679.066 38.301 113.259 234.563 64.2797 101.281 40.1296 113.472 31.0464 23.674 33.0759 38.4248 26.0754 75.047 12.3495 32.589
internal_count=6236 961 5275 4476 438 799 4038 3041 173 559 997 265 504 240 832 129 98 198 239 163 593 76 236
is_linear=0
shrinkage=0.05


Tree=21
num_leaves=25
num_cat=0
split_feature=23 5 7 10 0 23 9 19 3 8 3 9 4 2 4 7 3 4 3 8 21 3 19 3
split_gain=48.8838 24.2855 20.9641 15.102 15.0674 11.1133 10.6057 10.0636 9.65251 8.70269 7.93016 4.61762 4.59869 4.57203 4.47525 4.20087 3.81902 2.79616 2.76373 1.52713 2.21848 0.909956 0.227251 0.0929341
threshold=0.37657789045781237 0.62059417890574264 0.3820075953962313 7.0833333333333348 2.5000000000000004 0.027298057504713064 0.19419817789571112 2.9166666666666674 0.93769580482592829 0.52345128358797999 0.33402415499709726 0.32791389472037152 0.33677495491554138 0.94036864966612022 0.65532055721714932 0.63506218803808934 0.83334064162217503 0.4253886865239796 0.93519242432110128 0.75118269215592892 1.5000000000000002 0.84144504302742218 1.2916666666666667 0.76692162584565338
decision_type=2 2 2 2 2 2 2 2 2 2 2 2 2 2 2 2 2 2 2 2 2 2 2 2
left_child=2 14 3 4 12 7 10 11 -8 -6 -5 -4 -1 17 19 -9 -3 -7 -18 23 -21 22 -16 -2
right_child=1 16 5 6 9 13 8 15 -10 -11 -12 -13 -14 -15 21 -17 18 -19 -20 20 -22 -23 -24 -25
leaf_value=0.00032879806355705745 0.025661799671066639 0.018842643867874116 0.0084023496219894807 0.00083592596138273758 -0.0393490250824527 0.010000158213719598 -0.0032345279028531439 -0.024961242772186611 0.021518765674188704 0.01334471679982014 -0.045412291122802331 0.035964091899002661 -0.038123424128637784 0 0.050515183078819553 0.015625525732388824 -0.033386429775187097 0.051444943988383278 0.00047497757314394714 -0.0090235168103467746 0.02352313636982296 0.052874837381247312 0.031042741780196389 0.049705908416895699
leaf_weight=8.3720100075006467 7.4260351061820966 7.3433074653148678 57.852729439735413 14.265794575214384 9.0017632097005826 5.800066649913787 811.63425444066525 27.138947561383247 40.360170990228653 35.063974991440773 24.225319147109985 20.484347298741341 73.753850549459457 7.0536669939756385 6.5532330870628384 7.3370644450187674 14.331070676445963 26.425857052206993 9.4098836779594404 6.1501387953758266 19.683045327663422 40.850253283977509 25.265286214649677 4.6614946871995926
leaf_count=34 45 31 277 59 38 34 3593 129 185 165 100 117 302 42 52 36 59 164 39 40 123 357 184 31
internal_value=0.000435172 0.0280688 -0.00293132 -0.00552762 -0.0216531 0.0143139 -0.00321514 0.00615091 -0.00203222 0.00183518 -0.0285578 0.016035 -0.0341866 0.0368997 0.0389765 -0.0159858 -0.0105876 0.0446616 -0.0202864 0.0237572 0.0155409 0.0464203 0.0366226 0.0384058
internal_weight=1310.44 141.674 1168.77 1016.68 126.192 152.093 890.486 112.813 851.994 44.0657 38.4911 78.3371 82.1259 39.2796 110.589 34.476 31.0843 32.2259 23.741 37.9207 25.8332 72.6688 31.8185 12.0875
internal_count=6236 961 5275 4476 539 799 3937 559 3778 203 159 394 336 240 832 165 129 198 98 239 163 593 236 76
is_linear=0
shrinkage=0.05


Tree=22
num_leaves=24
num_cat=0
split_feature=23 0 7 10 23 9 0 3 10 3 12 9 2 8 10 20 4 3 4 8 2 3 3
split_gain=45.2359 20.4232 19.1099 14.0388 10.4217 9.59001 8.61302 8.05603 6.41592 5.88927 5.71975 4.35335 4.34656 4.30465 3.76994 3.08935 2.69415 2.3062 1.24872 3.05011 1.01521 0.685481 0.497592
threshold=0.37657789045781237 3.5000000000000004 0.3820075953962313 6.5833333333333348 0.027298057504713064 0.26284586531861087 2.5000000000000004 0.93769580482592829 12.208333333333334 0.55594472650990723 4.5000000000000009 0.69600649899831502 0.94036864966612022 0.82661573439458669 7.916666666666667 2.4166666666666674 0.4253886865239796 0.42674212465414874 0.61246214466402349 0.76514753719807338 0.89536914060198391 0.83047714293626818 0.70880046350532633
decision_type=2 2 2 2 2 2 2 2 2 2 2 2 2 2 2 2 2 2 2 2 2 2 2
left_child=2 11 3 6 14 8 10 -7 -5 -8 -1 -2 16 18 17 -16 -6 -4 19 -3 -13 -15 -20
right_child=1 13 4 5 12 7 9 -9 -10 -11 -12 20 -14 21 15 -17 -18 -19 22 -21 -22 -23 -24
leaf_value=-0.056925688895004559 0.013457540649267017 0.0351210725847063 0.00074065655287623602 -0.015543370474919964 0.0096205854498373853 -0.0018128148170889272 -0.028841916963393249 0.022486100033997855 0.0079282990783566005 0.016039076601126089 -0.02200518675844778 -0.034565340146530239 0 0.022774853858359055 -0.0075925445446626176 0.010213422815985992 0.050474589135715509 0.039936954394807794 0.01522647377024847 -0.0038160784950075433 -0.0094872914965065756 0.052229644290167188 0.035590647769319812
leaf_weight=21.112198710441589 13.633037358522413 8.70577619969845 5.9535665065050152 202.69347636401653 5.7677532136440304 665.79480770230293 11.465011641383173 34.939399927854538 33.036356791853905 16.617300629615784 31.285175159573555 8.645402744412424 7.0536669939756385 5.0850151926279059 44.514851897954941 51.185925379395485 25.626786924898624 10.769558966159819 6.6577971726655951 9.6541004776954633 10.015025377273558 41.118498980998993 35.390882670879364
leaf_count=88 59 55 31 857 34 2970 49 162 141 81 128 35 42 44 220 249 164 59 41 61 41 376 249
internal_value=0.000428616 0.0273001 -0.00278396 -0.00525374 0.0137555 -0.00351146 -0.0251737 -0.000563801 -0.0122132 -0.002474 -0.0369717 -0.0072379 0.0359071 0.0377784 0.00588601 0.00188647 0.043652 0.027094 0.0279602 0.0152491 -0.0225275 0.049645 0.032911
internal_weight=1306.72 138.906 1167.82 1016.94 150.872 936.464 80.4797 700.734 235.73 28.0823 52.3974 32.2935 38.4482 106.612 112.424 95.7008 31.3945 16.7231 60.4086 18.3599 18.6604 46.2035 42.0487
internal_count=6236 961 5275 4476 799 4130 346 3132 998 130 216 135 240 826 559 469 198 90 406 116 76 420 290
is_linear=0
shrinkage=0.05


Tree=23
num_leaves=24
num_cat=0
split_feature=23 5 7 10 0 19 9 3 4 14 3 3 3 7 20 9 4 12 3 19 23 3 19
split_gain=41.7701 21.587 17.4168 12.8273 12.8805 10.1544 9.23113 8.06189 7.88652 7.80186 7.05291 6.66551 6.32252 6.22158 5.06767 4.61712 4.3987 3.45436 2.2724 1.3332 2.6268 0.99084 0.308517
threshold=0.37657789045781237 0.62059417890574264 0.3820075953962313 7.0833333333333348 2.5000000000000004 2.9166666666666674 0.19419817789571112 0.93769580482592829 0.5839502068765442 2.5000000000000004 0.33402415499709726 0.40149134962990402 0.56227250362465264 0.68106912481384618 2.5833333333333335 0.3232210377296823 0.65532055721714932 8.5000000000000018 0.89848067420859501 2.5833333333333335 0.41538300547854373 0.84144504302742218 1.2916666666666667
decision_type=2 2 2 2 2 2 2 2 2 2 2 2 2 2 2 2 2 2 2 2 2 2 2
left_child=2 16 3 4 9 8 10 -8 15 -1 -5 -10 -6 14 -7 -4 19 18 -3 20 -2 22 -18
right_child=1 17 5 6 12 13 7 -9 11 -11 -12 -13 -14 -15 -16 -17 21 -19 -20 -21 -22 -23 -24
leaf_value=-0.042417426911584816 0.044720259136367402 -0.035146714337556076 0.0017089163486077635 0.0012463337510749206 -0.018612843189278198 -0.035283513897069942 -0.0028542073170030585 0.019907737934034598 0.0038065394417000349 -0.0091201175760094923 -0.042243151685210409 0.052739544319750122 0.018656095835365382 0.035948583483637345 0.0028683633433423 0.027401626553705278 0.049466157373439568 0.019182313979113241 -0.0041381361255914189 0.0022523058722967414 0.013116745181433751 0.051759432282251043 0.029212258806746695
leaf_weight=54.189801096916199 11.595520779490473 10.467351257801061 47.975071147084236 14.284577175974844 19.660852000117302 17.05322028696537 813.20850294828415 39.821647152304649 9.8927249461412412 27.41902756690979 24.429751023650169 26.08108402043581 24.279144316911697 5.5983467847108832 16.107857838273048 27.07332980632782 6.178920783102515 6.9418474882841101 13.694511264562605 7.5341950953006736 17.738329842686653 37.840827003121376 24.198162592947483
leaf_count=224 76 43 233 59 84 84 3593 185 51 112 100 160 119 30 78 163 52 30 56 47 116 357 184
internal_value=0.000418425 0.0265207 -0.00264335 -0.00499323 -0.0198986 0.0132108 -0.00286917 -0.0017637 0.0208678 -0.0315365 -0.0264434 0.0398852 0.00182583 -0.00856925 -0.0170636 0.0112816 0.0372799 -0.00970307 -0.0186333 0.0221369 0.0268367 0.0449535 0.0349366
internal_weight=1303.26 136.19 1167.07 1017.29 125.549 149.782 891.744 853.03 111.022 81.6088 38.7143 35.9738 43.94 38.7594 33.1611 75.0484 105.086 31.1037 24.1619 36.868 29.3339 68.2179 30.3771
internal_count=6236 961 5275 4476 539 799 3937 3778 607 336 159 211 203 192 162 396 832 129 99 239 192 593 236
is_linear=0
shrinkage=0.05


Tree=24
num_leaves=24
num_cat=0
split_feature=23 5 0 10 11 0 8 20 23 5 4 2 20 12 5 2 4 8 9 13 21 4 4
split_gain=38.6195 20.3032 13.6308 21.5444 11.4163 10.8733 8.22229 7.22032 6.84171 7.93067 6.10081 6.32357 5.84224 5.10587 6.06037 4.41495 4.36604 2.98602 2.76924 2.68365 1.09362 1.75951 0.792792
threshold=0.37657789045781237 0.62059417890574264 2.5000000000000004 7.916666666666667 11.500000000000002 1.5000000000000002 0.6177164164331802 1.9166666666666667 0.005232771058458833 0.21665199262959092 0.55395795285128502 0.85375493246322831 2.5833333333333335 4.5000000000000009 0.31712083659402884 0.5571733558594486 0.71096114768753271 0.7957323501471929 0.70202881017264929 3.5000000000000004 3.5000000000000004 0.55395795285128502 0.90506818592751537
decision_type=2 2 2 2 2 2 2 2 2 2 2 2 2 2 2 2 2 2 2 2 2 2 2
left_child=2 16 3 13 10 7 -7 -5 12 -10 11 -4 -6 15 -15 -1 20 -18 -3 -12 21 -2 -20
right_child=1 18 4 5 8 6 -8 -9 9 -11 19 -13 -14 14 -16 -17 17 -19 22 -21 -22 -23 -24
leaf_value=-0.018398241786202273 0.0039420098279045052 0.0073424901331728175 0.00068447454613572792 -0.011574869885808466 -0.028390320318077911 -0.0063097728958032041 -0.037930998456448574 0.0099789690451009064 -0.011894818691368901 0.0099726465956539358 0.033561039563425023 0.024316733569656267 -0.00067129332642042574 0.017179021606652828 -0.022734809039387613 -0.060143244525377629 0.0031878079479499954 0.05189287672498049 -0.030901072998755299 0.012632636555334529 0.0042006918789205556 0.032235904964666197 -0.0076345543448607103
leaf_weight=12.690945893526079 7.0897534489631644 13.41703535616398 113.55634836852551 47.767924711108208 40.409178450703621 293.54919317364693 21.283787250518799 188.87415467202663 63.260701522231102 115.58312481641769 38.058755300939083 36.944204151630402 35.931346446275711 9.6050503402948362 102.4656043201685 16.117545753717422 3.7773627713322631 42.333913564682007 9.845273509621622 29.898779638111591 6.0491380989551535 43.216575615108013 7.8553368151187888
leaf_count=53 47 57 532 207 167 1257 90 826 293 617 202 188 150 40 422 68 31 415 40 163 37 302 32
internal_value=0.00041064 0.0257752 -0.0025106 -0.00698056 0.00401384 -0.00249517 -0.00857664 0.00557673 -0.00315062 0.00218675 0.0123818 0.00664083 -0.0155858 -0.0243621 -0.0191481 -0.0431553 0.0364447 0.0481615 -0.00924352 0.0247426 0.026098 0.0285004 -0.0218034
internal_weight=1299.58 133.584 1166 692.354 473.642 551.475 314.833 236.642 255.184 178.844 218.458 150.501 76.3405 140.879 112.071 28.8085 102.467 46.1113 31.1176 67.9575 56.3555 50.3063 17.7006
internal_count=6236 961 5275 2963 2312 2380 1347 1033 1227 910 1085 720 317 583 462 121 832 446 129 365 386 349 72
is_linear=0
shrinkage=0.05


Tree=25
num_leaves=25
num_cat=0
split_feature=23 5 14 6 3 7 4 10 19 9 13 10 13 23 9 4 20 5 21 19 23 3 13 8
split_gain=31.7858 20.8842 17.6409 11.3826 7.16753 12.1176 6.81591 6.54909 6.22633 6.14712 13.0862 8.41935 5.91651 4.39585 3.93692 4.4751 3.6259 3.42042 3.09353 2.03536 1.36959 1.27529 2.08721 1.13648
threshold=0.35071612973492178 0.49326802017042448 2.5000000000000004 0.58371092176264772 0.72087692333610021 0.36224914171566353 0.67462789390133848 11.708333333333334 3.0833333333333335 0.27758014913938567 1.5000000000000002 7.291666666666667 3.5000000000000004 0.013530676643343268 0.69033500676292192 0.90506818592751537 3.2083333333333335 0.38459960456110703 3.5000000000000004 1.1250000000000002 0.41538300547854373 0.85755859806070334 1.5000000000000002 0.61561514226858172
decision_type=2 2 2 2 2 2 2 2 2 2 2 2 2 2 2 2 2 2 2 2 2 2 2 2
left_child=2 6 3 4 8 -6 18 9 -1 10 -4 -11 17 -5 19 -16 -14 -9 20 -3 -2 22 -8 -15
right_child=1 14 7 13 5 -7 21 12 -10 11 -12 -13 16 23 15 -17 -18 -19 -20 -21 -22 -23 -24 -25
leaf_value=-0.0044579551583339211 0.0322821592561124 0.023195743478830508 0.050667074894228448 -0.0025981982510347003 -0.028803101980529894 0.015643673569496398 0.0015337424553597497 0.016101156488576344 -0.017858601292824752 -0.013001115750398154 -0.011829114270088446 0.0092041419348227183 0.039476613077333966 0.046255868028200746 -0.041984491967332699 0.0040258306034652285 0 -0.018266924885535159 -0.011446906969793546 -0.0088336712377414008 0.014142434503018608 0.054071863584469949 0.040167207990664935 0.015682954055750882
leaf_weight=392.30665998905897 24.374665029346943 8.6525926887989062 8.0006865561008436 11.289131775498392 92.258162438869476 17.532267995178699 4.5371945872902897 15.61563014984131 111.37763425707817 50.031133458018303 118.72854505479336 258.24520946294069 28.972165837883949 10.998881459236147 12.567870721220972 8.0884598940610868 7.0684678405523291 11.803797975182531 6.3434997051954261 9.1141947507858259 24.766918390989304 27.638116210699081 22.073471955955029 6.840309150516986
leaf_count=1734 156 38 34 52 407 96 39 69 489 219 511 1209 131 65 51 33 31 53 37 39 168 290 190 44
internal_value=-0.000250897 0.0214526 -0.00308958 -0.00856182 -0.0100272 -0.0215832 0.032495 0.00395802 -0.00746061 0.00173719 -0.00747867 0.00555383 0.0188407 0.0214432 -0.0099814 -0.0243832 0.0318793 0.00100793 0.0194652 0.00690334 0.023704 0.0451378 0.0340553 0.036253
internal_weight=1289.23 148.157 1141.07 642.603 613.475 109.79 109.734 498.466 503.684 435.006 126.729 308.276 63.4601 29.1283 38.4231 20.6563 36.0406 27.4194 55.4851 17.7668 49.1416 54.2488 26.6107 17.8392
internal_count=6185 1041 5144 2887 2726 503 880 2257 2223 1973 545 1428 284 161 161 84 162 122 361 77 324 519 229 109
is_linear=0
shrinkage=0.05


Tree=26
num_leaves=27
num_cat=0
split_feature=23 5 21 9 7 2 20 23 9 2 2 3 19 8 4 3 5 4 6 12 19 19 20 6 3 2
split_gain=29.4313 18.1891 14.6428 11.2226 9.80919 9.19532 8.11953 7.63113 16.7193 7.14647 8.88005 7.36288 6.05718 5.95828 5.87608 5.87002 4.97499 4.47209 4.1088 3.14643 3.02042 2.79843 2.51289 2.27262 1.16782 2.58835
threshold=0.28272762007110147 0.51990518039659495 1.5000000000000002 0.67418262589467426 0.39930136820095569 0.9142626634887141 2.7916666666666674 0.049704292710322485 0.25182192084848287 0.90324379934689736 0.97868188952804236 0.41407187920042726 3.4166666666666674 0.48216477847441391 0.71096114768753271 0.47672592466238239 0.74713946453861724 0.91703940708019227 0.4755820329268306 10.500000000000002 2.5833333333333335 1.9166666666666667 2.2083333333333335 0.40817686526600011 0.85755859806070334 0.97475726444569954
decision_type=2 2 2 2 2 2 2 2 2 2 2 2 2 2 2 2 2 2 2 2 2 2 2 2 2 2
left_child=2 3 4 19 5 6 -1 8 12 11 -11 -9 -4 -10 22 18 -16 -18 -6 20 -2 -7 -3 -17 25 -5
right_child=1 14 7 24 15 21 -8 9 13 10 -12 -13 -14 -15 16 23 17 -19 -20 -21 -22 -23 -24 -25 -26 -27
leaf_value=-0.019583866840889402 0.023715106935843069 -0.0022207199459414496 -0.0032296921504828026 0.040150535410006447 -0.025930682015506079 0.041041191023309297 0.0074178370677485395 -0.022043930589572477 0.006795369959874769 -0.03384523544340385 0.0088780914997656519 0.0018453407917233577 -0.02877750916262832 0.022579592919337973 -0.041930910670594228 0.048800526433111294 -0.020344310632859672 0.020504499348784427 0.020114892309485301 -0.011959824078911715 0.0030538065632930941 0.0031356081619389794 0.036895222997161567 0.01337533759951872 0.05337178653913003 -0.0013710361780873315
leaf_weight=271.86252392828465 68.305766671895981 7.4073249697685224 119.00329506397247 22.180891871452335 11.533185943961145 6.6100549995899227 30.200521931052208 36.819793507456779 162.85271786153316 39.785354033112526 16.592791110277176 217.03657134622335 28.117534548044205 96.039026126265526 13.088194474577902 8.3095036745071429 16.388892613351349 9.8609750866889936 6.8796428292989722 8.5478176176547986 24.970400765538216 14.963288962841032 7.3711298704147339 11.999331302940844 26.024369135499001 4.1262057870626441
leaf_count=1157 403 31 505 194 55 30 129 159 726 183 76 967 117 524 56 46 68 42 38 45 137 67 31 74 288 37
internal_value=-0.000226397 0.0169308 -0.00355658 0.0256501 -0.0117328 -0.0145852 -0.0168521 0.000583471 0.00509576 -0.00530322 -0.0212485 -0.00167288 -0.00830743 0.0127343 -0.00783091 0.0117488 -0.0178937 -0.0046263 -0.00831903 0.0156453 0.0183281 0.016275 0.0180743 0.0297144 0.0443647 0.0336432
internal_weight=1286.88 208.272 1078.61 154.155 362.358 323.636 302.063 716.247 406.013 310.235 56.3781 253.856 147.121 258.892 54.1165 38.7217 39.3381 26.2499 18.4128 101.824 93.2762 21.5733 14.7785 20.3088 52.3315 26.3071
internal_count=6185 1332 4853 1104 1596 1383 1286 3257 1872 1385 259 1126 622 1250 228 213 166 110 93 585 540 97 62 120 519 231
is_linear=0
shrinkage=0.05


Tree=27
num_leaves=24
num_cat=0
split_feature=0 9 14 23 9 21 10 6 2 3 10 10 10 3 2 21 9 21 3 3 9 10 2
split_gain=27.2149 29.5067 15.9681 11.9289 11.3715 10.3676 10.0964 7.67717 7.07043 6.44533 7.42285 5.92721 6.64096 5.32814 5.27528 5.26617 4.16182 4.1378 4.08777 3.71316 1.99312 1.6449 1.35737
threshold=2.5000000000000004 0.61350950047549169 2.5000000000000004 0.060316766229956902 0.27286445302922374 1.5000000000000002 6.7083333333333348 0.42230578804923397 0.77094154357124722 0.9811504272830327 11.208333333333334 7.791666666666667 11.41666666666667 0.4568370770052767 0.74322914424534769 3.5000000000000004 0.2977803508460477 3.5000000000000004 0.37962361707840714 0.85497359918179183 0.40087799377758643 8.9166666666666696 0.97335890385777946
decision_type=2 2 2 2 2 2 2 2 2 2 2 2 2 2 2 2 2 2 2 2 2 2 2
left_child=2 4 3 14 11 21 20 8 -6 10 -8 -2 -13 -7 18 19 -16 -9 -1 22 -4 -5 -3
right_child=1 15 6 5 7 13 9 17 -10 -11 -12 12 -14 -15 16 -17 -18 -19 -20 -21 -22 -23 -24
leaf_value=-0.016379160646131073 0.028437074691283579 0.032932834552619542 -0.013938184091958792 -0.045613508017331952 -0.0039390370779798988 0.0072044070153187119 -0.0012183650216151991 0.026026640027406747 0.01286689784598607 0.048037313902936543 0.018294690001855515 -0.017918014982428648 0.0065569522932091805 -0.018811042738055055 0.034335165553887166 -0.0045918277210780954 -0.010692988069938715 -0.0091794565532714902 -0.001538819796038344 0.053773008245226697 -0.048255508411143427 -0.023698270823997194 0.0081714872961429607
leaf_weight=77.474983632564545 9.1649268418550474 40.552086547017097 10.011402234435083 40.90344911813736 131.03448650240898 23.001753509044647 234.87643130123615 69.362150236964226 117.67191528528929 7.1186596602201453 60.345742300152779 98.203926935791969 37.500192195177078 111.1638193577528 13.287780418992044 7.1762577667832366 7.1892551630735388 8.7389437407255155 116.18775933980942 28.599086828529835 9.3564510941505414 17.043899491429329 7.9532172530889502
leaf_count=327 42 308 41 173 611 98 1003 425 632 32 264 428 161 476 57 47 31 45 495 316 39 73 61
internal_value=-0.000205136 0.00811263 -0.00656684 -0.0131458 0.00320031 -0.0221682 0.00174052 0.00836998 0.00401211 0.00403809 0.00280167 -0.00840502 -0.0111196 -0.0142936 -0.00496272 0.0351859 0.0185317 0.0219579 -0.00755504 0.0389635 -0.0323173 -0.0397638 0.0292209
internal_weight=1283.92 555.957 727.961 406.253 471.677 192.113 321.709 326.807 248.706 302.341 295.222 144.869 135.704 134.166 214.14 84.2806 20.477 78.1011 193.663 77.1044 19.3679 57.9473 48.5053
internal_count=6185 3076 3109 1730 2344 820 1379 1713 1243 1299 1267 631 589 574 910 732 88 470 822 685 80 246 369
is_linear=0
shrinkage=0.05


Tree=28
num_leaves=24
num_cat=0
split_feature=23 5 14 0 23 3 7 21 4 19 10 13 3 21 9 2 10 4 9 4 2 3 2
split_gain=24.9524 17.0865 14.4988 10.7213 12.5477 9.37097 8.21182 7.29527 6.45792 6.19032 7.73676 7.78308 6.01976 5.78129 5.06992 4.07082 4.06153 3.58738 3.44343 3.82699 3.25879 1.40725 2.384
threshold=0.35071612973492178 0.49326802017042448 2.5000000000000004 2.5000000000000004 0.060316766229956902 0.41407187920042726 0.36224914171566353 1.5000000000000002 0.67462789390133848 4.5833333333333348 11.708333333333334 3.5000000000000004 0.6620996508875806 3.5000000000000004 0.19419817789571112 0.93344437736852204 8.9166666666666696 0.65190666107793727 0.69033500676292192 0.90506818592751537 0.84594908479485575 0.85755859806070334 0.97475726444569954
decision_type=2 2 2 2 2 2 2 2 2 2 2 2 2 2 2 2 2 2 2 2 2 2 2
left_child=2 8 3 4 14 13 -7 -6 15 10 12 -12 -4 -5 -1 17 -17 -2 20 -20 -3 22 -10
right_child=1 18 9 5 7 6 -8 -9 21 -11 11 -13 -14 -15 -16 16 -18 -19 19 -21 -22 -23 -24
leaf_value=-0.033295432124165213 0.038150459905722856 0.031452440654834102 -0.0016521217181379366 -0.0097709293888201456 -0.037505072137857864 -0.0013614151480329957 0.020414818183972012 -0.015351127975836973 0.038355376257654193 -0.038636492389036103 0.0008164087121646272 0.037054878797693022 0.011384629289079559 -0.052083277809284713 -0.0026069086343133751 0.026501892177084832 -0.012997701038236602 -0.0062327759200252854 -0.038304714972082286 0.0041551738635830218 -0.0098012861224314567 0.052975274607784055 -0.0016757862393852862
leaf_weight=13.503735199570654 23.315291732549671 7.0682544261217144 305.66008093953133 48.70293091237545 56.898941725492477 136.52229104936123 62.07171006500721 115.54708002507687 20.740284979343418 7.4528995007276526 26.826555281877518 33.042421936988831 123.30371248722076 9.0078566372394544 200.82963395118713 9.6924450248479861 15.552163012325762 5.0584739446640006 12.624882668256761 8.0770259201526624 10.698163375258444 24.354891762137413 4.1034633591771117
leaf_count=55 158 31 1364 223 242 630 348 494 192 34 120 151 588 40 855 68 99 36 51 33 46 290 37
internal_value=-0.000190071 0.0195489 -0.00265715 -0.00760957 -0.0128545 0.000305034 0.005488 -0.0228638 0.0301164 0.00375253 0.00448657 0.0211792 0.00210137 -0.0172351 -0.00470925 0.0174503 0.00240926 0.0301248 -0.00861631 -0.0220801 0.00714624 0.0431981 0.0317409
internal_weight=1280.66 141.285 1139.37 643.084 386.779 256.305 198.594 172.446 102.817 496.286 488.833 59.869 428.964 57.7108 214.333 53.6184 25.2446 28.3738 38.4683 20.7019 17.7664 49.1986 24.8437
internal_count=6185 1041 5144 2887 1646 1241 978 736 880 2257 2223 271 1952 263 910 361 167 194 161 84 77 519 229
is_linear=0
shrinkage=0.05


Tree=29
num_leaves=26
num_cat=0
split_feature=23 0 14 0 8 8 21 0 9 20 9 21 3 19 9 8 9 9 21 11 8 19 3 12 20
split_gain=22.9774 15.1802 13.1154 9.65701 13.0217 10.5661 8.94571 6.37906 6.21171 5.78866 10.8637 8.65163 8.21123 9.77796 7.5734 7.43504 5.42405 3.50137 2.6471 2.14076 2.03651 1.91498 1.34836 1.57626 1.2379
threshold=0.35071612973492178 2.5000000000000004 2.5000000000000004 2.5000000000000004 0.52345128358797999 0.58242645506438628 1.5000000000000002 1.5000000000000002 0.67418262589467426 2.2916666666666674 0.23445000612135367 1.5000000000000002 0.75543811529777682 2.7916666666666674 0.20657910561770831 0.50365563142682923 0.45455178922498879 0.69033500676292192 3.5000000000000004 13.500000000000002 0.70788720255643423 1.1250000000000002 0.85755859806070334 8.5000000000000018 2.4166666666666674
decision_type=2 2 2 2 2 2 2 2 2 2 2 2 2 2 2 2 2 2 2 2 2 2 2 2 2
left_child=2 17 3 4 7 16 -6 -1 18 10 14 -12 13 -11 -4 -14 -5 21 19 -3 -7 -2 23 -10 -19
right_child=1 8 9 5 6 20 -8 -9 22 12 11 -13 15 -15 -16 -17 -18 24 -20 -21 -22 -23 -24 -25 -26
leaf_value=0.011281517435517805 0.023696821515621261 0.024760221551121512 0.0028104415188322531 -0.0041206267462141543 -0.038981274950539629 0.016660556102302881 -0.014368595222314701 -0.0087528640116699835 0.03942096807488029 -0.003898689990371248 -0.01264219942189403 0.0093050595542343486 -0.020131844664714914 0.016864840691209994 -0.053545909887466006 0.036012313470810832 -0.036059757723177682 -0.029720765286517004 -0.011698783344971639 -0.0066081713236737496 -0.011498979233665163 -0.0070802245159596322 0.052286655562314981 0.0095517547918858095 -0.0032444123850256922
leaf_weight=51.449373334646225 8.9427749514579791 41.070547848939896 8.9681043475866336 156.4966936558485 54.790054798126221 79.782691568136215 119.18144758045673 161.86949646472931 16.798202954232696 138.67110339552164 68.584497556090355 125.38612438738346 6.1543070375919333 94.285506337881088 15.373235791921614 38.230380736291409 13.653915882110594 13.275801479816439 6.3210909515619269 5.5453402996063224 6.0707341805100432 9.2147453129291517 22.872866086661816 7.5856643244624129 7.4376785755157462
leaf_count=221 40 288 37 739 233 410 508 684 161 631 306 582 27 419 64 191 59 54 37 35 33 39 288 69 30
internal_value=-0.000178433 0.0189289 -0.00253036 -0.00723783 -0.0122086 0.000280838 -0.0223271 -0.00386744 0.0291484 0.00357153 -0.00249588 0.00149422 0.00835732 0.00451981 -0.0332936 0.0278452 -0.00690855 -0.00735807 0.0167376 0.0208633 0.0145023 0.00826252 0.0423125 0.0310682 -0.0210313
internal_weight=1278.01 139.065 1138.95 643.294 387.29 256.004 173.972 213.319 100.194 495.653 218.312 193.971 277.341 232.957 24.3413 44.3847 170.151 38.871 52.937 46.6159 85.8534 18.1575 47.2567 24.3839 20.7135
internal_count=6185 1041 5144 2887 1646 1241 741 905 878 2257 989 888 1268 1050 101 218 798 163 360 323 443 79 518 230 84
is_linear=0
shrinkage=0.05


Tree=30
num_leaves=28
num_cat=0
split_feature=5 4 20 21 23 7 10 23 8 23 11 12 19 4 5 8 2 4 12 23 2 5 2 20 8 2 21
split_gain=17.154 19.7086 16.7372 18.532 11.7892 13.1052 10.2301 9.35264 9.12998 7.66423 7.47088 7.93982 7.39979 8.69829 6.585 7.50548 6.16472 5.61667 5.32291 5.28388 5.23733 3.35974 2.34938 2.24969 2.20319 1.77295 1.11627
threshold=0.31299314968698394 0.5839502068765442 1.7916666666666667 1.5000000000000002 0.0029070255673565928 0.22105173000008074 8.9166666666666696 0.026781260480746635 0.7301999611179415 0.01503089715803339 11.500000000000002 5.5000000000000009 2.0833333333333335 0.35654472760421418 0.26130706229158002 0.39106006591042797 0.87342380004858755 0.44361780731525552 8.5000000000000018 0.57693500641181628 0.36248896292766136 0.8670856455337399 0.37313789369891526 2.7916666666666674 0.6017068098130377 0.39488338186760602 1.5000000000000002
decision_type=2 2 2 2 2 2 2 2 2 2 2 2 2 2 2 2 2 2 2 2 2 2 2 2 2 2 2
left_child=1 10 3 12 23 6 -6 -7 18 -3 11 16 24 -14 20 -16 -1 -13 -5 22 -12 -10 -11 25 -2 -4 -21
right_child=2 9 4 8 5 7 -8 -9 21 19 14 17 13 -15 15 -17 -18 -19 -20 26 -22 -23 -24 -25 -26 -27 -28
leaf_value=-0.020392269618786041 0.0079230893596888181 -0.013136843584876471 -0.058655315202386815 0.022373082044918377 -0.012473556058035412 0.0062519101247979457 0.0025615330232084685 0.0333243285181022 -0.044752849918933149 -0.0090023225967038115 -0.040424242572563149 0.029139356671050831 -0.0080445123041498652 -0.057910261114193173 -0.013925574194261051 0.024253462164371287 0.024076267691285246 0.006013635764595706 -0.013780945236790645 0.014455668434167804 -0.0086821592830143863 -0.0011246351826932801 0.022536404898403389 -0.0096852275252269533 -0.026889254542402777 -0.021722701082122799 0.048939651727645209
leaf_weight=30.609240174293518 9.3549440205097216 12.746150344610212 8.6590930819511467 32.647440999746323 181.45978151261806 136.39249454438686 296.12504398822784 41.216719120740891 11.436061605811121 5.4918560534715644 14.538711905479429 46.915931910276413 11.920339271426199 39.488262131810188 21.174987480044365 29.629790410399437 9.3399870693683607 61.107268519699574 13.624229341745375 4.1955699548125294 91.499483607709408 7.2935548722743979 109.781493447721 8.7912555783987028 7.0494974553585044 8.5983860939741117 25.971824750304222
leaf_count=134 39 57 35 145 759 697 1283 272 48 24 60 204 50 174 89 136 49 295 61 53 418 31 676 36 30 35 327
internal_value=0.00100784 0.0086845 -0.00335749 -0.0195244 -0.00017429 0.00115207 -0.00315477 0.0127138 -0.000297194 0.0229459 0.00121621 0.00925738 -0.0376095 -0.0468172 -0.00634908 0.00828261 -0.00953952 0.0162785 0.0115558 0.0262104 -0.013418 -0.028935 0.0209263 -0.0325298 -0.00743499 -0.0427255 0.0449219
internal_weight=1277.06 463.002 814.057 132.814 681.243 655.194 477.585 177.609 65.0013 158.187 304.815 147.972 67.813 51.4086 156.843 50.8048 39.9492 108.023 46.2717 145.441 106.038 18.7296 115.273 26.0487 16.4044 17.2575 30.1674
internal_count=6217 2522 3695 578 3117 3011 2042 969 285 1137 1385 682 293 224 703 225 183 499 206 1080 478 79 700 106 69 70 380
is_linear=0
shrinkage=0.05


Tree=31
num_leaves=27
num_cat=0
split_feature=0 8 10 8 9 9 7 20 23 8 4 23 2 13 9 23 12 9 10 2 12 10 21 21 9 20
split_gain=16.0712 22.087 14.3527 9.99647 8.49742 8.75773 6.64418 6.21731 8.45386 7.31146 6.69344 5.70402 6.50704 7.80334 5.80795 5.61996 5.06278 4.93235 4.30357 4.21224 3.5009 3.38997 1.72727 1.63124 1.75376 0.34795
threshold=2.5000000000000004 0.57669703453592958 8.9166666666666696 0.82661573439458669 0.22243361369970577 0.4511980230263633 0.65738946673293974 1.7083333333333337 0.033154657264832167 0.67707546030159083 0.46440744509389204 0.0073091620717858005 0.56125356909760415 1.5000000000000002 0.36241126925175365 0.023779372404308434 10.500000000000002 0.30027954377738159 8.7083333333333339 0.42303080078268945 8.5000000000000018 11.41666666666667 1.5000000000000002 1.5000000000000002 0.80426934723567489 2.5833333333333335
decision_type=2 2 2 2 2 2 2 2 2 2 2 2 2 2 2 2 2 2 2 2 2 2 2 2 2 2
left_child=2 4 7 15 19 6 -6 9 17 10 -1 -4 14 -14 -13 -3 -17 -9 -10 20 -2 -21 -7 24 -5 -25
right_child=1 3 11 23 5 22 -8 8 18 -11 -12 12 13 -15 -16 16 -18 -19 -20 21 -22 -23 -24 25 -26 -27
leaf_value=-0.012489245277351501 -0.060999152941693752 -0.029768902806037542 -0.032642696636185659 -0.013723767765946216 0.0027597506843418979 -0.039780013152198555 0.041092564779865559 -0.001124512948088311 -0.010851073799749204 0.0078086912925282512 -0.060364881581512354 0.0043539631483322421 0.029711282323761634 -0.0070266773335883369 0.024446887558317767 0.017348221074787413 -0.011093551866657624 0.036671381087669506 -0.034383525340174741 -0.01960195958131504 -0.012557693732005454 0.015158440514351688 -0.010817513655781454 0.050652647484208536 0.036651713969373133 0.025710839194133889
leaf_weight=13.129720240831377 8.8685690760612506 6.1914070546627036 10.785997018218039 2.6029957905411711 200.64971382915974 11.777031645178797 11.031933993101118 23.289210438728333 182.53375416994095 9.0822543799877149 18.613903284072876 195.42168591916561 14.673648715019224 181.83988031744957 43.570970892906189 205.47066607326269 16.043889783322811 12.441813290119169 21.444118291139603 23.483805507421494 7.5247175842523566 8.8256013691425306 11.338522061705588 24.182068131864074 2.3343480601906776 6.0923874899744979
leaf_count=55 36 32 44 29 974 50 61 97 764 38 80 840 66 787 191 1222 86 52 91 97 31 37 49 303 31 74
internal_value=0.000957615 0.00743228 -0.0039066 0.0178442 -0.00223491 0.00171411 0.00496482 -0.0127493 -0.00956604 -0.0306445 -0.0417016 0.00165671 0.00259048 -0.0041216 0.00812456 0.0138551 0.0152252 0.0125403 -0.0135051 -0.0210253 -0.0410518 -0.00978672 -0.0268185 0.0424075 0.011413 0.0467759
internal_weight=1273.24 546.418 726.827 262.918 283.5 234.797 211.682 280.535 239.709 40.8259 31.7436 446.292 435.506 196.514 238.993 227.706 221.515 35.731 203.978 48.7027 16.3933 32.3094 23.1156 35.2118 4.93734 30.2745
internal_count=6217 3112 3105 1777 1335 1134 1035 1177 1004 173 135 1928 1884 853 1031 1340 1308 149 855 201 67 134 99 437 60 377
is_linear=0
shrinkage=0.05


Tree=32
num_leaves=22
num_cat=0
split_feature=19 0 8 8 3 4 5 3 11 2 2 2 7 23 2 21 3 4 23 3 4
split_gain=14.9496 10.851 13.7839 9.35611 9.29699 9.40991 7.87775 6.556 6.66488 6.20896 6.16182 5.5859 5.68785 4.79727 4.64362 4.49969 2.37981 1.86957 1.30701 0.995638 0.137892
threshold=1.1250000000000002 2.5000000000000004 0.42068153965388405 0.52502807653450401 0.28740119957605109 0.61246214466402349 0.50501473883452885 0.96534075221478088 10.500000000000002 0.68211987897864412 0.60265338925433076 0.52553077381919355 0.34530974142731186 0.0036601290147026612 0.84594908479485575 1.5000000000000002 0.76692162584565338 0.82573843047752493 0.20644224364307731 0.62747997472505068 0.65532055721714932
decision_type=2 2 2 2 2 2 2 2 2 2 2 2 2 2 2 2 2 2 2 2 2
left_child=6 3 11 14 -4 -6 18 8 -5 -8 -9 13 -13 -3 15 -2 -11 -18 -1 -20 -21
right_child=1 2 4 7 5 -7 9 10 -10 16 -12 12 -14 -15 -16 -17 17 -19 19 20 -22
leaf_value=0.0081091829597677734 -0.0077061910636618053 -0.016686903295345622 -0.032243962580491274 -0.020947682601840961 0.0048208741198031866 0.021090012583437942 0.03900529565983793 0.049690710489047329 -0.0057851056318105089 0.014032600959611183 -0.0039471635704557764 -0.015196146490138299 0.039983751693802611 -0.058962951575655592 0.03354272693308194 0.0039768938310728611 0 -0.032175091482190402 0.0077707902558183453 0.030330890009283209 0.051032176279674157
leaf_weight=3.8421537876129142 125.06495137512684 42.043865635991096 12.709961891174315 134.42763637006283 308.61572074145079 125.0557831004262 9.0090967118740064 7.245613873004916 160.84915770590305 7.6901763677597073 14.478571265935896 10.108071669936182 7.0424952358007422 7.5989944934844962 9.5764340460300428 236.98622362315655 7.7338406443595913 8.9725237935781461 2.6271356046199825 8.781591363251211 19.502103991806507
leaf_count=17 519 172 56 567 1569 906 40 33 690 33 64 42 30 32 42 1026 33 37 13 58 238
internal_value=0.000911252 -0.000385181 0.00510828 -0.0044877 0.00829063 0.00956156 0.0235179 -0.0107848 -0.0127523 0.00569851 0.0151219 -0.0158942 0.0081413 -0.0242935 0.000884872 -5.51841e-05 -0.00745561 -0.0178632 0.0398681 0.0432811 0.0460308
internal_weight=1269.96 1201.8 513.175 688.629 446.381 433.672 68.1586 317.001 295.277 33.4056 21.7242 66.7934 17.1506 49.6429 371.628 362.051 24.3965 16.7064 34.753 30.9108 28.2837
internal_count=6217 5748 2807 2941 2531 2475 469 1354 1257 143 97 276 72 204 1587 1545 103 70 326 309 296
is_linear=0
shrinkage=0.05


Tree=33
num_leaves=23
num_cat=0
split_feature=19 9 5 20 21 6 5 4 10 19 13 5 2 23 19 10 23 11 12 23 4 4
split_gain=13.8506 9.61884 10.4072 17.075 13.988 10.3312 7.51845 7.4911 7.43822 7.96549 8.02384 5.82244 5.72017 5.56257 6.19432 4.6838 3.618 1.64824 1.79696 1.27341 0.986094 0.0978332
threshold=1.1250000000000002 0.22243361369970577 0.31299314968698394 1.7916666666666667 1.5000000000000002 0.42230578804923397 0.50501473883452885 0.5839502068765442 11.583333333333334 2.9166666666666674 5.5000000000000009 0.26130706229158002 0.68211987897864412 0.015744873232681939 3.4166666666666674 10.79166666666667 0.01503089715803339 10.500000000000002 8.5000000000000018 0.20644224364307731 0.65532055721714932 0.60112113040268345
decision_type=2 2 2 2 2 2 2 2 2 2 2 2 2 2 2 2 2 2 2 2 2 2
left_child=6 8 7 4 -4 -5 19 11 9 15 -11 -3 -8 14 -10 -2 -9 -14 -19 -1 21 -21
right_child=1 2 3 5 -6 -7 12 16 13 10 -12 -13 17 -15 -16 -17 -18 18 -20 20 -22 -23
leaf_value=0.0078033315386358514 -0.023286568859078424 -0.0015678638599067659 -0.035051805398990526 -0.0015341630856020782 -0.0012979973011265581 0.017647619251260797 0.037666970283750517 -0.012066387913566484 0.010170014430437579 0.013403696807514579 -0.036901971164845365 0.015596216422021206 0.010710940674676874 0.041042975814721071 -0.041525460545519727 -0.058533679052431731 0.020554618160219598 -0.029135017129387309 0.002395808390192451 0.031042789101492843 0.050546993832300761 0.012543690160637475
leaf_weight=3.8325540125370017 33.322851419448853 186.69444427639246 65.016954094171524 510.07530926913023 58.108616754412651 80.336774483323097 8.9010419696569425 8.3600346893072111 18.045440256595615 22.938959434628487 10.831317976117132 65.932547628879547 7.729654252529147 7.4413503855466834 7.3096370995044699 14.483616352081297 110.88153441250324 9.4185373187065142 7.2497919499874106 6.8149858042597788 18.733915545046329 4.4254654720425606
leaf_count=17 138 870 283 2263 256 482 40 39 75 94 44 297 32 32 30 60 785 39 32 40 238 31
internal_value=0.000874884 -0.000365818 0.00108794 -0.00244131 -0.0193009 0.00109285 0.0228103 0.00786163 -0.0140953 -0.0221164 -0.00318457 0.00293587 0.00547146 0.00577248 -0.00555373 -0.0350481 0.0181446 -0.00709806 -0.0157785 0.0390972 0.042556 0.0257878
internal_weight=1266.89 1199.78 1085.41 713.538 123.126 590.412 67.1059 371.869 114.373 81.5767 33.7703 252.627 33.299 32.7964 25.3551 47.8065 119.242 24.398 16.6683 33.8069 29.9744 11.2405
internal_count=6217 5748 5275 3284 539 2745 469 1991 473 336 138 1167 143 137 105 198 824 103 71 326 309 71
is_linear=0
shrinkage=0.05


Tree=34
num_leaves=28
num_cat=0
split_feature=0 8 14 4 2 11 7 3 9 2 9 9 0 15 2 8 8 9 3 5 3 20 2 3 2 3 4
split_gain=12.322 18.1685 9.60196 9.21128 8.55341 8.90281 7.4467 7.29798 6.76051 6.39889 6.39153 6.58993 6.19957 8.63333 5.99645 6.58815 5.82188 5.64895 4.61442 4.60374 4.50111 4.44492 3.50614 3.19857 2.49011 1.56613 0.167197
threshold=2.5000000000000004 0.57669703453592958 2.5000000000000004 0.71096114768753271 0.75730802774748973 8.5000000000000018 0.65738946673293974 0.9690721169311669 0.23300378911597694 0.28859916873650276 0.44863751481464892 0.64016239437843536 1.5000000000000002 2.0000000000000004 0.74322914424534769 0.6062797860622936 0.51208954633103587 0.45455178922498879 0.39955404086646351 0.49326802017042448 0.469189563496833 2.4166666666666674 0.85881801474331732 0.47916788107337599 0.71062904022453999 0.90078538765291061 0.46440744509389204
decision_type=2 2 2 2 2 2 2 2 2 2 2 2 2 2 2 2 2 2 2 2 2 2 2 2 2 2 2
left_child=2 6 10 20 5 21 9 -7 -5 23 14 22 19 -14 16 -16 -1 -11 -10 -6 -3 -4 -12 -2 -22 -13 -8
right_child=1 3 4 8 12 7 26 -9 18 17 11 25 13 -15 15 -17 -18 -19 -20 -21 24 -23 -24 -25 -26 -27 -28
leaf_value=-0.0043999941220688749 -0.010353596526230552 -0.030967678154147745 -0.04040947287726035 -0.030471931354403473 0.013580304721664029 0.0091479782208236833 0.04133649527450467 0.054664887666915685 -0.018033358541705725 0.00028113162228507021 -0.022405936378837265 0.021081822658545038 -0.069171823041990682 -0.010009283545733431 0.0206405063351945 -0.0090580755224213463 -0.020666469088650333 -0.025512366437913395 0.041874901604013609 -0.012981784460167019 0.026422570261761303 0.0062485972469096263 -0.054004632902124532 -0.058176225358779012 0.0099252650075837296 -0.0093206303484500725 0.018894958822909463
leaf_weight=187.71510002017021 7.8977898955345136 5.1941041350364676 12.347747534513475 3.017320752143859 29.037880524992943 202.24860042333603 7.0497363060712797 8.3302445858716947 2.7715987414121619 232.96697092056274 36.143644750118256 7.2662054002284986 8.1337503045797366 21.147075787186623 39.02259273827076 33.921245664358139 77.978355064988136 22.315300583839417 49.949374485760927 34.650772884488106 26.814466416835785 7.6101885288953772 12.82680071890354 6.7568734884262085 167.89657220989466 7.5767242908477783 5.4897730946540833
leaf_count=795 33 29 52 14 128 873 39 39 17 1108 154 30 35 90 168 144 335 95 569 146 135 31 54 30 1013 31 30
internal_value=0.00083668 0.0065671 -0.00340734 0.0161996 0.00299044 0.00815757 -0.00215916 0.0112221 0.0340699 -0.00397673 -0.00855719 -0.0229833 -0.00971977 -0.0283504 -0.00576433 0.00682636 -0.00925238 -0.00204483 0.0383553 -0.000771187 0.0110473 -0.0229304 -0.0316977 -0.0350304 0.0123461 0.00563824 0.0340021
internal_weight=1264.08 538.12 725.957 255.643 323.506 230.537 282.476 210.579 55.7383 269.937 402.451 63.8134 92.9695 29.2808 338.637 72.9438 265.693 255.282 52.721 63.6887 199.905 19.9579 48.9704 14.6547 194.711 14.8429 12.5395
internal_count=6217 3112 3105 1777 1394 995 1335 912 600 1266 1711 269 399 125 1442 312 1130 1203 586 274 1177 83 208 63 1148 61 69
is_linear=0
shrinkage=0.05


Tree=35
num_leaves=22
num_cat=0
split_feature=23 5 19 9 23 3 5 5 3 9 4 4 7 2 4 9 4 7 10 11 10
